{"learner":{"attributes":{"scikit_learn":"{\"_estimator_type\": \"classifier\"}"},"feature_names":["age","bmi","hba1c","bp_systolic","smoker","diabetes","prediabetes","hypertension","chronic_count"],"feature_types":["int","float","float","int","int","int","int","int","int"],"gradient_booster":{"model":{"cats":{"enc":[],"feature_segments":[],"sorted_idx":[]},"gbtree_model_param":{"num_parallel_tree":"1","num_trees":"1000"},"iteration_indptr":[0,4,8,12,16,20,24,28,32,36,40,44,48,52,56,60,64,68,72,76,80,84,88,92,96,100,104,108,112,116,120,124,128,132,136,140,144,148,152,156,160,164,168,172,176,180,184,188,192,196,200,204,208,212,216,220,224,228,232,236,240,244,248,252,256,260,264,268,272,276,280,284,288,292,296,300,304,308,312,316,320,324,328,332,336,340,344,348,352,356,360,364,368,372,376,380,384,388,392,396,400,404,408,412,416,420,424,428,432,436,440,444,448,452,456,460,464,468,472,476,480,484,488,492,496,500,504,508,512,516,520,524,528,532,536,540,544,548,552,556,560,564,568,572,576,580,584,588,592,596,600,604,608,612,616,620,624,628,632,636,640,644,648,652,656,660,664,668,672,676,680,684,688,692,696,700,704,708,712,716,720,724,728,732,736,740,744,748,752,756,760,764,768,772,776,780,784,788,792,796,800,804,808,812,816,820,824,828,832,836,840,844,848,852,856,860,864,868,872,876,880,884,888,892,896,900,904,908,912,916,920,924,928,932,936,940,944,948,952,956,960,964,968,972,976,980,984,988,992,996,1000],"tree_info":[0,1,2,3,0,1,2,3,0,1,2,3,0,1,2,3,0,1,2,3,0,1,2,3,0,1,2,3,0,1,2,3,0,1,2,3,0,1,2,3,0,1,2,3,0,1,2,3,0,1,2,3,0,1,2,3,0,1,2,3,0,1,2,3,0,1,2,3,0,1,2,3,0,1,2,3,0,1,2,3,0,1,2,3,0,1,2,3,0,1,2,3,0,1,2,3,0,1,2,3,0,1,2,3,0,1,2,3,0,1,2,3,0,1,2,3,0,1,2,3,0,1,2,3,0,1,2,3,0,1,2,3,0,1,2,3,0,1,2,3,0,1,2,3,0,1,2,3,0,1,2,3,0,1,2,3,0,1,2,3,0,1,2,3,0,1,2,3,0,1,2,3,0,1,2,3,0,1,2,3,0,1,2,3,0,1,2,3,0,1,2,3,0,1,2,3,0,1,2,3,0,1,2,3,0,1,2,3,0,1,2,3,0,1,2,3,0,1,2,3,0,1,2,3,0,1,2,3,0,1,2,3,0,1,2,3,0,1,2,3,0,1,2,3,0,1,2,3,0,1,2,3,0,1,2,3,0,1,2,3,0,1,2,3,0,1,2,3,0,1,2,3,0,1,2,3,0,1,2,3,0,1,2,3,0,1,2,3,0,1,2,3,0,1,2,3,0,1,2,3,0,1,2,3,0,1,2,3,0,1,2,3,0,1,2,3,0,1,2,3,0,1,2,3,0,1,2,3,0,1,2,3,0,1,2,3,0,1,2,3,0,1,2,3,0,1,2,3,0,1,2,3,0,1,2,3,0,1,2,3,0,1,2,3,0,1,2,3,0,1,2,3,0,1,2,3,0,1,2,3,0,1,2,3,0,1,2,3,0,1,2,3,0,1,2,3,0,1,2,3,0,1,2,3,0,1,2,3,0,1,2,3,0,1,2,3,0,1,2,3,0,1,2,3,0,1,2,3,0,1,2,3,0,1,2,3,0,1,2,3,0,1,2,3,0,1,2,3,0,1,2,3,0,1,2,3,0,1,2,3,0,1,2,3,0,1,2,3,0,1,2,3,0,1,2,3,0,1,2,3,0,1,2,3,0,1,2,3,0,1,2,3,0,1,2,3,0,1,2,3,0,1,2,3,0,1,2,3,0,1,2,3,0,1,2,3,0,1,2,3,0,1,2,3,0,1,2,3,0,1,2,3,0,1,2,3,0,1,2,3,0,1,2,3,0,1,2,3,0,1,2,3,0,1,2,3,0,1,2,3,0,1,2,3,0,1,2,3,0,1,2,3,0,1,2,3,0,1,2,3,0,1,2,3,0,1,2,3,0,1,2,3,0,1,2,3,0,1,2,3,0,1,2,3,0,1,2,3,0,1,2,3,0,1,2,3,0,1,2,3,0,1,2,3,0,1,2,3,0,1,2,3,0,1,2,3,0,1,2,3,0,1,2,3,0,1,2,3,0,1,2,3,0,1,2,3,0,1,2,3,0,1,2,3,0,1,2,3,0,1,2,3,0,1,2,3,0,1,2,3,0,1,2,3,0,1,2,3,0,1,2,3,0,1,2,3,0,1,2,3,0,1,2,3,0,1,2,3,0,1,2,3,0,1,2,3,0,1,2,3,0,1,2,3,0,1,2,3,0,1,2,3,0,1,2,3,0,1,2,3,0,1,2,3,0,1,2,3,0,1,2,3,0,1,2,3,0,1,2,3,0,1,2,3,0,1,2,3,0,1,2,3,0,1,2,3,0,1,2,3,0,1,2,3,0,1,2,3,0,1,2,3,0,1,2,3,0,1,2,3,0,1,2,3,0,1,2,3,0,1,2,3,0,1,2,3,0,1,2,3,0,1,2,3,0,1,2,3,0,1,2,3,0,1,2,3,0,1,2,3,0,1,2,3,0,1,2,3,0,1,2,3,0,1,2,3,0,1,2,3,0,1,2,3,0,1,2,3,0,1,2,3,0,1,2,3,0,1,2,3,0,1,2,3,0,1,2,3,0,1,2,3,0,1,2,3,0,1,2,3,0,1,2,3,0,1,2,3,0,1,2,3,0,1,2,3,0,1,2,3,0,1,2,3,0,1,2,3,0,1,2,3,0,1,2,3,0,1,2,3,0,1,2,3,0,1,2,3,0,1,2,3,0,1,2,3,0,1,2,3,0,1,2,3,0,1,2,3,0,1,2,3,0,1,2,3,0,1,2,3,0,1,2,3,0,1,2,3,0,1,2,3,0,1,2,3,0,1,2,3],"trees":[{"base_weights":[-1.8580937E-3,5.04164E-1,-6.8362653E-1,6.761775E-1,-7.5114205E-2,-3.7145388E-1,-1.0404996E0,7.8391284E-1,-6.1565125E-1,8.345107E-1,-6.356894E-1,-8.924654E-1,-7.560155E-2,9.125745E-1,4.5390123E-1,-3.0586336E-2,-7.999496E-1,6.1014965E-2,5.058105E-1,-3.960462E-1,-7.553592E-2,-1.1191618E-1,-9.5763695E-1,6.483572E-2,5.4776765E-2,4.333995E-2,-1.8494794E-2,1.7193044E-2,-3.5989705E-2,-3.855482E-2,-6.440263E-2,5.6801777E-2,1.3640556E-2,-1.1471176E-3,-7.008573E-2,2.4164971E-2,-6.0631182E-2,-4.9701076E-2,-7.178076E-2],"categories":[],"categories_nodes":[],"categories_segments":[],"categories_sizes":[],"default_left":[0,0,0,0,0,0,0,0,0,0,0,0,0,0,0,0,0,0,0,0,0,0,0,0,0,0,0,0,0,0,0,0,0,0,0,0,0,0,0],"id":0,"left_children":[1,3,5,7,-1,9,11,13,15,17,19,21,-1,23,25,27,29,-1,31,33,-1,35,37,-1,-1,-1,-1,-1,-1,-1,-1,-1,-1,-1,-1,-1,-1,-1,-1],"loss_changes":[1.1611239E3,5.248395E2,1.5935205E2,2.4299304E2,0E0,2.4474265E2,2.9471436E0,6.789459E1,1.4498924E1,1.2455215E0,6.6429794E1,7.3513336E0,0E0,1.3282471E0,5.3949005E1,4.5743957E0,2.5568848E0,0E0,1.4011631E0,9.419228E1,0E0,4.585039E0,1.5416641E0,0E0,0E0,0E0,0E0,0E0,0E0,0E0,0E0,0E0,0E0,0E0,0E0,0E0,0E0,0E0,0E0],"parents":[2147483647,0,0,1,1,2,2,3,3,5,5,6,6,7,7,8,8,9,9,10,10,11,11,13,13,14,14,15,15,16,16,18,18,19,19,21,21,22,22],"right_children":[2,4,6,8,-1,10,12,14,16,18,20,22,-1,24,26,28,30,-1,32,34,-1,36,38,-1,-1,-1,-1,-1,-1,-1,-1,-1,-1,-1,-1,-1,-1,-1,-1],"split_conditions":[2E0,1E0,1E0,1E0,-7.5114205E-2,5.7E0,5.5E0,1E0,3.7E1,5E1,1E0,3E1,-7.560155E-2,1E0,4.5E1,5.3E0,4.4E1,6.1014965E-2,1E0,1E0,-7.553592E-2,1E0,3.9E1,6.483572E-2,5.4776765E-2,4.333995E-2,-1.8494794E-2,1.7193044E-2,-3.5989705E-2,-3.855482E-2,-6.440263E-2,5.6801777E-2,1.3640556E-2,-1.1471176E-3,-7.008573E-2,2.4164971E-2,-6.0631182E-2,-4.9701076E-2,-7.178076E-2],"split_indices":[8,5,7,7,0,2,2,6,0,0,5,0,0,4,0,2,0,0,4,4,0,4,0,0,0,0,0,0,0,0,0,0,0,0,0,0,0,0,0],"split_type":[0,0,0,0,0,0,0,0,0,0,0,0,0,0,0,0,0,0,0,0,0,0,0,0,0,0,0,0,0,0,0,0,0,0,0,0,0,0,0],"sum_hessian":[3.363676E3,1.9308336E3,1.4328425E3,1.7414777E3,1.8935588E2,7.653755E2,6.6746704E2,1.6077855E3,1.3369221E2,1.3717119E2,6.282043E2,1.4562013E2,5.218469E2,1.1555182E3,4.5226733E2,3.230481E1,1.013874E2,1.2176428E2,1.5406909E1,4.0902856E2,2.191757E2,1.1430932E1,1.3418921E2,1.0402148E3,1.15303314E2,3.6777783E2,8.44895E1,2.0873877E1,1.1430932E1,3.4789795E1,6.65976E1,6.9579587E0,8.44895E0,2.5197751E2,1.5705107E2,7.454956E0,3.9759765E0,3.1310814E1,1.0287839E2],"tree_param":{"num_deleted":"0","num_feature":"9","num_nodes":"39","size_leaf_vector":"1"}},{"base_weights":[4.4805845E-3,-5.3943742E-2,1.9102047E-1,-7.552091E-2,4.2435348E-1,-3.2928038E-1,9.408582E-2,6.3900346E-1,2.8113069E-3,-5.04589E-1,8.8453037E-1,1.8050295E-1,9.9037766E-1,9.3281513E-1,-7.449795E-1,-5.1315717E-2,-1.7548874E-2,3.0863471E-2,8.028011E-2,-4.7686793E-2,3.5862986E-2,7.332907E-2,2.6844902E-2,8.708771E-2,1.6838936E-2,-2.104807E-2,-5.3232703E-2],"categories":[],"categories_nodes":[],"categories_segments":[],"categories_sizes":[],"default_left":[0,0,0,0,0,0,0,0,0,0,0,0,0,0,0,0,0,0,0,0,0,0,0,0,0,0,0],"id":1,"left_children":[1,-1,3,5,7,9,-1,11,13,15,17,19,21,23,25,-1,-1,-1,-1,-1,-1,-1,-1,-1,-1,-1,-1],"loss_changes":[4.50416E2,0E0,1.561902E2,4.229586E2,1.211552E2,2.1234845E2,0E0,1.4275568E2,3.155774E2,5.0332245E1,1.4161911E1,1.107681E2,1.7020538E1,4.3284042E1,1.5021515E0,0E0,0E0,0E0,0E0,0E0,0E0,0E0,0E0,0E0,0E0,0E0,0E0],"parents":[2147483647,0,0,2,2,3,3,4,4,5,5,7,7,8,8,9,9,10,10,11,11,12,12,13,13,14,14],"right_children":[2,-1,4,6,8,10,-1,12,14,16,18,20,22,24,26,-1,-1,-1,-1,-1,-1,-1,-1,-1,-1,-1,-1],"split_conditions":[1E0,-5.3943742E-2,2E0,1E0,1E0,1E0,9.408582E-2,1.27E2,1.32E2,1E0,4.1E1,1E0,4E0,1E0,1E0,-5.1315717E-2,-1.7548874E-2,3.0863471E-2,8.028011E-2,-4.7686793E-2,3.5862986E-2,7.332907E-2,2.6844902E-2,8.708771E-2,1.6838936E-2,-2.104807E-2,-5.3232703E-2],"split_indices":[8,0,8,5,5,7,0,3,3,6,0,6,8,4,7,0,0,0,0,0,0,0,0,0,0,0,0],"split_type":[0,0,0,0,0,0,0,0,0,0,0,0,0,0,0,0,0,0,0,0,0,0,0,0,0,0,0],"sum_hessian":[3.113149E3,6.03281E2,2.509868E3,1.1718801E3,1.3379878E3,9.948204E2,1.7705977E2,8.8621155E2,4.5177625E2,8.697833E2,1.25037056E2,3.8515063E2,5.010609E2,2.0124577E2,2.5053046E2,4.5679596E2,4.1298737E2,4.745932E1,7.7577736E1,1.0678347E2,2.783672E2,4.5725232E2,4.3808605E1,1.382709E2,6.297487E1,9.126793E0,2.4140366E2],"tree_param":{"num_deleted":"0","num_feature":"9","num_nodes":"27","size_leaf_vector":"1"}},{"base_weights":[-2.301802E-3,-4.4788748E-1,1.794327E0,-5.0805044E-1,4.425003E-1,2.0626377E-1,4.162864E0,-5.4686165E-1,-2.0260534E-1,-3.7422776E-2,1.597691E0,-2.596117E-1,2.4265153E0,3.4228507E-1,2.4724684E0,-3.855248E-2,-4.2730966E-1,-5.033761E-1,6.514887E-1,1.8342982E-1,2.8662077E-1,-3.4671882E-1,1.593376E-1,2.358485E-2,2.0948516E-1,3.117725E0,1.4107974E0,-3.6986586E-2,4.7003757E-3,-3.6068406E-2,-1.3844553E-2,-3.6202285E-2,1.5932031E-1,-1.2788971E-2,9.786781E-2,-2.7230142E-2,1.7503664E-2,-1.8341446E-3,3.5896193E-2,2.4390328E-1,1.1909273E-1,1.4139865E-1,3.2851018E-2],"categories":[],"categories_nodes":[],"categories_segments":[],"categories_sizes":[],"default_left":[0,0,0,0,0,0,0,0,0,0,0,0,0,0,0,0,0,0,0,0,0,0,0,0,0,0,0,0,0,0,0,0,0,0,0,0,0,0,0,0,0,0,0],"id":2,"left_children":[1,3,5,7,9,11,13,15,17,-1,19,21,23,-1,25,-1,27,29,31,33,-1,35,37,-1,-1,39,41,-1,-1,-1,-1,-1,-1,-1,-1,-1,-1,-1,-1,-1,-1,-1,-1],"loss_changes":[9.2140625E2,4.962732E1,8.5946954E2,1.0135559E1,6.734331E1,1.4334528E2,1.00653564E2,1.2086487E-1,2.5768023E1,0E0,9.545291E1,4.250089E0,2.7414642E1,0E0,1.588855E1,0E0,1.4646659E0,1.6619301E-1,5.0970676E1,8.45594E0,0E0,2.5064754E0,1.3559632E0,0E0,0E0,3.2072449E0,6.5202827E0,0E0,0E0,0E0,0E0,0E0,0E0,0E0,0E0,0E0,0E0,0E0,0E0,0E0,0E0,0E0,0E0],"parents":[2147483647,0,0,1,1,2,2,3,3,4,4,5,5,6,6,7,7,8,8,10,10,11,11,12,12,14,14,16,16,17,17,18,18,19,19,21,21,22,22,25,25,26,26],"right_children":[2,4,6,8,10,12,14,16,18,-1,20,22,24,-1,26,-1,28,30,32,34,-1,36,38,-1,-1,40,42,-1,-1,-1,-1,-1,-1,-1,-1,-1,-1,-1,-1,-1,-1,-1,-1],"split_conditions":[1E0,1.59E2,1.32E2,1.39E2,1E0,1E0,1E0,1E0,1E0,-3.7422776E-2,1E0,5.3E1,2.18E1,3.4228507E-1,1.54E2,-3.855248E-2,1E0,6.1E1,1E0,5.3E1,2.8662077E-1,2.95E1,1.21E2,2.358485E-2,2.0948516E-1,2.61E1,5.2E1,-3.6986586E-2,4.7003757E-3,-3.6068406E-2,-1.3844553E-2,-3.6202285E-2,1.5932031E-1,-1.2788971E-2,9.786781E-2,-2.7230142E-2,1.7503664E-2,-1.8341446E-3,3.5896193E-2,2.4390328E-1,1.1909273E-1,1.4139865E-1,3.2851018E-2],"split_indices":[5,3,3,3,6,4,4,7,4,0,4,0,1,0,3,0,4,0,6,0,0,1,3,0,0,1,0,0,0,0,0,0,0,0,0,0,0,0,0,0,0,0,0],"split_type":[0,0,0,0,0,0,0,0,0,0,0,0,0,0,0,0,0,0,0,0,0,0,0,0,0,0,0,0,0,0,0,0,0,0,0,0,0,0,0,0,0,0,0],"sum_hessian":[1.1489596E3,9.2123334E2,2.277263E2,8.633282E2,5.790513E1,1.3697441E2,9.075189E1,7.6529584E2,9.8032364E1,3.1661575E1,2.6243551E1,1.1394781E2,2.30266E1,6.213796E1,2.8613937E1,7.3769775E2,2.7598057E1,7.2804695E1,2.5227673E1,1.7439264E1,8.804288E0,9.447678E1,1.9471022E1,5.24871E0,1.777789E1,1.6592697E1,1.202124E1,2.2857286E1,4.740771E0,6.941843E1,3.3862648E0,1.5068878E1,1.0158794E1,1.4052999E1,3.3862648E0,8.855082E1,5.9259634E0,1.3375746E1,6.0952764E0,1.202124E1,4.5714574E0,6.603216E0,5.4180236E0],"tree_param":{"num_deleted":"0","num_feature":"9","num_nodes":"43","size_leaf_vector":"1"}},{"base_weights":[1.5812678E-2,-4.493234E-1,2.7218065E0,-4.8219976E-1,5.3379945E-2,-1.98434E-1,8.164015E0,-3.5338033E-2,-1.5356462E-1,-3.356462E-2,7.372591E-2,2.4843967E0,1.1391999E0,-3.1734936E-2,3.5921954E-2,5.9452425E-3,2.9894042E-1],"categories":[],"categories_nodes":[],"categories_segments":[],"categories_sizes":[],"default_left":[0,0,0,0,0,0,0,0,0,0,0,0,0,0,0,0,0],"id":3,"left_children":[1,3,5,7,-1,9,11,-1,13,-1,-1,15,-1,-1,-1,-1,-1],"loss_changes":[2.6438828E2,7.510494E0,4.9126746E2,1.2250443E0,0E0,7.90218E0,4.562588E2,0E0,2.7753248E0,0E0,0E0,3.1875103E1,0E0,0E0,0E0,0E0,0E0],"parents":[2147483647,0,0,1,1,2,2,3,3,5,5,6,6,8,8,11,11],"right_children":[2,4,6,8,-1,10,12,-1,14,-1,-1,16,-1,-1,-1,-1,-1],"split_conditions":[7E0,4E0,1.39E2,1E0,5.3379945E-2,1.3E2,1E0,-3.5338033E-2,1.38E2,-3.356462E-2,7.372591E-2,8.3E0,1.1391999E0,-3.1734936E-2,3.5921954E-2,5.9452425E-3,2.9894042E-1],"split_indices":[2,8,3,5,0,3,4,0,3,0,0,2,0,0,0,0,0],"split_type":[0,0,0,0,0,0,0,0,0,0,0,0,0,0,0,0,0],"sum_hessian":[2.0808449E2,1.7827463E2,2.9809856E1,1.7415231E2,4.1223125E0,2.0027056E1,9.782801E0,1.6243141E2,1.1720903E1,1.6858412E1,3.1686432E0,6.5218673E0,3.2609336E0,8.306152E0,3.4147513E0,3.2301702E0,3.2916973E0],"tree_param":{"num_deleted":"0","num_feature":"9","num_nodes":"17","size_leaf_vector":"1"}},{"base_weights":[-5.8999285E-3,4.6696243E-1,-6.3617945E-1,6.341971E-1,-6.970901E-2,-3.4706697E-1,-9.731174E-1,7.364287E-1,-5.5675566E-1,7.996892E-1,-5.8969086E-1,-8.367825E-1,-7.064463E-2,6.0666747E-2,4.0325543E-1,-3.01442E-1,-7.5932705E-1,5.679498E-2,1.9221932E-2,-3.553122E-1,-7.04928E-2,-3.7759626E-1,-8.8471645E-1,3.4503575E-2,9.342012E-4,2.0967808E-2,-2.6358308E-2,-3.995251E-2,-6.496347E-2,-1.3624227E-2,-5.965262E-2,-3.960447E-2,4.7307E-3,-3.7792083E-2,-6.438116E-2],"categories":[],"categories_nodes":[],"categories_segments":[],"categories_sizes":[],"default_left":[0,0,0,0,0,0,0,0,0,0,0,0,0,0,0,0,0,0,0,0,0,0,0,0,0,0,0,0,0,0,0,0,0,0,0],"id":4,"left_children":[1,3,5,7,-1,9,11,13,15,17,19,21,-1,-1,23,25,27,-1,-1,29,-1,31,33,-1,-1,-1,-1,-1,-1,-1,-1,-1,-1,-1,-1],"loss_changes":[1.004687E3,4.7180328E2,1.404231E2,2.1092725E2,0E0,2.172807E2,2.4362793E0,6.876526E1,6.8699913E0,6.13472E-1,6.2611465E1,2.8666E0,0E0,0E0,1.5706879E1,2.928534E0,1.8844757E0,0E0,0E0,3.286907E1,0E0,1.3358495E0,1.0842285E0,0E0,0E0,0E0,0E0,0E0,0E0,0E0,0E0,0E0,0E0,0E0,0E0],"parents":[2147483647,0,0,1,1,2,2,3,3,5,5,6,6,7,7,8,8,9,9,10,10,11,11,14,14,15,15,16,16,19,19,21,21,22,22],"right_children":[2,4,6,8,-1,10,12,14,16,18,20,22,-1,-1,24,26,28,-1,-1,30,-1,32,34,-1,-1,-1,-1,-1,-1,-1,-1,-1,-1,-1,-1],"split_conditions":[2E0,1E0,1E0,1E0,-6.970901E-2,5.7E0,5.5E0,1E0,1.48E2,1.36E2,1E0,1.37E2,-7.064463E-2,6.0666747E-2,1.28E2,4.8E0,2.46E1,5.679498E-2,1.9221932E-2,3E0,-7.04928E-2,5.3E0,4.8E0,3.4503575E-2,9.342012E-4,2.0967808E-2,-2.6358308E-2,-3.995251E-2,-6.496347E-2,-1.3624227E-2,-5.965262E-2,-3.960447E-2,4.7307E-3,-3.7792083E-2,-6.438116E-2],"split_indices":[8,5,7,7,0,2,2,6,3,3,5,3,0,0,3,2,1,0,0,8,0,2,2,0,0,0,0,0,0,0,0,0,0,0,0],"split_type":[0,0,0,0,0,0,0,0,0,0,0,0,0,0,0,0,0,0,0,0,0,0,0,0,0,0,0,0,0,0,0,0,0,0,0],"sum_hessian":[3.3690352E3,1.9250444E3,1.4439906E3,1.728052E3,1.9699245E2,7.7824286E2,6.657478E2,1.5917938E3,1.3625818E2,1.3550162E2,6.427412E2,1.4441399E2,5.213338E2,1.143279E3,4.4851477E2,6.1382267E1,7.4875916E1,1.3202287E2,3.4787536E0,4.127799E2,2.299613E2,1.4489382E1,1.2992459E2,3.6445148E2,8.4063286E1,6.4868784E0,5.489539E1,3.7427216E1,3.7448696E1,3.1296347E2,9.981643E1,9.993926E0,4.4954553E0,1.3490111E1,1.1643449E2],"tree_param":{"num_deleted":"0","num_feature":"9","num_nodes":"35","size_leaf_vector":"1"}},{"base_weights":[7.790052E-3,-5.2094795E-2,1.8144536E-1,-5.741638E-2,3.8941702E-1,-3.0732858E-1,1.1504434E0,5.8992094E-1,-6.636512E-3,-4.857068E-1,6.6508794E-1,1.1892655E0,5.143325E-1,1.0358949E-1,8.689382E-1,8.5293096E-1,-7.043993E-1,-4.391508E-2,-1.2683692E-2,2.1202112E-2,7.603759E-2,7.1973704E-2,8.6723246E-2,5.113063E-2,-1.6152475E-3,-4.6665654E-2,2.9009033E-2,6.45903E-2,1.8103201E-2,7.833086E-2,1.6828826E-2,-3.876738E-2,-5.2044407E-2],"categories":[],"categories_nodes":[],"categories_segments":[],"categories_sizes":[],"default_left":[0,0,0,0,0,0,0,0,0,0,0,0,0,0,0,0,0,0,0,0,0,0,0,0,0,0,0,0,0,0,0,0,0],"id":5,"left_children":[1,-1,3,5,7,9,11,13,15,17,19,21,23,25,27,29,31,-1,-1,-1,-1,-1,-1,-1,-1,-1,-1,-1,-1,-1,-1,-1,-1],"loss_changes":[4.05648E2,0E0,1.2538145E2,3.5515857E2,1.07137146E2,1.6938992E2,4.3697205E0,1.21449646E2,2.7315436E2,3.543701E1,2.2782051E1,2.4005127E-1,1.5689778E0,7.872337E1,1.8438293E1,3.298842E1,1.0679169E0,0E0,0E0,0E0,0E0,0E0,0E0,0E0,0E0,0E0,0E0,0E0,0E0,0E0,0E0,0E0,0E0],"parents":[2147483647,0,0,2,2,3,3,4,4,5,5,6,6,7,7,8,8,9,9,10,10,11,11,12,12,13,13,14,14,15,15,16,16],"right_children":[2,-1,4,6,8,10,12,14,16,18,20,22,24,26,28,30,32,-1,-1,-1,-1,-1,-1,-1,-1,-1,-1,-1,-1,-1,-1,-1,-1],"split_conditions":[1E0,-5.2094795E-2,2E0,6.5E0,6.5E0,1.33E2,1.03E1,1.24E2,1.32E2,5.8E0,4.4E1,6.6E0,4.7E1,5.7E0,4E0,1E0,6.6E0,-4.391508E-2,-1.2683692E-2,2.1202112E-2,7.603759E-2,7.1973704E-2,8.6723246E-2,5.113063E-2,-1.6152475E-3,-4.6665654E-2,2.9009033E-2,6.45903E-2,1.8103201E-2,7.833086E-2,1.6828826E-2,-3.876738E-2,-5.2044407E-2],"split_indices":[8,0,8,2,2,3,2,3,3,2,0,2,0,2,8,4,2,0,0,0,0,0,0,0,0,0,0,0,0,0,0,0,0],"split_type":[0,0,0,0,0,0,0,0,0,0,0,0,0,0,0,0,0,0,0,0,0,0,0,0,0,0,0,0,0,0,0,0,0],"sum_hessian":[3.1042603E3,5.817499E2,2.5225103E3,1.1744001E3,1.3481101E3,9.7368536E2,2.0071478E2,8.9468317E2,4.5342697E2,8.231828E2,1.5050256E2,1.8835013E2,1.2364648E1,3.2666763E2,5.680155E2,2.030586E2,2.5036838E2,5.6110815E2,2.6207465E2,8.183964E1,6.8662926E1,4.948637E1,1.3886375E2,8.562331E0,3.8023167E0,9.359339E1,2.3307425E2,5.215461E2,4.646945E1,1.4098648E2,6.2072105E1,5.4728096E1,1.9564029E2],"tree_param":{"num_deleted":"0","num_feature":"9","num_nodes":"33","size_leaf_vector":"1"}},{"base_weights":[1.6746994E-3,-4.351074E-1,1.3966149E0,-5.0512433E-1,3.4828648E-1,1.8017823E-1,2.8791118E0,-3.8079742E-2,-1.7249548E-1,-3.741762E-2,1.1689417E0,-2.5087333E-1,1.8561525E0,3.2839649E0,1.8050451E0,-5.0884175E-1,6.62885E-1,6.5472E-2,3.0987973E0,-4.59912E-1,9.9973816E-1,3.8627002E-1,2.158958E-1,2.3724923E-1,7.878839E-2,2.320616E0,8.656268E-1,-3.7761632E-2,-2.2064308E-2,-3.574829E-2,1.367939E-1,-1.9257143E-2,8.2653716E-2,1.0997451E-1,2.3649944E-1,-3.5368115E-2,2.6392566E-2,1.1318975E-2,1.637763E-1,-1.221094E-2,1.22498415E-1,1.8924083E-1,4.4257756E-2,1.08546846E-1,2.9278211E-3],"categories":[],"categories_nodes":[],"categories_segments":[],"categories_sizes":[],"default_left":[0,0,0,0,0,0,0,0,0,0,0,0,0,0,0,0,0,0,0,0,0,0,0,0,0,0,0,0,0,0,0,0,0,0,0,0,0,0,0,0,0,0,0,0,0],"id":6,"left_children":[1,3,5,7,9,11,13,-1,15,-1,17,19,21,23,25,27,29,31,33,35,37,39,-1,-1,-1,41,43,-1,-1,-1,-1,-1,-1,-1,-1,-1,-1,-1,-1,-1,-1,-1,-1,-1,-1],"loss_changes":[7.025618E2,4.8342392E1,4.953333E2,1.0334122E1,5.3250156E1,1.1034694E2,4.793164E1,0E0,2.4459814E1,0E0,8.06299E1,3.231823E1,5.5192154E1,1.6354492E1,1.5488937E1,1.9611263E-1,3.9002975E1,9.885831E0,5.846405E-1,4.179226E0,1.957283E1,1.2051045E1,0E0,0E0,0E0,1.29826355E1,8.059634E0,0E0,0E0,0E0,0E0,0E0,0E0,0E0,0E0,0E0,0E0,0E0,0E0,0E0,0E0,0E0,0E0,0E0,0E0],"parents":[2147483647,0,0,1,1,2,2,3,3,4,4,5,5,6,6,8,8,10,10,11,11,12,12,13,13,14,14,15,15,16,16,17,17,18,18,19,19,20,20,21,21,25,25,26,26],"right_children":[2,4,6,8,10,12,14,-1,16,-1,18,20,22,24,26,28,30,32,34,36,38,40,-1,-1,-1,42,44,-1,-1,-1,-1,-1,-1,-1,-1,-1,-1,-1,-1,-1,-1,-1,-1,-1,-1],"split_conditions":[6.5E0,1.56E2,1.32E2,1.39E2,5.7E0,1E0,1E0,-3.8079742E-2,1E0,-3.741762E-2,1E0,9.4E0,7.9E0,1.05E1,8.4E0,6.1E0,5.7E0,5.3E1,3.7E1,6E1,4.4E1,5.2E1,2.158958E-1,2.3724923E-1,7.878839E-2,2.72E1,4.9E1,-3.7761632E-2,-2.2064308E-2,-3.574829E-2,1.367939E-1,-1.9257143E-2,8.2653716E-2,1.0997451E-1,2.3649944E-1,-3.5368115E-2,2.6392566E-2,1.1318975E-2,1.637763E-1,-1.221094E-2,1.22498415E-1,1.8924083E-1,4.4257756E-2,1.08546846E-1,2.9278211E-3],"split_indices":[2,3,3,3,2,4,4,0,4,0,4,2,2,2,2,2,2,0,0,0,0,0,0,0,0,1,0,0,0,0,0,0,0,0,0,0,0,0,0,0,0,0,0,0,0],"split_type":[0,0,0,0,0,0,0,0,0,0,0,0,0,0,0,0,0,0,0,0,0,0,0,0,0,0,0,0,0,0,0,0,0,0,0,0,0,0,0,0,0,0,0,0,0],"sum_hessian":[1.1510951E3,8.771355E2,2.739596E2,8.0549817E2,7.163732E1,1.5109927E2,1.2286031E2,7.2064594E2,8.485223E1,3.4679417E1,3.6957905E1,1.2086401E2,3.023526E1,8.773314E1,3.512718E1,6.0773926E1,2.4078302E1,2.417108E1,1.2786826E1,1.040966E2,1.6767408E1,1.4361042E1,1.5874219E1,8.310801E1,4.625126E0,2.1730686E1,1.3396491E1,5.0936085E1,9.837841E0,1.2930914E1,1.1147388E1,1.9093805E1,5.077275E0,3.0031292E0,9.783697E0,9.912235E1,4.9742475E0,1.1005089E1,5.76232E0,1.0794697E1,3.5663452E0,1.7224035E1,4.506651E0,6.832501E0,6.5639906E0],"tree_param":{"num_deleted":"0","num_feature":"9","num_nodes":"45","size_leaf_vector":"1"}},{"base_weights":[-9.251168E-3,-4.4695333E-1,1.9168881E0,-4.8111153E-1,6.987794E-2,-3.3693917E-2,3.9939466E0,-4.985801E-1,1.5200938E-2,-2.7208084E-2,4.8128524E0,-3.5317622E-2,-9.59525E-3,1.3548851E-1,6.014468E0,1.9090265E-1,5.018155E-1],"categories":[],"categories_nodes":[],"categories_segments":[],"categories_sizes":[],"default_left":[0,0,0,0,0,0,0,0,0,0,0,0,0,0,0,0,0],"id":7,"left_children":[1,3,5,7,-1,-1,9,11,-1,-1,13,-1,-1,-1,15,-1,-1],"loss_changes":[1.7900574E2,9.020168E0,1.9776651E2,2.1778946E0,0E0,0E0,7.787204E1,2.8798676E-1,0E0,0E0,5.0305878E1,0E0,0E0,0E0,2.660849E1,0E0,0E0],"parents":[2147483647,0,0,1,1,2,2,3,3,6,6,7,7,10,10,14,14],"right_children":[2,4,6,8,-1,-1,10,12,-1,-1,14,-1,-1,-1,16,-1,-1],"split_conditions":[3E0,9.9E0,1E0,6.1E1,6.987794E-2,-3.3693917E-2,1E0,9.1E0,1.5200938E-2,-2.7208084E-2,1E0,-3.5317622E-2,-9.59525E-3,1.3548851E-1,4.5E1,1.9090265E-1,5.018155E-1],"split_indices":[8,2,5,0,0,0,7,2,0,0,4,0,0,0,0,0,0],"split_type":[0,0,0,0,0,0,0,0,0,0,0,0,0,0,0,0,0],"sum_hessian":[2.103085E2,1.7199236E2,3.8316147E1,1.6867279E2,3.3195608E0,1.8139746E1,2.0176401E1,1.6483508E2,3.8377042E0,3.2591867E0,1.6917213E1,1.6177351E2,3.0615723E0,5.7527905E0,1.1164423E1,3.775403E0,7.3890204E0],"tree_param":{"num_deleted":"0","num_feature":"9","num_nodes":"17","size_leaf_vector":"1"}},{"base_weights":[3.7185096E-3,4.5531633E-1,-5.933938E-1,6.123653E-1,-6.541878E-2,-3.112557E-1,-9.204844E-1,7.075672E-1,-4.9107185E-1,7.68257E-1,-5.475686E-1,-7.770603E-1,-6.655509E-2,8.306569E-1,4.0729514E-1,-6.393426E-2,-7.190708E-1,5.676498E-2,4.0221465E-1,-3.2182E-1,-6.640942E-2,-4.6533242E-1,-6.364379E-2,5.826691E-2,2.498026E-2,3.9338354E-2,-1.5023975E-2,1.5898293E-2,-3.60357E-2,-3.3231523E-2,-6.2033545E-2,4.4460665E-2,-9.295076E-3,2.8439483E-3,-6.4026505E-2,-1.0959889E-2,-6.394185E-2],"categories":[],"categories_nodes":[],"categories_segments":[],"categories_sizes":[],"default_left":[0,0,0,0,0,0,0,0,0,0,0,0,0,0,0,0,0,0,0,0,0,0,0,0,0,0,0,0,0,0,0,0,0,0,0,0,0],"id":8,"left_children":[1,3,5,7,-1,9,11,13,15,17,19,21,-1,23,25,27,29,-1,31,33,-1,35,-1,-1,-1,-1,-1,-1,-1,-1,-1,-1,-1,-1,-1,-1,-1],"loss_changes":[9.0698303E2,4.1859528E2,1.333787E2,1.8116608E2,0E0,1.9918318E2,2.1741943E0,5.824286E1,1.3325493E1,1.8659592E0,5.7632675E1,4.6179657E0,0E0,6.222534E-1,4.464022E1,6.531334E0,3.2307053E0,0E0,2.1576374E0,8.833261E1,0E0,5.181381E0,0E0,0E0,0E0,0E0,0E0,0E0,0E0,0E0,0E0,0E0,0E0,0E0,0E0,0E0,0E0],"parents":[2147483647,0,0,1,1,2,2,3,3,5,5,6,6,7,7,8,8,9,9,10,10,11,11,13,13,14,14,15,15,16,16,18,18,19,19,21,21],"right_children":[2,4,6,8,-1,10,12,14,16,18,20,22,-1,24,26,28,30,-1,32,34,-1,36,-1,-1,-1,-1,-1,-1,-1,-1,-1,-1,-1,-1,-1,-1,-1],"split_conditions":[2E0,1E0,1E0,1E0,-6.541878E-2,5.7E0,5.4E0,5.7E0,4E1,5E1,1E0,3.9E1,-6.655509E-2,6.6E1,4.5E1,5.3E0,2.41E1,5.676498E-2,2.39E1,1E0,-6.640942E-2,1E0,-6.364379E-2,5.826691E-2,2.498026E-2,3.9338354E-2,-1.5023975E-2,1.5898293E-2,-3.60357E-2,-3.3231523E-2,-6.2033545E-2,4.4460665E-2,-9.295076E-3,2.8439483E-3,-6.4026505E-2,-1.0959889E-2,-6.394185E-2],"split_indices":[8,5,7,7,0,2,2,2,0,0,5,0,0,0,0,2,1,0,1,4,0,4,0,0,0,0,0,0,0,0,0,0,0,0,0,0,0],"split_type":[0,0,0,0,0,0,0,0,0,0,0,0,0,0,0,0,0,0,0,0,0,0,0,0,0,0,0,0,0,0,0,0,0,0,0,0,0],"sum_hessian":[3.361497E3,1.914097E3,1.4473999E3,1.7202734E3,1.9382362E2,7.7814667E2,6.6925323E2,1.5839711E3,1.3630244E2,1.3934534E2,6.3880133E2,1.2138284E2,5.478704E2,1.122189E3,4.6178198E2,4.788124E1,8.84212E1,1.2370866E2,1.5636686E1,4.099151E2,2.2888625E2,3.748126E1,8.390158E1,1.117358E3,4.8309975E0,3.698831E2,9.1898895E1,2.9399017E1,1.8482222E1,3.7474224E1,5.0946983E1,1.0763221E1,4.873465E0,2.549671E2,1.5494798E2,2.2990133E1,1.4491124E1],"tree_param":{"num_deleted":"0","num_feature":"9","num_nodes":"37","size_leaf_vector":"1"}},{"base_weights":[-9.189996E-3,-3.5893548E-1,2.8485882E-1,-7.0267326E-1,9.0511817E-1,3.834565E-1,1.9577214E-2,-4.9652938E-2,-4.845946E-1,4.0464363E-1,1.0329423E0,1.25644E-1,9.0477425E-1,8.0264777E-1,-5.1336464E-2,-5.519505E-1,1.2272397E-2,-1.9561073E-1,6.5676934E-1,8.691173E-1,1.1354774E0,-5.4435126E-2,7.455566E-1,1.017229E0,3.3033296E-1,9.6277535E-1,4.9767208E-1,-4.3429498E-2,-1.8048389E-2,-2.5271824E-2,9.511676E-3,2.9343652E-2,7.421444E-2,4.005249E-2,7.1521565E-2,5.1408753E-2,8.0880724E-2,-2.1730112E-2,1.3982877E-2,2.8337596E-2,6.770888E-2,7.288733E-2,-4.5062494E-3,5.37087E-2,5.323036E-3,7.5896315E-2,5.1058713E-2,4.5329936E-2,-9.82252E-3],"categories":[],"categories_nodes":[],"categories_segments":[],"categories_sizes":[],"default_left":[0,0,0,0,0,0,0,0,0,0,0,0,0,0,0,0,0,0,0,0,0,0,0,0,0,0,0,0,0,0,0,0,0,0,0,0,0,0,0,0,0,0,0,0,0,0,0,0,0],"id":9,"left_children":[1,3,5,7,9,11,13,-1,15,17,19,21,23,25,-1,27,-1,29,31,33,35,37,39,41,43,45,47,-1,-1,-1,-1,-1,-1,-1,-1,-1,-1,-1,-1,-1,-1,-1,-1,-1,-1,-1,-1,-1,-1],"loss_changes":[3.1571426E2,6.098701E2,4.3614548E1,1.2568359E0,1.8787094E1,1.6329276E2,2.6765744E2,0E0,1.688693E0,9.62044E0,3.019226E0,9.098342E1,2.5641998E1,1.0387299E1,0E0,4.993372E-1,0E0,1.1085769E0,3.8108807E0,3.769081E0,2.9963684E-1,4.120077E1,1.3467049E1,8.791351E0,7.421187E0,3.314392E0,7.6151695E0,0E0,0E0,0E0,0E0,0E0,0E0,0E0,0E0,0E0,0E0,0E0,0E0,0E0,0E0,0E0,0E0,0E0,0E0,0E0,0E0,0E0,0E0],"parents":[2147483647,0,0,1,1,2,2,3,3,4,4,5,5,6,6,8,8,9,9,10,10,11,11,12,12,13,13,15,15,17,17,18,18,19,19,20,20,21,21,22,22,23,23,24,24,25,25,26,26],"right_children":[2,4,6,8,10,12,14,-1,16,18,20,22,24,26,-1,28,-1,30,32,34,36,38,40,42,44,46,48,-1,-1,-1,-1,-1,-1,-1,-1,-1,-1,-1,-1,-1,-1,-1,-1,-1,-1,-1,-1,-1,-1],"split_conditions":[5.7E0,1E0,1E0,5.7E1,3.6E1,1E0,1E0,-4.9652938E-2,1.3E2,1.44E2,4.6E1,4.5E1,9.4E0,1.59E2,-5.1336464E-2,5.5E0,1.2272397E-2,5.3E0,1.62E2,1.46E2,1.33E2,1.2E2,1.18E2,1.32E2,3.8E1,4.8E1,5.4E1,-4.3429498E-2,-1.8048389E-2,-2.5271824E-2,9.511676E-3,2.9343652E-2,7.421444E-2,4.005249E-2,7.1521565E-2,5.1408753E-2,8.0880724E-2,-2.1730112E-2,1.3982877E-2,2.8337596E-2,6.770888E-2,7.288733E-2,-4.5062494E-3,5.37087E-2,5.323036E-3,7.5896315E-2,5.1058713E-2,4.5329936E-2,-9.82252E-3],"split_indices":[2,7,7,0,0,5,5,0,3,3,0,0,2,3,0,2,0,2,3,3,3,3,3,3,0,0,0,0,0,0,0,0,0,0,0,0,0,0,0,0,0,0,0,0,0,0,0,0,0],"split_type":[0,0,0,0,0,0,0,0,0,0,0,0,0,0,0,0,0,0,0,0,0,0,0,0,0,0,0,0,0,0,0,0,0,0,0,0,0,0,0,0,0,0,0,0,0,0,0,0,0],"sum_hessian":[3.0678945E3,1.4011399E3,1.6667546E3,1.1019324E3,2.9920758E2,1.2148016E3,4.5195294E2,1.0671178E3,3.481451E1,6.171968E1,2.374879E2,8.136568E2,4.011449E2,2.2151363E2,2.3043932E2,3.1738625E1,3.0758832E0,1.8322382E1,4.3397297E1,9.506874E1,1.4241916E2,6.312085E2,1.824483E2,3.348271E2,6.6317795E1,1.4383575E2,7.767788E1,2.4845179E1,6.893446E0,1.2163612E1,6.1587706E0,2.859654E1,1.4800757E1,3.3886875E1,6.118187E1,8.544026E0,1.3387514E2,3.1437772E2,3.1683078E2,7.3033936E1,1.0941437E2,3.2758978E2,7.2372985E0,2.3655071E1,4.2662724E1,9.220201E1,5.1633743E1,6.2887318E1,1.4790561E1],"tree_param":{"num_deleted":"0","num_feature":"9","num_nodes":"49","size_leaf_vector":"1"}},{"base_weights":[-1.0549238E-2,-4.3781617E-1,1.2698482E0,-4.916467E-1,1.4774759E0,1.4396648E-1,2.3445883E0,-5.283224E-1,6.2378287E-2,-2.923432E-2,1.7881883E0,-8.4077284E-2,1.4278595E0,1.7306155E-1,1.5034385E0,-3.8106784E-2,-3.3696464E-1,-3.715713E-2,8.4252626E-1,1.799521E-2,1.447692E-1,-3.8467786E-1,2.4823764E-1,7.6517236E-1,1.4823814E-1,1.4046898E-1,8.320033E-1,-3.7389137E-2,-2.8328514E-3,2.7673367E-2,1.482772E-1,-3.174192E-2,-1.2252281E-2,9.756082E-3,7.8435905E-2,1.6022984E-2,6.646503E-2,8.4565304E-2,2.3478905E-2],"categories":[],"categories_nodes":[],"categories_segments":[],"categories_sizes":[],"default_left":[0,0,0,0,0,0,0,0,0,0,0,0,0,0,0,0,0,0,0,0,0,0,0,0,0,0,0,0,0,0,0,0,0,0,0,0,0,0,0],"id":10,"left_children":[1,3,5,7,9,11,13,15,17,-1,19,21,23,-1,25,-1,27,-1,29,-1,-1,31,33,35,-1,-1,37,-1,-1,-1,-1,-1,-1,-1,-1,-1,-1,-1,-1],"loss_changes":[6.261623E2,8.920529E1,3.4619095E2,1.7008987E1,1.4707996E1,4.1381416E1,1.2016663E1,2.2250519E0,2.4866772E1,0E0,8.280617E0,1.2144331E1,8.12199E0,0E0,5.7162476E0,0E0,3.67916E0,0E0,1.2385721E1,0E0,0E0,8.394413E-1,5.341455E0,1.0118966E0,0E0,0E0,1.6626186E0,0E0,0E0,0E0,0E0,0E0,0E0,0E0,0E0,0E0,0E0,0E0,0E0],"parents":[2147483647,0,0,1,1,2,2,3,3,4,4,5,5,6,6,7,7,8,8,10,10,11,11,12,12,14,14,16,16,18,18,21,21,22,22,23,23,26,26],"right_children":[2,4,6,8,10,12,14,16,18,-1,20,22,24,-1,26,-1,28,-1,30,-1,-1,32,34,36,-1,-1,38,-1,-1,-1,-1,-1,-1,-1,-1,-1,-1,-1,-1],"split_conditions":[1E0,4E0,1.32E2,1.59E2,1.33E2,3E0,4E0,3E0,1E0,-2.923432E-2,3.6E1,2E0,4.4E1,1.7306155E-1,1.54E2,-3.8106784E-2,1.39E2,-3.715713E-2,5.4E1,1.799521E-2,1.447692E-1,5E1,5.6E1,3.3E1,1.4823814E-1,1.4046898E-1,4.9E1,-3.7389137E-2,-2.8328514E-3,2.7673367E-2,1.482772E-1,-3.174192E-2,-1.2252281E-2,9.756082E-3,7.8435905E-2,1.6022984E-2,6.646503E-2,8.4565304E-2,2.3478905E-2],"split_indices":[5,8,3,3,3,8,8,8,6,0,0,8,0,0,3,0,3,0,0,0,0,0,0,0,0,0,0,0,0,0,0,0,0,0,0,0,0,0,0],"split_type":[0,0,0,0,0,0,0,0,0,0,0,0,0,0,0,0,0,0,0,0,0,0,0,0,0,0,0,0,0,0,0,0,0,0,0,0,0,0,0],"sum_hessian":[1.1425549E3,8.571749E2,2.8538007E2,8.34465E2,2.2709887E1,1.3992776E2,1.454523E2,7.826979E2,5.176714E1,3.1504474E0,1.9559439E1,1.1961618E2,2.031159E1,1.24594734E2,2.0857563E1,7.2039215E2,6.2305756E1,2.958866E1,2.217848E1,3.3199103E0,1.6239529E1,6.272224E1,5.6893936E1,1.1435366E1,8.8762245E0,1.0785114E1,1.0072449E1,3.693977E1,2.5365986E1,1.7391819E1,4.786661E0,4.6352463E1,1.6369778E1,5.1612213E1,5.281724E0,3.4985905E0,7.9367747E0,4.916442E0,5.1560073E0],"tree_param":{"num_deleted":"0","num_feature":"9","num_nodes":"39","size_leaf_vector":"1"}},{"base_weights":[3.713423E-3,-4.622703E-1,1.691515E0,-4.9201924E-1,5.8800396E-2,-2.5364995E-1,3.2900124E0,-3.5293728E-2,6.0109315E-3,-3.3587523E-2,5.1352065E-2,3.3813287E-2,3.7257714E0,2.257858E0,3.1935528E-1,7.62398E-2,2.4360456E-1],"categories":[],"categories_nodes":[],"categories_segments":[],"categories_sizes":[],"default_left":[0,0,0,0,0,0,0,0,0,0,0,0,0,0,0,0,0],"id":11,"left_children":[1,3,5,7,-1,9,11,-1,-1,-1,-1,-1,13,15,-1,-1,-1],"loss_changes":[1.668776E2,6.8552246E0,1.4357207E2,1.1917038E0,0E0,5.1830645E0,2.9109589E1,0E0,0E0,0E0,0E0,0E0,1.6374115E1,1.0302113E1,0E0,0E0,0E0],"parents":[2147483647,0,0,1,1,2,2,3,3,5,5,6,6,12,12,13,13],"right_children":[2,4,6,8,-1,10,12,-1,-1,-1,-1,-1,14,16,-1,-1,-1],"split_conditions":[3E0,1E1,6.6E0,6.2E1,5.8800396E-2,6.5E0,1.38E2,-3.5293728E-2,6.0109315E-3,-3.3587523E-2,5.1352065E-2,3.3813287E-2,8.1E0,1.58E2,3.1935528E-1,7.62398E-2,2.4360456E-1],"split_indices":[8,2,2,0,0,2,3,0,0,0,0,0,2,3,0,0,0],"split_type":[0,0,0,0,0,0,0,0,0,0,0,0,0,0,0,0,0],"sum_hessian":[2.1018652E2,1.6528049E2,4.490604E1,1.6219746E2,3.0830238E0,2.0636005E1,2.4270033E1,1.5897516E2,3.222293E0,1.7207808E1,3.428198E0,3.5447645E0,2.072527E1,8.865753E0,1.1859516E1,5.498764E0,3.366989E0],"tree_param":{"num_deleted":"0","num_feature":"9","num_nodes":"17","size_leaf_vector":"1"}},{"base_weights":[-5.7337387E-4,4.3341294E-1,-5.657734E-1,5.8560354E-1,-6.2079336E-2,-3.0090383E-1,-8.740676E-1,6.7876124E-1,-4.5113447E-1,7.1678346E-1,-5.178947E-1,-5.6012E-1,-8.884081E-1,7.9518634E-1,4.0594792E-1,-1.1107449E-1,-7.17063E-1,5.2991234E-2,3.7676755E-1,-3.112428E-1,-6.276253E-2,1.5730033E-2,-6.054996E-2,-1.9546675E-2,-8.9277846E-1,5.5783283E-2,2.3623161E-2,3.940092E-2,-1.5954304E-2,1.09906E-2,-4.153589E-2,-3.2603107E-2,-5.830712E-2,4.3189686E-2,-1.6505564E-2,-1.1467039E-2,-5.374621E-2,2.9774047E-2,-3.2608796E-2,-2.3520973E-2,-6.270395E-2],"categories":[],"categories_nodes":[],"categories_segments":[],"categories_sizes":[],"default_left":[0,0,0,0,0,0,0,0,0,0,0,0,0,0,0,0,0,0,0,0,0,0,0,0,0,0,0,0,0,0,0,0,0,0,0,0,0,0,0,0,0],"id":12,"left_children":[1,3,5,7,-1,9,11,13,15,17,19,21,23,25,27,29,31,-1,33,35,-1,37,-1,-1,39,-1,-1,-1,-1,-1,-1,-1,-1,-1,-1,-1,-1,-1,-1,-1,-1],"loss_changes":[8.1382947E2,3.7762097E2,1.1741135E2,1.6288855E2,0E0,1.7187767E2,2.498169E0,4.8749878E1,1.2525906E1,1.5877914E0,4.9866013E1,5.5919113E0,1.4403992E0,5.8166504E-1,4.629799E1,8.155212E0,1.8849449E0,0E0,2.5702317E0,2.7879635E1,0E0,2.5614982E0,0E0,0E0,7.480469E-1,0E0,0E0,0E0,0E0,0E0,0E0,0E0,0E0,0E0,0E0,0E0,0E0,0E0,0E0,0E0,0E0],"parents":[2147483647,0,0,1,1,2,2,3,3,5,5,6,6,7,7,8,8,9,9,10,10,11,11,12,12,13,13,14,14,15,15,16,16,18,18,19,19,21,21,24,24],"right_children":[2,4,6,8,-1,10,12,14,16,18,20,22,24,26,28,30,32,-1,34,36,-1,38,-1,-1,40,-1,-1,-1,-1,-1,-1,-1,-1,-1,-1,-1,-1,-1,-1,-1,-1],"split_conditions":[2E0,1E0,1E0,1E0,-6.2079336E-2,5.7E0,2.9E1,5.7E0,4.2E1,5E1,1E0,5.5E0,4.6E0,6.6E1,4.5E1,5.3E0,2.38E1,5.2991234E-2,2.39E1,3E0,-6.276253E-2,1.48E2,-6.054996E-2,-1.9546675E-2,1.69E1,5.5783283E-2,2.3623161E-2,3.940092E-2,-1.5954304E-2,1.09906E-2,-4.153589E-2,-3.2603107E-2,-5.830712E-2,4.3189686E-2,-1.6505564E-2,-1.1467039E-2,-5.374621E-2,2.9774047E-2,-3.2608796E-2,-2.3520973E-2,-6.270395E-2],"split_indices":[8,5,7,7,0,2,0,2,0,0,5,2,2,0,0,2,1,0,1,8,0,3,0,0,1,0,0,0,0,0,0,0,0,0,0,0,0,0,0,0,0],"split_type":[0,0,0,0,0,0,0,0,0,0,0,0,0,0,0,0,0,0,0,0,0,0,0,0,0,0,0,0,0,0,0,0,0,0,0,0,0,0,0,0,0],"sum_hessian":[3.315838E3,1.8757698E3,1.4400681E3,1.6823917E3,1.9337813E2,7.756488E2,6.644193E2,1.5439985E3,1.3839316E2,1.3591307E2,6.397357E2,3.0773474E1,6.336459E2,1.0808313E3,4.631673E2,6.1353798E1,7.703936E1,1.20435486E2,1.547758E1,4.1506787E2,2.2466788E2,1.0981066E1,1.9792408E1,4.9758143E0,6.2867004E2,1.076052E3,4.7792463E0,3.7134723E2,9.1820076E1,3.98678E1,2.1485994E1,2.5899202E1,5.114016E1,1.1112396E1,4.365184E0,3.1478076E2,1.0028711E2,5.9969444E0,4.984121E0,3.9663506E0,6.247037E2],"tree_param":{"num_deleted":"0","num_feature":"9","num_nodes":"41","size_leaf_vector":"1"}},{"base_weights":[2.412113E-3,-4.910852E-2,1.6050304E-1,-6.424835E-2,3.4877357E-1,-2.839535E-1,1.0232577E0,5.3461486E-1,-3.553161E-2,-4.3308273E-1,6.5925974E-1,7.285219E-2,6.176497E-1,1.7906286E-1,7.922031E-1,7.1371406E-1,-7.051589E-1,-4.606953E-2,-1.4745885E-2,2.2751989E-2,6.274966E-2,5.6456782E-2,1.3027602E-2,-4.2999126E-2,3.151883E-2,5.9366867E-2,1.2820389E-2,5.288779E-2,-1.2799891E-2,-2.0677047E-2,-5.0420053E-2],"categories":[],"categories_nodes":[],"categories_segments":[],"categories_sizes":[],"default_left":[0,0,0,0,0,0,0,0,0,0,0,0,0,0,0,0,0,0,0,0,0,0,0,0,0,0,0,0,0,0,0],"id":13,"left_children":[1,-1,3,5,7,9,11,13,15,17,19,-1,21,23,25,27,29,-1,-1,-1,-1,-1,-1,-1,-1,-1,-1,-1,-1,-1,-1],"loss_changes":[3.4143384E2,0E0,1.060327E2,2.7335522E2,9.739693E1,1.3413281E2,7.2117615E-1,8.403458E1,2.2394823E2,4.102182E1,1.0037682E1,0E0,6.982398E-1,8.3632286E1,1.797879E1,8.038689E0,1.2481918E0,0E0,0E0,0E0,0E0,0E0,0E0,0E0,0E0,0E0,0E0,0E0,0E0,0E0,0E0],"parents":[2147483647,0,0,2,2,3,3,4,4,5,5,6,6,7,7,8,8,9,9,10,10,12,12,13,13,14,14,15,15,16,16],"right_children":[2,-1,4,6,8,10,12,14,16,18,20,-1,22,24,26,28,30,-1,-1,-1,-1,-1,-1,-1,-1,-1,-1,-1,-1,-1,-1],"split_conditions":[1E0,-4.910852E-2,2E0,1E0,1E0,1E0,6.1E1,1.27E2,1.32E2,1E0,4.2E1,7.285219E-2,2.6E1,1E0,4E0,5.9E1,1E0,-4.606953E-2,-1.4745885E-2,2.2751989E-2,6.274966E-2,5.6456782E-2,1.3027602E-2,-4.2999126E-2,3.151883E-2,5.9366867E-2,1.2820389E-2,5.288779E-2,-1.2799891E-2,-2.0677047E-2,-5.0420053E-2],"split_indices":[8,0,8,5,5,7,0,3,3,6,0,0,1,6,8,0,7,0,0,0,0,0,0,0,0,0,0,0,0,0,0],"split_type":[0,0,0,0,0,0,0,0,0,0,0,0,0,0,0,0,0,0,0,0,0,0,0,0,0,0,0,0,0,0,0],"sum_hessian":[3.0659512E3,5.616307E2,2.5043206E3,1.1418615E3,1.3624592E3,9.505616E2,1.9129982E2,9.180971E2,4.4436206E2,8.212556E2,1.2930597E2,1.8189171E2,9.408114E0,3.8641684E2,5.316803E2,2.0968253E2,2.3467953E2,4.0724426E2,4.1401138E2,5.4653778E1,7.465219E1,5.939561E0,3.4685538E0,9.812252E1,2.8829434E2,4.866283E2,4.5051975E1,2.0048694E2,9.195593E0,9.086049E0,2.2559348E2],"tree_param":{"num_deleted":"0","num_feature":"9","num_nodes":"31","size_leaf_vector":"1"}},{"base_weights":[2.550265E-4,-4.3102616E-1,1.1461443E0,-4.8923522E-1,1.3977273E0,2.8298283E-1,1.958955E0,-5.354807E-1,-7.0437096E-2,6.4274806E-1,1.8399265E0,3.8326385E-3,1.4824733E0,2.040242E0,4.8352316E-1,-3.7934706E-2,-4.602358E-1,-3.711917E-2,2.1735248E-1,2.578879E-1,8.4714115E-2,6.4784445E-2,1.5514031E-1,-1.8758762E-1,1.106752E0,2.7927768E-1,2.0255797E0,2.1353154E0,1.3390486E0,-3.8057782E-3,5.822208E-2,-3.6270924E-2,-5.284998E-3,-3.6397997E-2,4.5132414E-2,-2.7918338E-3,3.8564533E-2,-3.254944E-2,6.721565E-3,1.826316E-2,1.2094803E-1,-1.2794394E-2,6.515801E-2,5.297267E-2,1.722283E-1,1.5901072E-1,1.2925555E-1,1.1793554E-1,2.6499232E-2],"categories":[],"categories_nodes":[],"categories_segments":[],"categories_sizes":[],"default_left":[0,0,0,0,0,0,0,0,0,0,0,0,0,0,0,0,0,0,0,0,0,0,0,0,0,0,0,0,0,0,0,0,0,0,0,0,0,0,0,0,0,0,0,0,0,0,0,0,0],"id":14,"left_children":[1,3,5,7,9,11,13,15,17,19,21,23,25,27,29,-1,31,-1,33,35,-1,-1,-1,37,39,41,43,45,47,-1,-1,-1,-1,-1,-1,-1,-1,-1,-1,-1,-1,-1,-1,-1,-1,-1,-1,-1,-1],"loss_changes":[5.689798E2,8.9727615E1,2.2032596E2,1.56775055E1,7.518608E0,5.1510635E1,1.8439697E1,1.0481262E-1,1.0945901E1,2.125965E0,3.4207726E0,2.6768997E1,1.8413055E1,7.354248E0,1.8748958E0,0E0,1.3929138E0,0E0,1.6421703E1,7.1330583E-1,0E0,0E0,0E0,8.5462265E0,9.399902E0,3.238613E0,9.090126E0,1.0487671E0,6.3274612E0,0E0,0E0,0E0,0E0,0E0,0E0,0E0,0E0,0E0,0E0,0E0,0E0,0E0,0E0,0E0,0E0,0E0,0E0,0E0,0E0],"parents":[2147483647,0,0,1,1,2,2,3,3,4,4,5,5,6,6,7,7,8,8,9,9,10,10,11,11,12,12,13,13,14,14,16,16,18,18,19,19,23,23,24,24,25,25,26,26,27,27,28,28],"right_children":[2,4,6,8,10,12,14,16,18,20,22,24,26,28,30,-1,32,-1,34,36,-1,-1,-1,38,40,42,44,46,48,-1,-1,-1,-1,-1,-1,-1,-1,-1,-1,-1,-1,-1,-1,-1,-1,-1,-1,-1,-1],"split_conditions":[1E0,4E0,1E0,3E0,4E1,9.4E0,1.04E1,5.3E1,1E0,6.1E0,5.8E0,3E0,3.8E1,4E0,5E1,-3.7934706E-2,2.78E1,-3.711917E-2,1E0,3.5E1,8.4714115E-2,6.4784445E-2,1.5514031E-1,2E0,7.6E0,1.03E1,2E0,8.2E0,8.3E0,-3.8057782E-3,5.822208E-2,-3.6270924E-2,-5.284998E-3,-3.6397997E-2,4.5132414E-2,-2.7918338E-3,3.8564533E-2,-3.254944E-2,6.721565E-3,1.826316E-2,1.2094803E-1,-1.2794394E-2,6.515801E-2,5.297267E-2,1.722283E-1,1.5901072E-1,1.2925555E-1,1.1793554E-1,2.6499232E-2],"split_indices":[5,8,7,8,0,2,2,0,7,2,2,8,0,8,0,0,1,0,6,0,0,0,0,8,2,2,8,2,2,0,0,0,0,0,0,0,0,0,0,0,0,0,0,0,0,0,0,0,0],"split_type":[0,0,0,0,0,0,0,0,0,0,0,0,0,0,0,0,0,0,0,0,0,0,0,0,0,0,0,0,0,0,0,0,0,0,0,0,0,0,0,0,0,0,0,0,0,0,0,0,0],"sum_hessian":[1.1493141E3,8.3548456E2,3.1382956E2,8.104214E2,2.5063166E1,1.5285446E2,1.6097508E2,7.295795E2,8.084187E1,1.0163782E1,1.4899384E1,1.2481111E2,2.8043344E1,1.5220667E2,8.768426E0,6.663165E2,6.326296E1,3.0794746E1,5.0047127E1,6.922945E0,3.2408369E0,5.3528466E0,9.546537E0,1.07059944E2,1.775117E1,9.1925125E0,1.8850832E1,1.3223225E2,1.9974401E1,3.777401E0,4.991025E0,5.4683777E1,8.579183E0,1.8285404E1,3.176172E1,3.8622015E0,3.0607433E0,5.379878E1,5.3261166E1,8.116848E0,9.634321E0,5.799328E0,3.3931847E0,5.510741E0,1.3340091E1,8.517795E1,4.7054314E1,1.4132908E1,5.841493E0],"tree_param":{"num_deleted":"0","num_feature":"9","num_nodes":"49","size_leaf_vector":"1"}},{"base_weights":[-1.688909E-2,-3.52526E-2,1.161709E0,-3.41508E-2,2.2829447E0,1.2272637E0,2.986225E0,7.3312145E-1,1.3015056E-1,8.265697E-2,2.2807842E-1,-5.108661E-3,9.607185E-2],"categories":[],"categories_nodes":[],"categories_segments":[],"categories_sizes":[],"default_left":[0,0,0,0,0,0,0,0,0,0,0,0,0],"id":15,"left_children":[1,-1,3,-1,5,7,9,11,-1,-1,-1,-1,-1],"loss_changes":[1.2061149E2,0E0,1.147786E2,0E0,2.362918E1,3.7577248E0,6.6464386E0,5.693447E0,0E0,0E0,0E0,0E0,0E0],"parents":[2147483647,0,0,2,2,4,4,5,5,6,6,7,7],"right_children":[2,-1,4,-1,6,8,10,12,-1,-1,-1,-1,-1],"split_conditions":[1E0,-3.52526E-2,1E0,-3.41508E-2,1E0,2.68E1,2.16E1,3E0,1.3015056E-1,8.265697E-2,2.2807842E-1,-5.108661E-3,9.607185E-2],"split_indices":[5,0,7,0,4,1,1,8,0,0,0,0,0],"split_type":[0,0,0,0,0,0,0,0,0,0,0,0,0],"sum_hessian":[2.082341E2,1.477792E2,6.0454895E1,2.4692228E1,3.576267E1,1.539643E1,2.036624E1,9.852984E0,5.5434456E0,3.3662674E0,1.6999971E1,4.749914E0,5.1030703E0],"tree_param":{"num_deleted":"0","num_feature":"9","num_nodes":"13","size_leaf_vector":"1"}},{"base_weights":[1.518814E-3,4.0987003E-1,-5.316836E-1,5.5379707E-1,-7.1196306E-1,-2.7635878E-1,-8.2788086E-1,6.6384995E-1,-2.9128847E-1,5.1541742E-2,-7.8762835E-1,7.060682E-1,-4.8264244E-1,-6.85439E-1,-6.076275E-2,7.467181E-1,3.0323017E-1,4.763013E-2,-5.339457E-1,-5.9346384E-1,-5.928592E-2,5.3143635E-2,6.1511326E-1,-2.66444E-1,-6.0440175E-2,-5.241899E-1,-6.0637794E-2,5.37282E-2,3.9979383E-2,2.5204577E-2,-1.2398038E-2,-6.5190173E-3,4.0185306E-2,-3.056425E-2,-5.7425316E-2,-1.9637905E-2,-4.6000745E-2,5.397208E-2,3.4080725E-2,4.9491553E-3,-5.662661E-2,-2.818692E-3,-4.2220477E-2],"categories":[],"categories_nodes":[],"categories_segments":[],"categories_sizes":[],"default_left":[0,0,0,0,0,0,0,0,0,0,0,0,0,0,0,0,0,0,0,0,0,0,0,0,0,0,0,0,0,0,0,0,0,0,0,0,0,0,0,0,0,0,0],"id":16,"left_children":[1,3,5,7,9,11,13,15,17,-1,19,21,23,25,-1,27,29,31,33,35,-1,-1,37,39,-1,41,-1,-1,-1,-1,-1,-1,-1,-1,-1,-1,-1,-1,-1,-1,-1,-1,-1],"loss_changes":[7.062011E2,2.969591E2,1.0615265E2,1.5164645E2,2.3514816E1,1.5374487E2,3.1271973E0,4.2840027E1,1.5513789E1,0E0,1.7935562E0,1.6971588E-1,5.132187E1,3.8570023E0,0E0,3.8444824E0,7.461281E0,5.944314E0,2.703062E0,8.120632E-1,0E0,0E0,7.014656E-1,7.337696E1,0E0,3.0589867E0,0E0,0E0,0E0,0E0,0E0,0E0,0E0,0E0,0E0,0E0,0E0,0E0,0E0,0E0,0E0,0E0,0E0],"parents":[2147483647,0,0,1,1,2,2,3,3,4,4,5,5,6,6,7,7,8,8,10,10,11,11,12,12,13,13,15,15,16,16,17,17,18,18,19,19,22,22,23,23,25,25],"right_children":[2,4,6,8,10,12,14,16,18,-1,20,22,24,26,-1,28,30,32,34,36,-1,-1,38,40,-1,42,-1,-1,-1,-1,-1,-1,-1,-1,-1,-1,-1,-1,-1,-1,-1,-1,-1],"split_conditions":[2E0,6.5E0,1E0,1.32E2,1E0,5.7E0,5.5E0,5.8E0,1.39E2,5.1541742E-2,6.6E0,2.45E1,1E0,1E0,-6.076275E-2,5.7E0,1.28E2,1E0,1.62E2,2.22E1,-5.928592E-2,5.3143635E-2,1E0,6.4E0,-6.0440175E-2,1.37E2,-6.0637794E-2,5.37282E-2,3.9979383E-2,2.5204577E-2,-1.2398038E-2,-6.5190173E-3,4.0185306E-2,-3.056425E-2,-5.7425316E-2,-1.9637905E-2,-4.6000745E-2,5.397208E-2,3.4080725E-2,4.9491553E-3,-5.662661E-2,-2.818692E-3,-4.2220477E-2],"split_indices":[8,2,7,3,8,2,2,2,3,0,2,1,4,4,0,2,3,4,3,1,0,0,4,2,0,3,0,0,0,0,0,0,0,0,0,0,0,0,0,0,0,0,0],"split_type":[0,0,0,0,0,0,0,0,0,0,0,0,0,0,0,0,0,0,0,0,0,0,0,0,0,0,0,0,0,0,0,0,0,0,0,0,0,0,0,0,0,0,0],"sum_hessian":[3.2414138E3,1.8357457E3,1.4056682E3,1.6274556E3,2.0829019E2,7.559582E2,6.4970996E2,1.4401267E3,1.8732883E2,9.908334E0,1.9838185E2,1.3076524E2,6.25193E2,1.4686137E2,5.028486E2,1.1701605E3,2.6996613E2,7.849659E1,1.08832245E2,4.8996277E1,1.4938557E2,7.791077E1,5.2854473E1,3.9986395E2,2.25329E2,7.9691956E1,6.716942E1,1.0430621E3,1.2709841E2,2.4162686E2,2.8339283E1,6.2585754E1,1.5910831E1,8.311674E1,2.5715511E1,9.199886E0,3.979639E1,2.159182E1,3.1262653E1,2.4714386E2,1.5272011E2,1.1390803E1,6.8301155E1],"tree_param":{"num_deleted":"0","num_feature":"9","num_nodes":"43","size_leaf_vector":"1"}},{"base_weights":[-5.5704378E-3,-4.7845334E-2,1.4102158E-1,-6.8571545E-2,3.1247282E-1,-2.75646E-1,9.111685E-1,4.8391038E-1,-2.7797254E-2,-4.2531645E-1,6.308136E-1,9.283368E-1,5.0793984E-3,-1.0452031E-2,6.517248E-1,6.394862E-1,-6.6768885E-1,-4.160308E-2,-6.9867903E-3,2.1057332E-2,6.005596E-2,6.611622E-2,3.649067E-2,-4.414795E-2,1.4949145E-2,3.30123E-2,5.436557E-2,6.1579946E-2,9.355775E-3,-3.7212875E-2,-4.9164075E-2],"categories":[],"categories_nodes":[],"categories_segments":[],"categories_sizes":[],"default_left":[0,0,0,0,0,0,0,0,0,0,0,0,0,0,0,0,0,0,0,0,0,0,0,0,0,0,0,0,0,0,0],"id":17,"left_children":[1,-1,3,5,7,9,11,13,15,17,19,21,-1,23,25,27,29,-1,-1,-1,-1,-1,-1,-1,-1,-1,-1,-1,-1,-1,-1],"loss_changes":[2.97224E2,0E0,8.838887E1,2.2489723E2,7.892917E1,1.2438739E2,2.7175446E0,7.464084E1,1.9435469E2,4.3171555E1,9.489529E0,7.5549316E-1,0E0,3.1948273E1,1.474704E1,2.6960716E1,7.222595E-1,0E0,0E0,0E0,0E0,0E0,0E0,0E0,0E0,0E0,0E0,0E0,0E0,0E0,0E0],"parents":[2147483647,0,0,2,2,3,3,4,4,5,5,6,6,7,7,8,8,9,9,10,10,11,11,13,13,14,14,15,15,16,16],"right_children":[2,-1,4,6,8,10,12,14,16,18,20,22,-1,24,26,28,30,-1,-1,-1,-1,-1,-1,-1,-1,-1,-1,-1,-1,-1,-1],"split_conditions":[1E0,-4.7845334E-2,2E0,6.5E0,6.5E0,1E0,1.13E1,1.2E2,1E0,5.8E0,4.2E1,6.1E1,5.0793984E-3,5.7E0,1E0,1E0,6.6E0,-4.160308E-2,-6.9867903E-3,2.1057332E-2,6.005596E-2,6.611622E-2,3.649067E-2,-4.414795E-2,1.4949145E-2,3.30123E-2,5.436557E-2,6.1579946E-2,9.355775E-3,-3.7212875E-2,-4.9164075E-2],"split_indices":[8,0,8,2,2,7,2,3,7,2,0,0,0,2,7,4,2,0,0,0,0,0,0,0,0,0,0,0,0,0,0],"split_type":[0,0,0,0,0,0,0,0,0,0,0,0,0,0,0,0,0,0,0,0,0,0,0,0,0,0,0,0,0,0,0],"sum_hessian":[2.98882E3,5.3072925E2,2.4580908E3,1.1062902E3,1.3518007E3,9.1385876E2,1.9243137E2,8.986258E2,4.5317487E2,7.8480597E2,1.2905276E2,1.8846602E2,3.9653537E0,2.2797496E2,6.706508E2,2.218396E2,2.3133527E2,5.160365E2,2.6876947E2,5.3560024E1,7.5492744E1,1.7999062E2,8.475402E0,6.0009037E1,1.6796591E2,2.7660806E2,3.940428E2,1.4990726E2,7.193235E1,5.027318E1,1.8106209E2],"tree_param":{"num_deleted":"0","num_feature":"9","num_nodes":"31","size_leaf_vector":"1"}},{"base_weights":[-1.4003656E-3,-4.239567E-1,1.0233016E0,-4.8100793E-1,1.1363816E0,1.8429053E-1,1.705339E0,-5.341804E-1,-3.2659955E-2,-1.2917882E-2,1.4733953E0,-2.5561878E-1,1.5228784E0,1.3165964E-1,1.1800853E0,-3.7777923E-2,-3.2897416E-1,-3.724249E-2,3.7972465E-1,-2.9252771E-2,1.7828684E0,-3.556364E-1,4.8023877E-1,2.9910574E-2,1.7018231E0,1.3122443E0,-1.841146E-2,-3.5579056E-2,7.7319792E-3,-3.5887778E-2,5.7949826E-2,6.046809E-2,1.3499922E-1,-2.8041659E-2,-8.346689E-3,-1.2614294E-2,4.7949255E-2,6.3889325E-2,1.2495835E-1,1.3017096E-1,7.679274E-2],"categories":[],"categories_nodes":[],"categories_segments":[],"categories_sizes":[],"default_left":[0,0,0,0,0,0,0,0,0,0,0,0,0,0,0,0,0,0,0,0,0,0,0,0,0,0,0,0,0,0,0,0,0,0,0,0,0,0,0,0,0],"id":18,"left_children":[1,3,5,7,9,11,13,15,17,-1,19,21,23,-1,25,-1,27,-1,29,-1,31,33,35,-1,37,39,-1,-1,-1,-1,-1,-1,-1,-1,-1,-1,-1,-1,-1,-1,-1],"loss_changes":[4.919951E2,7.2163055E1,1.8952832E2,1.8501999E1,1.3037231E1,8.86472E1,1.4639404E1,6.06781E-1,1.7382465E1,0E0,1.4182251E1,8.536284E0,6.5690536E0,0E0,9.592499E0,0E0,1.6871228E0,0E0,1.8931139E1,0E0,1.0011635E0,1.0218267E0,2.020121E0,0E0,4.5146942E-1,3.2117386E0,0E0,0E0,0E0,0E0,0E0,0E0,0E0,0E0,0E0,0E0,0E0,0E0,0E0,0E0,0E0],"parents":[2147483647,0,0,1,1,2,2,3,3,4,4,5,5,6,6,7,7,8,8,10,10,11,11,12,12,14,14,16,16,18,18,20,20,21,21,22,22,24,24,25,25],"right_children":[2,4,6,8,10,12,14,16,18,-1,20,22,24,-1,26,-1,28,-1,30,-1,32,34,36,-1,38,40,-1,-1,-1,-1,-1,-1,-1,-1,-1,-1,-1,-1,-1,-1,-1],"split_conditions":[1E0,4E0,1.32E2,3E0,1E0,1E0,1E0,1.63E2,1.39E2,-1.2917882E-2,1E0,5.6E1,3.4E1,1.3165964E-1,1.73E2,-3.7777923E-2,1E0,-3.724249E-2,1E0,-2.9252771E-2,3.7E1,1.25E2,1.1E2,2.9910574E-2,1.1E2,1.39E2,-1.841146E-2,-3.5579056E-2,7.7319792E-3,-3.5887778E-2,5.7949826E-2,6.046809E-2,1.3499922E-1,-2.8041659E-2,-8.346689E-3,-1.2614294E-2,4.7949255E-2,6.3889325E-2,1.2495835E-1,1.3017096E-1,7.679274E-2],"split_indices":[5,8,3,8,4,4,4,3,3,0,7,0,0,0,3,0,6,0,6,0,0,3,3,0,3,3,0,0,0,0,0,0,0,0,0,0,0,0,0,0,0],"split_type":[0,0,0,0,0,0,0,0,0,0,0,0,0,0,0,0,0,0,0,0,0,0,0,0,0,0,0,0,0,0,0,0,0,0,0,0,0,0,0,0,0],"sum_hessian":[1.1342603E3,8.035051E2,3.3075513E2,7.758299E2,2.7675234E1,1.4887999E2,1.8187514E2,6.934033E2,8.242658E1,5.7175927E0,2.1957642E1,1.1266361E2,3.6216377E1,1.3438847E2,4.748667E1,6.7370276E2,1.9700583E1,3.7149902E1,4.5276684E1,3.0384321E0,1.891921E1,9.96376E1,1.3026015E1,5.5604596E0,3.0655918E1,4.3585785E1,3.9008856E0,1.3880398E1,5.8201847E0,1.5087449E1,3.0189234E1,3.536946E0,1.5382264E1,8.3132645E1,1.6504955E1,3.111015E0,9.915E0,4.0686154E0,2.6587303E1,1.0144313E1,3.3441475E1],"tree_param":{"num_deleted":"0","num_feature":"9","num_nodes":"41","size_leaf_vector":"1"}},{"base_weights":[-3.3633415E-2,-3.9743802E-1,1.4336137E0,-4.5452634E-1,8.4300286E-1,-3.2933652E-2,2.2953744E0,-3.5212256E-2,-1.3238661E-1,-2.7270323E-2,1.2985028E-1,3.2932818E-2,2.5291243E0,-4.1745862E-1,4.1329566E-2,2.1118848E0,2.7662835E-1,-3.291865E-2,-9.836672E-3,7.933437E-2,1.7654842E-1],"categories":[],"categories_nodes":[],"categories_segments":[],"categories_sizes":[],"default_left":[0,0,0,0,0,0,0,0,0,0,0,0,0,0,0,0,0,0,0,0,0],"id":19,"left_children":[1,3,5,7,9,-1,11,-1,13,-1,-1,-1,15,17,-1,19,-1,-1,-1,-1,-1],"loss_changes":[1.1115731E2,1.21946335E1,6.897863E1,2.4351616E0,1.0313528E1,0E0,1.1034393E1,0E0,4.843496E0,0E0,0E0,0E0,6.5980988E0,1.7646837E-1,0E0,5.817932E0,0E0,0E0,0E0,0E0,0E0],"parents":[2147483647,0,0,1,1,2,2,3,3,4,4,6,6,8,8,12,12,13,13,15,15],"right_children":[2,4,6,8,10,-1,12,-1,14,-1,-1,-1,16,18,-1,20,-1,-1,-1,-1,-1],"split_conditions":[7.7E0,4E0,1.32E2,1E0,6.5E0,-3.2933652E-2,2.16E1,-3.5212256E-2,1E0,-2.7270323E-2,1.2985028E-1,3.2932818E-2,1.03E1,1.53E2,4.1329566E-2,1E0,2.7662835E-1,-3.291865E-2,-9.836672E-3,7.933437E-2,1.7654842E-1],"split_indices":[2,8,3,5,2,0,1,0,4,0,0,0,2,3,0,4,0,0,0,0,0],"split_type":[0,0,0,0,0,0,0,0,0,0,0,0,0,0,0,0,0,0,0,0,0],"sum_hessian":[2.0617375E2,1.6579414E2,4.037961E1,1.5910529E2,6.6888595E0,1.2722589E1,2.765702E1,1.3779535E2,2.1309929E1,3.2930698E0,3.3957896E0,3.4823909E0,2.417463E1,1.558553E1,5.7244E0,2.0613651E1,3.560977E0,1.2503217E1,3.0823128E0,7.2006316E0,1.341302E1],"tree_param":{"num_deleted":"0","num_feature":"9","num_nodes":"21","size_leaf_vector":"1"}},{"base_weights":[-3.2081231E-3,4.0005928E-1,-5.1289815E-1,5.385286E-1,-5.6923386E-2,-2.565294E-1,-7.674119E-1,6.417185E-1,-2.511149E-1,-1.0682855E-2,-5.7403225E-2,-4.775229E-1,-8.0615973E-1,7.395191E-1,3.8013238E-1,8.658497E-2,-6.785293E-1,6.744843E-1,-2.5136673E-1,-4.4239305E-2,-6.234974E-1,-6.85329E-1,-5.7780273E-2,5.2676495E-2,4.2233128E-2,3.673194E-2,-1.3256546E-2,2.9774508E-2,-2.7406668E-2,-2.8725203E-2,-5.7755172E-2,4.937736E-2,1.7945124E-2,4.5624897E-3,-5.7354353E-2,5.4329825E-3,-2.8400945E-2,-3.231058E-2,-5.6336954E-2,-2.7138282E-2,-5.2584894E-2],"categories":[],"categories_nodes":[],"categories_segments":[],"categories_sizes":[],"default_left":[0,0,0,0,0,0,0,0,0,0,0,0,0,0,0,0,0,0,0,0,0,0,0,0,0,0,0,0,0,0,0,0,0,0,0,0,0,0,0,0,0],"id":20,"left_children":[1,3,5,7,-1,9,11,13,15,17,-1,19,21,23,25,27,29,31,33,35,37,39,-1,-1,-1,-1,-1,-1,-1,-1,-1,-1,-1,-1,-1,-1,-1,-1,-1,-1,-1],"loss_changes":[6.5437164E2,2.9903534E2,9.1560974E1,1.3020135E2,0E0,9.725662E1,7.5361023E0,3.5836E1,2.6785439E1,8.094761E1,0E0,5.386318E0,8.794861E-1,1.3636475E0,3.1908829E1,1.706398E1,2.8776703E0,1.468235E0,6.535848E1,1.0290654E0,1.5059891E0,1.498333E0,0E0,0E0,0E0,0E0,0E0,0E0,0E0,0E0,0E0,0E0,0E0,0E0,0E0,0E0,0E0,0E0,0E0,0E0,0E0],"parents":[2147483647,0,0,1,1,2,2,3,3,5,5,6,6,7,7,8,8,9,9,11,11,12,12,13,13,14,14,15,15,16,16,17,17,18,18,19,19,20,20,21,21],"right_children":[2,4,6,8,-1,10,12,14,16,18,-1,20,22,24,26,28,30,32,34,36,38,40,-1,-1,-1,-1,-1,-1,-1,-1,-1,-1,-1,-1,-1,-1,-1,-1,-1,-1,-1],"split_conditions":[2E0,1E0,1.32E2,1.32E2,-5.6923386E-2,1E0,3.3E1,1E0,4.4E1,1E0,-5.7403225E-2,1.38E2,1.37E2,1E0,4.5E1,1.46E2,2.38E1,5.3E1,1E0,3E0,1E0,3.9E1,-5.7780273E-2,5.2676495E-2,4.2233128E-2,3.673194E-2,-1.3256546E-2,2.9774508E-2,-2.7406668E-2,-2.8725203E-2,-5.7755172E-2,4.937736E-2,1.7945124E-2,4.5624897E-3,-5.7354353E-2,5.4329825E-3,-2.8400945E-2,-3.231058E-2,-5.6336954E-2,-2.7138282E-2,-5.2584894E-2],"split_indices":[8,5,3,3,0,5,0,6,0,6,0,3,3,4,0,3,1,0,4,8,6,0,0,0,0,0,0,0,0,0,0,0,0,0,0,0,0,0,0,0,0],"split_type":[0,0,0,0,0,0,0,0,0,0,0,0,0,0,0,0,0,0,0,0,0,0,0,0,0,0,0,0,0,0,0,0,0,0,0,0,0,0,0,0,0],"sum_hessian":[3.1816514E3,1.7763868E3,1.4052644E3,1.5949141E3,1.814728E2,7.0108124E2,7.041832E2,1.4107463E3,1.8416768E2,4.888351E2,2.1224611E2,8.459751E1,6.195857E2,1.0255073E3,3.8523907E2,1.0332672E2,8.0840965E1,1.2660886E2,3.6222626E2,2.164716E1,6.2950348E1,9.025979E1,5.293259E2,9.320016E2,9.350568E1,3.072908E2,7.794828E1,6.0540768E1,4.2785954E1,2.9909084E1,5.0931877E1,1.1725471E2,9.354148E0,2.3316492E2,1.2906136E2,1.6777098E1,4.8700614E0,3.5127106E1,2.7823242E1,1.7606117E1,7.265367E1],"tree_param":{"num_deleted":"0","num_feature":"9","num_nodes":"41","size_leaf_vector":"1"}},{"base_weights":[3.135143E-3,-3.0885303E-1,2.4286726E-1,-6.4795816E-1,7.51707E-1,3.3571476E-1,-1.4230262E-2,-4.6135303E-2,-5.6128705E-1,4.5504656E-1,8.862103E-1,1.3180205E-1,7.1907294E-1,6.275168E-1,-4.861649E-2,-5.8259183E-1,1.2981402E-2,2.0331457E-1,9.112401E-1,4.966824E-1,9.1065043E-1,-2.3761136E-2,6.675836E-1,8.095138E-1,2.5428146E-1,7.664043E-1,3.2818004E-1,-4.2661175E-2,-2.1785876E-2,-1.4313373E-2,2.598274E-2,6.86923E-2,4.3191016E-2,7.2429995E-3,5.214848E-2,4.15863E-2,6.499212E-2,-2.498554E-2,9.364862E-3,2.6895326E-2,5.8380015E-2,5.8078818E-2,-1.8213078E-2,3.757835E-2,-1.49884615E-2,6.0811557E-2,4.035255E-2,3.253685E-2,-2.1842081E-2],"categories":[],"categories_nodes":[],"categories_segments":[],"categories_sizes":[],"default_left":[0,0,0,0,0,0,0,0,0,0,0,0,0,0,0,0,0,0,0,0,0,0,0,0,0,0,0,0,0,0,0,0,0,0,0,0,0,0,0,0,0,0,0,0,0,0,0,0,0],"id":21,"left_children":[1,3,5,7,9,11,13,-1,15,17,19,21,23,25,-1,27,-1,29,31,33,35,37,39,41,43,45,47,-1,-1,-1,-1,-1,-1,-1,-1,-1,-1,-1,-1,-1,-1,-1,-1,-1,-1,-1,-1,-1,-1],"loss_changes":[2.2182394E2,4.6395795E2,4.0038834E1,5.715027E-1,1.207341E1,9.622661E1,1.9511777E2,0E0,1.982399E0,1.1252489E1,1.5858154E0,6.7158E1,1.7769379E1,9.310158E0,0E0,6.468086E-1,0E0,4.557601E0,1.1883736E-1,1.3717046E0,5.77301E-1,3.2868E1,8.229004E0,7.934494E0,9.526386E0,2.5381775E0,6.67408E0,0E0,0E0,0E0,0E0,0E0,0E0,0E0,0E0,0E0,0E0,0E0,0E0,0E0,0E0,0E0,0E0,0E0,0E0,0E0,0E0,0E0,0E0],"parents":[2147483647,0,0,1,1,2,2,3,3,4,4,5,5,6,6,8,8,9,9,10,10,11,11,12,12,13,13,15,15,17,17,18,18,19,19,20,20,21,21,22,22,23,23,24,24,25,25,26,26],"right_children":[2,4,6,8,10,12,14,-1,16,18,20,22,24,26,-1,28,-1,30,32,34,36,38,40,42,44,46,48,-1,-1,-1,-1,-1,-1,-1,-1,-1,-1,-1,-1,-1,-1,-1,-1,-1,-1,-1,-1,-1,-1],"split_conditions":[5.7E0,1E0,1E0,5E1,4E1,1E0,1E0,-4.6135303E-2,1.32E2,1.57E2,1.33E2,4.5E1,9.4E0,1.6E2,-4.861649E-2,1.29E2,1.2981402E-2,1.38E2,5.5E0,2.46E1,4.8E0,1.16E2,1.18E2,1.32E2,4.4E1,4.8E1,5.4E1,-4.2661175E-2,-2.1785876E-2,-1.4313373E-2,2.598274E-2,6.86923E-2,4.3191016E-2,7.2429995E-3,5.214848E-2,4.15863E-2,6.499212E-2,-2.498554E-2,9.364862E-3,2.6895326E-2,5.8380015E-2,5.8078818E-2,-1.8213078E-2,3.757835E-2,-1.49884615E-2,6.0811557E-2,4.035255E-2,3.253685E-2,-2.1842081E-2],"split_indices":[2,7,7,0,0,5,5,0,3,3,3,0,2,3,0,3,0,3,2,1,2,3,3,3,0,0,0,0,0,0,0,0,0,0,0,0,0,0,0,0,0,0,0,0,0,0,0,0,0],"split_type":[0,0,0,0,0,0,0,0,0,0,0,0,0,0,0,0,0,0,0,0,0,0,0,0,0,0,0,0,0,0,0,0,0,0,0,0,0,0,0,0,0,0,0,0,0,0,0,0,0],"sum_hessian":[2.9638123E3,1.287703E3,1.6761093E3,9.7601843E2,3.1168463E2,1.2311788E3,4.4493036E2,8.592013E2,1.1681709E2,9.859865E1,2.1308597E2,8.0456506E2,4.266138E2,2.2899107E2,2.159393E2,1.137904E2,3.0266943E0,6.446946E1,3.4129192E1,1.3839175E1,1.992468E2,6.242662E2,1.802989E2,3.5650253E2,7.011127E1,1.5535056E2,7.3640526E1,1.0241033E2,1.1380064E1,1.8736294E1,4.5733166E1,2.5677977E1,8.451215E0,5.904813E0,7.9343624E0,1.2441834E1,1.8680496E2,2.0001334E2,4.2425287E2,6.793386E1,1.1236504E2,3.5012067E2,6.381873E0,4.3640263E1,2.6471E1,9.86356E1,5.671495E1,6.0914307E1,1.2726219E1],"tree_param":{"num_deleted":"0","num_feature":"9","num_nodes":"49","size_leaf_vector":"1"}},{"base_weights":[1.1062646E-2,-4.1296402E-1,9.431542E-1,-3.770656E-2,-1.3520629E-2,2.3801322E-1,1.4911027E0,-4.2479974E-1,8.404824E-1,-2.273401E-1,1.3571081E0,1.6420677E0,9.836373E-1,-5.124173E-1,-3.1041833E-2,-3.6676478E-2,1.7827961E0,-3.6638132E-1,9.066665E-2,5.3071874E-1,1.4238015E-1,1.175832E-1,4.275823E-2,1.3833425E0,1.9088908E-1,-3.7804008E-2,-1.9540383E-2,-3.505707E-2,3.2978024E-2,2.4170928E-2,1.3629612E-1,-3.359807E-2,7.538265E-3,1.25592835E-2,1.1435896E-1,1.079542E-1,3.7792865E-2,5.808602E-2,-2.9417867E-2],"categories":[],"categories_nodes":[],"categories_segments":[],"categories_sizes":[],"default_left":[0,0,0,0,0,0,0,0,0,0,0,0,0,0,0,0,0,0,0,0,0,0,0,0,0,0,0,0,0,0,0,0,0,0,0,0,0,0,0],"id":22,"left_children":[1,3,5,-1,7,9,11,13,15,17,19,21,23,25,27,-1,29,31,-1,33,-1,-1,-1,35,37,-1,-1,-1,-1,-1,-1,-1,-1,-1,-1,-1,-1,-1,-1],"loss_changes":[4.4442548E2,3.8799988E1,1.3549335E2,0E0,6.569661E1,8.099379E1,1.3527344E1,4.3388577E0,7.9111565E1,2.3822165E1,2.4454681E1,4.8372498E0,1.488623E1,5.14534E-1,5.9067974E0,0E0,7.8752213E0,5.535618E0,0E0,8.195368E0,0E0,0E0,0E0,3.4049568E0,7.0596027E0,0E0,0E0,0E0,0E0,0E0,0E0,0E0,0E0,0E0,0E0,0E0,0E0,0E0,0E0],"parents":[2147483647,0,0,1,1,2,2,4,4,5,5,6,6,7,7,8,8,9,9,10,10,11,11,12,12,13,13,14,14,16,16,17,17,19,19,23,23,24,24],"right_children":[2,4,6,-1,8,10,12,14,16,18,20,22,24,26,28,-1,30,32,-1,34,-1,-1,-1,36,38,-1,-1,-1,-1,-1,-1,-1,-1,-1,-1,-1,-1,-1,-1],"split_conditions":[1E0,1E0,1E0,-3.770656E-2,1E0,1E0,1E0,5.3E1,1E0,1.03E1,8E0,1.05E1,8.3E0,6.2E0,1E0,-3.6676478E-2,3.4E1,9E0,9.066665E-2,5.4E1,1.4238015E-1,1.175832E-1,4.275823E-2,5.9E1,4.7E1,-3.7804008E-2,-1.9540383E-2,-3.505707E-2,3.2978024E-2,2.4170928E-2,1.3629612E-1,-3.359807E-2,7.538265E-3,1.25592835E-2,1.1435896E-1,1.079542E-1,3.7792865E-2,5.808602E-2,-2.9417867E-2],"split_indices":[5,7,7,0,4,4,4,0,6,2,2,2,2,2,6,0,0,2,0,0,0,0,0,0,0,0,0,0,0,0,0,0,0,0,0,0,0,0,0],"split_type":[0,0,0,0,0,0,0,0,0,0,0,0,0,0,0,0,0,0,0,0,0,0,0,0,0,0,0,0,0,0,0,0,0,0,0,0,0,0,0],"sum_hessian":[1.1224828E3,7.7189136E2,3.505915E2,5.8686255E2,1.8502882E2,1.5393318E2,1.9665831E2,1.2522455E2,5.980428E1,1.0928574E2,4.4647446E1,1.498453E2,4.6813007E1,1.0218529E2,2.3039257E1,2.4611624E1,3.5192657E1,1.0083674E2,8.449002E0,2.0907034E1,2.3740412E1,1.4395479E2,5.8905168E0,3.0626213E1,1.6186794E1,9.018425E1,1.20010395E1,1.1904822E1,1.1134436E1,3.927756E0,3.12649E1,8.133563E1,1.9501106E1,1.673848E1,4.168555E0,2.5074957E1,5.5512576E0,7.7387056E0,8.448089E0],"tree_param":{"num_deleted":"0","num_feature":"9","num_nodes":"39","size_leaf_vector":"1"}},{"base_weights":[-1.5322582E-2,-4.5572245E-1,1.0576144E0,-3.518811E-2,9.914168E-2,-3.5188255E-1,1.8446736E0,-3.1518042E-2,8.0350675E-2,-3.3595152E-2,1.5281655E-2,1.3483478E0,1.9612114E-1,-7.844596E-2,1.8089106E0,-2.9853309E-2,2.4230633E-2,5.5757392E-2,1.4834702E-1],"categories":[],"categories_nodes":[],"categories_segments":[],"categories_sizes":[],"default_left":[0,0,0,0,0,0,0,0,0,0,0,0,0,0,0,0,0,0,0],"id":23,"left_children":[1,3,5,-1,7,9,11,-1,-1,-1,-1,13,-1,15,17,-1,-1,-1,-1],"loss_changes":[9.802942E1,3.8821487E0,6.7629715E1,0E0,7.610373E0,1.7456534E0,1.4702042E1,0E0,0E0,0E0,0E0,1.824313E1,0E0,1.2825713E0,4.8673706E0,0E0,0E0,0E0,0E0],"parents":[2147483647,0,0,1,1,2,2,4,4,5,5,6,6,11,11,13,13,14,14],"right_children":[2,4,6,-1,8,10,12,-1,-1,-1,-1,14,-1,16,18,-1,-1,-1,-1],"split_conditions":[6.6E0,6.5E0,1.38E2,-3.518811E-2,1E0,1.31E2,9.1E0,-3.1518042E-2,8.0350675E-2,-3.3595152E-2,1.5281655E-2,4.5E1,1.9612114E-1,3.9E1,1E0,-2.9853309E-2,2.4230633E-2,5.5757392E-2,1.4834702E-1],"split_indices":[2,2,3,0,4,3,2,0,0,0,0,0,0,0,4,0,0,0,0],"split_type":[0,0,0,0,0,0,0,0,0,0,0,0,0,0,0,0,0,0,0],"sum_hessian":[2.0544029E2,1.4606245E2,5.9377827E1,1.347509E2,1.1311559E1,2.1474089E1,3.790374E1,7.797379E0,3.5141795E0,1.7665287E1,3.8088007E0,2.654596E1,1.135778E1,6.6803484E0,1.9865612E1,3.6687572E0,3.011591E0,5.497666E0,1.4367945E1],"tree_param":{"num_deleted":"0","num_feature":"9","num_nodes":"19","size_leaf_vector":"1"}},{"base_weights":[4.948333E-3,3.8674212E-1,-4.813176E-1,5.1758933E-1,-5.484012E-2,-2.3384063E-1,-7.2539407E-1,6.073431E-1,-3.195864E-1,6.694467E-1,-4.2294332E-1,-4.0072313E-1,-7.628535E-1,6.860409E-1,3.0771446E-1,-1.3356712E-2,-5.777282E-1,4.9720313E-2,3.474796E-1,-2.1739163E-1,-5.5154376E-2,2.524173E-1,-6.414762E-1,-5.9863895E-1,-5.5722903E-2,4.861265E-2,1.7277263E-2,3.341292E-2,-1.3721342E-2,8.923763E-3,-4.8233327E-2,-6.6093095E-3,-4.6667244E-2,4.2565364E-2,-9.818124E-3,6.5338532E-3,-5.4688327E-2,4.3048102E-2,-7.533688E-3,-8.460247E-3,-5.438353E-2,5.9249527E-3,-4.9735863E-2],"categories":[],"categories_nodes":[],"categories_segments":[],"categories_sizes":[],"default_left":[0,0,0,0,0,0,0,0,0,0,0,0,0,0,0,0,0,0,0,0,0,0,0,0,0,0,0,0,0,0,0,0,0,0,0,0,0,0,0,0,0,0,0],"id":24,"left_children":[1,3,5,7,-1,9,11,13,15,17,19,21,23,25,27,29,31,-1,33,35,-1,37,39,41,-1,-1,-1,-1,-1,-1,-1,-1,-1,-1,-1,-1,-1,-1,-1,-1,-1,-1,-1],"loss_changes":[5.7949426E2,2.6812695E2,8.275583E1,1.1840851E2,0E0,1.16976204E2,8.094635E0,3.330255E1,1.208647E1,1.313446E0,4.2254143E1,1.1728004E1,2.8923645E0,3.991211E0,2.550843E1,6.844662E0,3.5047245E0,0E0,2.0318222E0,6.3700974E1,0E0,2.7458158E0,3.7153645E0,8.312561E0,0E0,0E0,0E0,0E0,0E0,0E0,0E0,0E0,0E0,0E0,0E0,0E0,0E0,0E0,0E0,0E0,0E0,0E0,0E0],"parents":[2147483647,0,0,1,1,2,2,3,3,5,5,6,6,7,7,8,8,9,9,10,10,11,11,12,12,13,13,14,14,15,15,16,16,18,18,19,19,21,21,22,22,23,23],"right_children":[2,4,6,8,-1,10,12,14,16,18,20,22,24,26,28,30,32,-1,34,36,-1,38,40,42,-1,-1,-1,-1,-1,-1,-1,-1,-1,-1,-1,-1,-1,-1,-1,-1,-1,-1,-1],"split_conditions":[2E0,1E0,1.32E2,1.33E2,-5.484012E-2,5.7E0,3.2E1,5.8E0,4.2E1,5E1,1E0,5.7E0,5.4E0,1.32E2,4.3E1,1.62E2,2.19E1,4.9720313E-2,2.39E1,1E0,-5.5154376E-2,1E0,1.36E2,1.37E2,-5.5722903E-2,4.861265E-2,1.7277263E-2,3.341292E-2,-1.3721342E-2,8.923763E-3,-4.8233327E-2,-6.6093095E-3,-4.6667244E-2,4.2565364E-2,-9.818124E-3,6.5338532E-3,-5.4688327E-2,4.3048102E-2,-7.533688E-3,-8.460247E-3,-5.438353E-2,5.9249527E-3,-4.9735863E-2],"split_indices":[8,5,3,3,0,2,0,2,0,0,5,2,2,3,0,3,1,0,1,4,0,4,3,3,0,0,0,0,0,0,0,0,0,0,0,0,0,0,0,0,0,0,0],"split_type":[0,0,0,0,0,0,0,0,0,0,0,0,0,0,0,0,0,0,0,0,0,0,0,0,0,0,0,0,0,0,0,0,0,0,0,0,0,0,0,0,0,0,0],"sum_hessian":[3.1193757E3,1.7475131E3,1.3718627E3,1.5722623E3,1.7525072E2,6.821584E2,6.897043E2,1.4202695E3,1.5199281E2,1.1764814E2,5.6451025E2,7.2554276E1,6.1715E2,1.12381E3,2.964595E2,7.000211E1,8.19907E1,1.0333354E2,1.4314595E1,3.621474E2,2.0236285E2,1.9528055E1,5.3026222E1,1.06958046E2,5.1019196E2,1.1020876E3,2.172236E1,2.2182191E2,7.463757E1,5.8599197E1,1.1402918E1,1.3064374E1,6.892632E1,9.168938E0,5.145658E0,2.3402019E2,1.2812723E2,9.377256E0,1.01508E1,1.1337152E1,4.168907E1,1.5082596E1,9.187545E1],"tree_param":{"num_deleted":"0","num_feature":"9","num_nodes":"43","size_leaf_vector":"1"}},{"base_weights":[1.5190183E-3,-4.5733277E-2,1.321057E-1,-4.7942992E-2,2.763395E-1,-2.452418E-1,5.940158E-2,4.291957E-1,-3.8861454E-2,-3.9634255E-1,5.897307E-1,3.1465594E-2,5.83552E-1,5.962834E-1,-6.716618E-1,-4.2860255E-2,-1.3338295E-2,3.126872E-2,6.0425483E-2,-4.1254066E-2,1.55751305E-2,4.3432746E-2,9.126637E-3,5.7341997E-2,6.450152E-3,-2.6179148E-2,-4.773612E-2],"categories":[],"categories_nodes":[],"categories_segments":[],"categories_sizes":[],"default_left":[0,0,0,0,0,0,0,0,0,0,0,0,0,0,0,0,0,0,0,0,0,0,0,0,0,0,0],"id":25,"left_children":[1,-1,3,5,7,9,-1,11,13,15,17,19,21,23,25,-1,-1,-1,-1,-1,-1,-1,-1,-1,-1,-1,-1],"loss_changes":[2.4896167E2,0E0,6.3047535E1,1.9132486E2,6.495551E1,1.1205933E2,0E0,5.570987E1,1.7768115E2,3.32639E1,4.9431686E0,3.0355602E1,1.085817E1,2.4719765E1,4.2269897E-1,0E0,0E0,0E0,0E0,0E0,0E0,0E0,0E0,0E0,0E0,0E0,0E0],"parents":[2147483647,0,0,2,2,3,3,4,4,5,5,7,7,8,8,9,9,10,10,11,11,12,12,13,13,14,14],"right_children":[2,-1,4,6,8,10,-1,12,14,16,18,20,22,24,26,-1,-1,-1,-1,-1,-1,-1,-1,-1,-1,-1,-1],"split_conditions":[1E0,-4.5733277E-2,2E0,1E0,1E0,1E0,5.940158E-2,1.21E2,1.32E2,1E0,1.55E2,1E0,4E0,1E0,1E0,-4.2860255E-2,-1.3338295E-2,3.126872E-2,6.0425483E-2,-4.1254066E-2,1.55751305E-2,4.3432746E-2,9.126637E-3,5.7341997E-2,6.450152E-3,-2.6179148E-2,-4.773612E-2],"split_indices":[8,0,8,5,5,7,0,3,3,6,3,6,8,4,7,0,0,0,0,0,0,0,0,0,0,0,0],"split_type":[0,0,0,0,0,0,0,0,0,0,0,0,0,0,0,0,0,0,0,0,0,0,0,0,0,0,0],"sum_hessian":[2.9093162E3,4.830363E2,2.4262798E3,1.0794535E3,1.3468263E3,8.853443E2,1.941092E2,9.0674176E2,4.400846E2,7.5012354E2,1.3522073E2,2.5384999E2,6.528917E2,2.1966422E2,2.2042036E2,3.650702E2,3.8505338E2,9.0514984E1,4.4705746E1,5.924309E1,1.946069E2,6.033714E2,4.9520344E1,1.5188737E2,6.777684E1,8.607682E0,2.1181268E2],"tree_param":{"num_deleted":"0","num_feature":"9","num_nodes":"27","size_leaf_vector":"1"}},{"base_weights":[-1.0967015E-2,-4.1737545E-1,7.92916E-1,-4.742056E-1,9.1859746E-1,1.20398745E-1,1.2721804E0,-5.2911156E-1,-4.9520843E-2,-6.508431E-3,9.0458624E-2,-2.0381857E-1,8.656264E-1,1.3295891E0,1.686353E-1,-3.7461173E-2,-3.2379904E-1,-3.144359E-1,7.2405833E-1,-3.2438006E-2,3.300004E-2,-3.4565493E-1,4.813501E-1,1.1314266E-1,1.2574658E0,1.3595418E0,6.988975E-1,4.26052E-1,-2.0663444E-2,-3.5549592E-2,1.5985368E-2,-3.737365E-2,5.6157545E-3,-3.215343E-2,8.267675E-2,-2.8203879E-2,3.8517278E-2,-1.1459737E-2,5.1399093E-2,-2.305045E-2,6.0664352E-2,-5.483665E-4,9.9526025E-2,1.0108165E-1,7.885025E-2,7.535759E-2,3.4345323E-3,6.139152E-2,-1.693624E-2],"categories":[],"categories_nodes":[],"categories_segments":[],"categories_sizes":[],"default_left":[0,0,0,0,0,0,0,0,0,0,0,0,0,0,0,0,0,0,0,0,0,0,0,0,0,0,0,0,0,0,0,0,0,0,0,0,0,0,0,0,0,0,0,0,0,0,0,0,0],"id":26,"left_children":[1,3,5,7,9,11,13,15,17,19,-1,21,23,25,27,-1,29,31,33,-1,-1,35,37,39,41,43,45,47,-1,-1,-1,-1,-1,-1,-1,-1,-1,-1,-1,-1,-1,-1,-1,-1,-1,-1,-1,-1,-1],"loss_changes":[3.6100375E2,5.6157394E1,1.1944182E2,1.6404236E1,1.0477903E1,3.774809E1,1.3494904E1,6.0139465E-1,1.698568E1,2.3384953E0,0E0,1.0775584E1,1.381403E1,2.935608E0,1.5410466E0,0E0,2.1874998E0,5.379382E0,1.1988511E1,0E0,0E0,4.891161E0,3.2430763E0,6.0549183E0,6.4625397E0,2.219818E0,2.7408075E0,2.631879E0,0E0,0E0,0E0,0E0,0E0,0E0,0E0,0E0,0E0,0E0,0E0,0E0,0E0,0E0,0E0,0E0,0E0,0E0,0E0,0E0,0E0],"parents":[2147483647,0,0,1,1,2,2,3,3,4,4,5,5,6,6,7,7,8,8,9,9,11,11,12,12,13,13,14,14,16,16,17,17,18,18,21,21,22,22,23,23,24,24,25,25,26,26,27,27],"right_children":[2,4,6,8,10,12,14,16,18,20,-1,22,24,26,28,-1,30,32,34,-1,-1,36,38,40,42,44,46,48,-1,-1,-1,-1,-1,-1,-1,-1,-1,-1,-1,-1,-1,-1,-1,-1,-1,-1,-1,-1,-1],"split_conditions":[6.5E0,4E0,1.32E2,3E0,1.47E2,8.9E0,1.03E1,1.63E2,1.59E2,4.5E1,9.0458624E-2,3E0,2E0,1.73E2,1.12E1,-3.7461173E-2,5.8E0,4.6E1,5.6E0,-3.2438006E-2,3.300004E-2,6E1,2.33E1,1.03E1,3.4E1,8.4E0,5E1,2.55E1,-2.0663444E-2,-3.5549592E-2,1.5985368E-2,-3.737365E-2,5.6157545E-3,-3.215343E-2,8.267675E-2,-2.8203879E-2,3.8517278E-2,-1.1459737E-2,5.1399093E-2,-2.305045E-2,6.0664352E-2,-5.483665E-4,9.9526025E-2,1.0108165E-1,7.885025E-2,7.535759E-2,3.4345323E-3,6.139152E-2,-1.693624E-2],"split_indices":[2,8,3,8,3,2,2,3,3,0,0,8,8,3,2,0,2,0,2,0,0,0,1,2,0,2,0,1,0,0,0,0,0,0,0,0,0,0,0,0,0,0,0,0,0,0,0,0,0],"split_type":[0,0,0,0,0,0,0,0,0,0,0,0,0,0,0,0,0,0,0,0,0,0,0,0,0,0,0,0,0,0,0,0,0,0,0,0,0,0,0,0,0,0,0,0,0,0,0,0,0],"sum_hessian":[1.1029714E3,7.3291974E2,3.7005167E2,7.0363336E2,2.9286396E1,1.5450172E2,2.1554994E2,6.2286017E2,8.07732E1,8.708644E0,2.0577751E1,1.081686E2,4.6333122E1,2.0469637E2,1.0853571E1,6.0347644E2,1.9383709E1,6.061046E1,2.0162746E1,4.467902E0,4.2407417E0,9.0027565E1,1.8141033E1,1.6306694E1,3.0026428E1,1.9431252E2,1.0383858E1,7.032236E0,3.8213348E0,1.4598E1,4.7857094E0,3.872334E1,2.188712E1,5.616113E0,1.4546633E1,8.5136696E1,4.8908663E0,5.208884E0,1.293215E1,1.0628708E1,5.6779866E0,3.5609658E0,2.6465462E1,1.3881111E2,5.5501392E1,6.1520553E0,4.2318025E0,4.011284E0,3.0209522E0],"tree_param":{"num_deleted":"0","num_feature":"9","num_nodes":"49","size_leaf_vector":"1"}},{"base_weights":[2.4930075E-2,-4.532431E-1,1.0168179E0,-4.8801294E-1,3.4619804E-2,-3.365113E-2,1.5805963E0,-3.5149444E-2,-2.5242653E-1,1.3437293E0,2.094237E-1,-3.0098926E-2,5.0684027E-3,5.2014315E-1,1.74642E0,-2.0757845E-2,7.344136E-2,1.5506942E-2,1.3637792E-1],"categories":[],"categories_nodes":[],"categories_segments":[],"categories_sizes":[],"default_left":[0,0,0,0,0,0,0,0,0,0,0,0,0,0,0,0,0,0,0],"id":27,"left_children":[1,3,5,7,-1,-1,9,-1,11,13,-1,-1,-1,15,17,-1,-1,-1,-1],"loss_changes":[9.889843E1,4.879078E0,5.801716E1,3.2654572E-1,0E0,0E0,1.2526573E1,0E0,5.915433E-1,1.3751556E1,0E0,0E0,0E0,7.1977525E0,8.574974E0,0E0,0E0,0E0,0E0],"parents":[2147483647,0,0,1,1,2,2,3,3,6,6,8,8,9,9,13,13,14,14],"right_children":[2,4,6,8,-1,-1,10,-1,12,14,-1,-1,-1,16,18,-1,-1,-1,-1],"split_conditions":[6.6E0,4E0,1E0,1E0,3.4619804E-2,-3.365113E-2,1.05E1,-3.5149444E-2,5.1E1,1E0,2.094237E-1,-3.0098926E-2,5.0684027E-3,8.1E0,3.8E1,-2.0757845E-2,7.344136E-2,1.5506942E-2,1.3637792E-1],"split_indices":[2,8,7,5,0,0,2,0,0,4,0,0,0,2,0,0,0,0,0],"split_type":[0,0,0,0,0,0,0,0,0,0,0,0,0,0,0,0,0,0,0],"sum_hessian":[2.0654536E2,1.3972786E2,6.6817505E1,1.3525137E2,4.476487E0,1.8315058E1,4.8502453E1,1.2653496E2,8.716416E0,4.3202976E1,5.2994742E0,5.4265E0,3.289917E0,1.49397545E1,2.8263222E1,6.0458326E0,8.893922E0,3.5488462E0,2.4714376E1],"tree_param":{"num_deleted":"0","num_feature":"9","num_nodes":"19","size_leaf_vector":"1"}},{"base_weights":[6.807353E-3,3.742348E-1,-4.588846E-1,5.023383E-1,-6.2859046E-1,-2.3008876E-1,-7.349222E-1,5.8158493E-1,-3.4385747E-1,4.6853624E-2,-6.9394577E-1,6.57711E-1,-4.1378635E-1,-5.8052796E-1,-5.4438993E-2,6.698903E-1,2.4580294E-1,5.8751702E-2,-5.691839E-1,-5.121982E-1,-5.270409E-2,4.825688E-2,2.448913E-1,-2.0871928E-1,-7.7632904E-1,1.3609351E-1,-6.527098E-1,4.8651338E-2,3.4117162E-2,2.8217584E-2,-2.6737003E-2,2.0548195E-2,-3.1942524E-2,-2.876156E-2,-4.694443E-2,2.6190619E-3,-4.0900204E-2,4.137952E-2,-1.0819439E-3,5.226683E-3,-5.1649347E-2,-3.0296018E-2,-5.6257587E-2,3.7509657E-2,-4.694553E-2,-1.9246016E-2,-4.849863E-2],"categories":[],"categories_nodes":[],"categories_segments":[],"categories_sizes":[],"default_left":[0,0,0,0,0,0,0,0,0,0,0,0,0,0,0,0,0,0,0,0,0,0,0,0,0,0,0,0,0,0,0,0,0,0,0,0,0,0,0,0,0,0,0,0,0,0,0],"id":28,"left_children":[1,3,5,7,9,11,13,15,17,-1,19,21,23,25,-1,27,29,31,33,35,-1,-1,37,39,41,43,45,-1,-1,-1,-1,-1,-1,-1,-1,-1,-1,-1,-1,-1,-1,-1,-1,-1,-1,-1,-1],"loss_changes":[5.224886E2,2.1958702E2,8.488385E1,1.017305E2,1.6902512E1,1.2060089E2,3.5765686E0,4.089612E1,1.1852208E1,0E0,1.5969467E0,1.490139E0,4.5333176E1,7.1373024E0,0E0,4.68692E0,2.8784178E1,5.897229E0,1.067461E0,1.9413252E0,0E0,0E0,9.639283E-1,5.886857E1,1.7259521E0,4.6475663E0,1.6887093E0,0E0,0E0,0E0,0E0,0E0,0E0,0E0,0E0,0E0,0E0,0E0,0E0,0E0,0E0,0E0,0E0,0E0,0E0,0E0,0E0],"parents":[2147483647,0,0,1,1,2,2,3,3,4,4,5,5,6,6,7,7,8,8,10,10,11,11,12,12,13,13,15,15,16,16,17,17,18,18,19,19,22,22,23,23,24,24,25,25,26,26],"right_children":[2,4,6,8,10,12,14,16,18,-1,20,22,24,26,-1,28,30,32,34,36,-1,-1,38,40,42,44,46,-1,-1,-1,-1,-1,-1,-1,-1,-1,-1,-1,-1,-1,-1,-1,-1,-1,-1,-1,-1],"split_conditions":[2E0,6.5E0,1E0,1E0,1E0,5.7E0,5.5E0,5.8E0,4E1,4.6853624E-2,6.6E0,5.3E1,1E0,3E1,-5.4438993E-2,5.7E0,4.5E1,1.57E2,4.7E1,3E1,-5.270409E-2,4.825688E-2,1E0,6.5E0,2.4E1,1E0,1.37E2,4.8651338E-2,3.4117162E-2,2.8217584E-2,-2.6737003E-2,2.0548195E-2,-3.1942524E-2,-2.876156E-2,-4.694443E-2,2.6190619E-3,-4.0900204E-2,4.137952E-2,-1.0819439E-3,5.226683E-3,-5.1649347E-2,-3.0296018E-2,-5.6257587E-2,3.7509657E-2,-4.694553E-2,-1.9246016E-2,-4.849863E-2],"split_indices":[8,2,7,7,8,2,2,2,0,0,2,0,4,0,0,2,0,3,0,0,0,0,4,2,0,4,3,0,0,0,0,0,0,0,0,0,0,0,0,0,0,0,0,0,0,0,0],"split_type":[0,0,0,0,0,0,0,0,0,0,0,0,0,0,0,0,0,0,0,0,0,0,0,0,0,0,0,0,0,0,0,0,0,0,0,0,0,0,0,0,0,0,0,0,0,0,0],"sum_hessian":[3.0515566E3,1.7058502E3,1.3457065E3,1.5130663E3,1.9278395E2,7.3682074E2,6.088858E2,1.3837866E3,1.292796E2,8.798963E0,1.8398499E2,1.2587821E2,6.109425E2,1.352628E2,4.7362302E2,1.0948606E3,2.8892603E2,4.6655556E1,8.262404E1,4.7444523E1,1.3654047E2,1.1628636E2,9.591849E0,3.9122656E2,2.1971597E2,1.2296613E1,1.22966194E2,9.598853E2,1.3497533E2,2.3131941E2,5.7606617E1,3.2342472E1,1.4313082E1,3.424225E1,4.8381794E1,5.557264E0,4.1887257E1,3.5714712E0,6.0203786E0,2.5533519E2,1.3589137E2,1.7443825E1,2.0227214E2,8.446818E0,3.8497944E0,1.2561624E1,1.1040457E2],"tree_param":{"num_deleted":"0","num_feature":"9","num_nodes":"47","size_leaf_vector":"1"}},{"base_weights":[1.1148158E-3,-4.4841375E-2,1.2568967E-1,-5.184134E-2,2.653788E-1,-2.3730125E-1,8.12134E-1,4.183877E-1,-5.5816207E-2,-3.8147977E-1,5.1764673E-1,5.804643E-2,4.2612308E-1,2.3087882E-1,6.5526086E-1,5.200475E-1,-4.723485E-2,-4.2032707E-2,-1.2221054E-2,1.024451E-2,4.926659E-2,4.3551594E-2,3.3858637E-3,-3.728109E-2,3.1269632E-2,5.06475E-2,6.935722E-3,5.3814713E-2,1.5105525E-3],"categories":[],"categories_nodes":[],"categories_segments":[],"categories_sizes":[],"default_left":[0,0,0,0,0,0,0,0,0,0,0,0,0,0,0,0,0,0,0,0,0,0,0,0,0,0,0,0,0],"id":29,"left_children":[1,-1,3,5,7,9,11,13,15,17,19,-1,21,23,25,27,-1,-1,-1,-1,-1,-1,-1,-1,-1,-1,-1,-1,-1],"loss_changes":[2.2719644E2,0E0,5.9036407E1,1.6825941E2,6.54921E1,9.427429E1,8.717346E-1,3.993048E1,1.5387558E2,3.2800888E1,9.506119E0,0E0,7.052885E-1,8.34907E1,1.5048462E1,2.7718056E1,0E0,0E0,0E0,0E0,0E0,0E0,0E0,0E0,0E0,0E0,0E0,0E0,0E0],"parents":[2147483647,0,0,2,2,3,3,4,4,5,5,6,6,7,7,8,8,9,9,10,10,12,12,13,13,14,14,15,15],"right_children":[2,-1,4,6,8,10,12,14,16,18,20,-1,22,24,26,28,-1,-1,-1,-1,-1,-1,-1,-1,-1,-1,-1,-1,-1],"split_conditions":[1E0,-4.4841375E-2,2E0,1E0,1E0,1E0,6.1E1,1E0,1E0,1E0,4E1,5.804643E-2,2.71E1,1E0,4E0,1E0,-4.723485E-2,-4.2032707E-2,-1.2221054E-2,1.024451E-2,4.926659E-2,4.3551594E-2,3.3858637E-3,-3.728109E-2,3.1269632E-2,5.06475E-2,6.935722E-3,5.3814713E-2,1.5105525E-3],"split_indices":[8,0,8,5,5,7,0,7,7,6,0,0,1,6,8,4,0,0,0,0,0,0,0,0,0,0,0,0,0],"split_type":[0,0,0,0,0,0,0,0,0,0,0,0,0,0,0,0,0,0,0,0,0,0,0,0,0,0,0,0,0],"sum_hessian":[2.840065E3,4.6103818E2,2.3790269E3,1.0478907E3,1.3311361E3,8.6330096E2,1.845898E2,9.014204E2,4.2971573E2,7.252826E2,1.3801839E2,1.7565968E2,8.930113E0,5.0423914E2,3.9718124E2,2.2269167E2,2.0702406E2,3.5141882E2,3.7386374E2,4.6687344E1,9.133105E1,5.453104E0,3.4770086E0,1.10807434E2,3.9343173E2,3.534873E2,4.3693935E1,1.4819868E2,7.449298E1],"tree_param":{"num_deleted":"0","num_feature":"9","num_nodes":"29","size_leaf_vector":"1"}},{"base_weights":[-2.8677103E-3,-4.0532172E-1,7.4840146E-1,-4.6585652E-1,8.877719E-1,1.4795865E-1,1.1654791E0,-5.235586E-1,-2.8452521E-2,-2.930062E-2,1.0423738E0,-1.7378789E-1,8.4532535E-1,1.1927916E0,-1.056841E-2,-3.7314907E-2,-2.472991E-1,-3.6931973E-2,3.529918E-1,7.6011974E-1,1.08527705E-1,-3.4293434E-1,6.370747E-1,1.7125644E-1,1.1678615E0,1.2649047E0,1.0138695E0,-3.553079E-2,2.781784E-2,-3.503852E-2,4.759531E-2,2.1863246E-2,7.763807E-2,-3.5647642E-2,-1.0219043E-2,8.5880775E-3,8.092347E-2,-1.687533E-2,6.0063507E-2,9.83968E-4,9.0788E-2,8.948198E-2,4.7074083E-2,7.839209E-2,4.3868285E-2],"categories":[],"categories_nodes":[],"categories_segments":[],"categories_sizes":[],"default_left":[0,0,0,0,0,0,0,0,0,0,0,0,0,0,0,0,0,0,0,0,0,0,0,0,0,0,0,0,0,0,0,0,0,0,0,0,0,0,0,0,0,0,0,0,0],"id":30,"left_children":[1,3,5,7,9,11,13,15,17,-1,19,21,23,25,-1,-1,27,-1,29,31,-1,33,35,37,39,41,43,-1,-1,-1,-1,-1,-1,-1,-1,-1,-1,-1,-1,-1,-1,-1,-1,-1,-1],"loss_changes":[3.2989624E2,5.602855E1,9.514455E1,1.7131836E1,6.922901E0,3.5408943E1,8.250549E0,1.4450989E0,1.5462657E1,0E0,2.980606E0,1.5081874E1,1.0624214E1,1.5561523E0,0E0,0E0,3.8665607E0,0E0,1.3198967E1,2.8740578E0,0E0,2.8840237E0,4.944769E0,5.1016283E0,4.9725075E0,3.5391235E-1,2.099205E0,0E0,0E0,0E0,0E0,0E0,0E0,0E0,0E0,0E0,0E0,0E0,0E0,0E0,0E0,0E0,0E0,0E0,0E0],"parents":[2147483647,0,0,1,1,2,2,3,3,4,4,5,5,6,6,7,7,8,8,10,10,11,11,12,12,13,13,16,16,18,18,19,19,21,21,22,22,23,23,24,24,25,25,26,26],"right_children":[2,4,6,8,10,12,14,16,18,-1,20,22,24,26,-1,-1,28,-1,30,32,-1,34,36,38,40,42,44,-1,-1,-1,-1,-1,-1,-1,-1,-1,-1,-1,-1,-1,-1,-1,-1,-1,-1],"split_conditions":[6.5E0,4E0,1.32E2,3E0,1.33E2,8.9E0,1.12E1,1.63E2,1.4E2,-2.930062E-2,6.1E0,3E0,2E0,8.4E0,-1.056841E-2,-3.7314907E-2,5.8E0,-3.6931973E-2,5.7E0,4.4E1,1.08527705E-1,2E0,7.6E0,1.03E1,3.4E1,3.09E1,2.74E1,-3.553079E-2,2.781784E-2,-3.503852E-2,4.759531E-2,2.1863246E-2,7.763807E-2,-3.5647642E-2,-1.0219043E-2,8.5880775E-3,8.092347E-2,-1.687533E-2,6.0063507E-2,9.83968E-4,9.0788E-2,8.948198E-2,4.7074083E-2,7.839209E-2,4.3868285E-2],"split_indices":[2,8,3,8,3,2,2,3,3,0,2,8,8,2,0,0,2,0,2,0,0,8,2,2,0,1,1,0,0,0,0,0,0,0,0,0,0,0,0,0,0,0,0,0,0],"split_type":[0,0,0,0,0,0,0,0,0,0,0,0,0,0,0,0,0,0,0,0,0,0,0,0,0,0,0,0,0,0,0,0,0,0,0,0,0,0,0,0,0,0,0,0,0],"sum_hessian":[1.0890992E3,7.094879E2,3.7961133E2,6.783704E2,3.1117458E1,1.5615648E2,2.2345485E2,5.991358E2,7.923463E1,3.1122384E0,2.800522E1,1.0736972E2,4.8786755E1,2.1900508E2,4.4497623E0,5.782958E2,2.0840054E1,3.4155956E1,4.507867E1,1.9607594E1,8.397628E0,8.931552E1,1.80542E1,1.628457E1,3.2502186E1,1.51767E2,6.723809E1,1.4997706E1,5.842347E0,1.2337714E1,3.2740955E1,9.418232E0,1.0189361E1,4.756357E1,4.1751957E1,9.688114E0,8.366085E0,1.0581002E1,5.703568E0,3.3825486E0,2.9119638E1,1.4727563E2,4.4913564E0,5.1298985E1,1.5939105E1],"tree_param":{"num_deleted":"0","num_feature":"9","num_nodes":"45","size_leaf_vector":"1"}},{"base_weights":[-2.4013938E-2,-4.154611E-1,9.7572154E-1,-3.5128467E-2,1.2820092E-1,-3.304957E-2,1.446389E0,-3.265222E-2,8.869972E-1,1.1779718E0,1.886703E-1,-1.4460739E-2,1.133444E-1,-1.7071778E-2,1.3578717E0,5.9346877E-2,1.2869462E-1],"categories":[],"categories_nodes":[],"categories_segments":[],"categories_sizes":[],"default_left":[0,0,0,0,0,0,0,0,0,0,0,0,0,0,0,0,0],"id":31,"left_children":[1,3,5,-1,7,-1,9,-1,11,13,-1,-1,-1,-1,15,-1,-1],"loss_changes":[7.900366E1,6.874756E0,3.939734E1,0E0,9.744848E0,0E0,1.127993E1,0E0,7.885716E0,9.864037E0,0E0,0E0,0E0,0E0,6.588661E0,0E0,0E0],"parents":[2147483647,0,0,1,1,2,2,4,4,6,6,8,8,9,9,14,14],"right_children":[2,4,6,-1,8,-1,10,-1,12,14,-1,-1,-1,-1,16,-1,-1],"split_conditions":[7.3E0,1E0,1.32E2,-3.5128467E-2,1E0,-3.304957E-2,1.05E1,-3.265222E-2,5E1,3.8E1,1.886703E-1,-1.4460739E-2,1.133444E-1,-1.7071778E-2,1.54E2,5.9346877E-2,1.2869462E-1],"split_indices":[2,5,3,0,4,0,2,0,0,0,0,0,0,0,3,0,0],"split_type":[0,0,0,0,0,0,0,0,0,0,0,0,0,0,0,0,0],"sum_hessian":[1.9984215E2,1.440311E2,5.5811054E1,1.2435169E2,1.9679403E1,1.3691231E1,4.2119823E1,1.1248963E1,8.430439E0,3.6268177E1,5.8516464E0,3.668809E0,4.7616305E0,4.033489E0,3.2234688E1,1.6979376E1,1.5255313E1],"tree_param":{"num_deleted":"0","num_feature":"9","num_nodes":"17","size_leaf_vector":"1"}},{"base_weights":[3.095211E-3,3.453332E-1,-4.2264044E-1,5.783461E-1,-5.2697414E-1,-1.5358537E-1,-5.2504737E-2,6.6869783E-1,2.093985E-1,-3.4671548E-1,-6.4914936E-1,7.870348E-2,-5.8413154E-1,4.83891E-2,5.505275E-1,4.06401E-1,-6.9973737E-1,-2.3568249E-1,-5.1974464E-2,-5.778071E-1,-5.0828192E-2,2.4035129E-1,-7.701173E-1,-3.6718607E-1,-5.1970746E-2,4.3378655E-2,2.8134232E-2,3.1522438E-2,-3.0095484E-2,-3.162782E-2,-5.5794492E-2,-7.6373173E-3,-4.1910633E-2,-8.017454E-3,-4.2099778E-2,3.1992823E-2,9.485357E-3,-2.2736011E-2,-5.5488992E-2,-1.5593897E-2,-5.2915733E-2],"categories":[],"categories_nodes":[],"categories_segments":[],"categories_sizes":[],"default_left":[0,0,0,0,0,0,0,0,0,0,0,0,0,0,0,0,0,0,0,0,0,0,0,0,0,0,0,0,0,0,0,0,0,0,0,0,0,0,0,0,0],"id":32,"left_children":[1,3,5,7,9,11,-1,13,15,17,19,21,23,-1,25,27,29,31,-1,33,-1,35,37,39,-1,-1,-1,-1,-1,-1,-1,-1,-1,-1,-1,-1,-1,-1,-1,-1,-1],"loss_changes":[4.3350287E2,3.3555237E2,1.16690125E2,4.3266754E1,7.443962E0,7.29618E1,0E0,2.4085999E0,4.6422432E1,6.1011486E0,7.138214E-1,6.5285126E1,8.5065E0,0E0,1.5251961E0,7.993931E0,7.557392E-1,5.127179E0,0E0,1.1567307E0,0E0,9.010168E0,5.082092E-1,5.996998E0,0E0,0E0,0E0,0E0,0E0,0E0,0E0,0E0,0E0,0E0,0E0,0E0,0E0,0E0,0E0,0E0,0E0],"parents":[2147483647,0,0,1,1,2,2,3,3,4,4,5,5,7,7,8,8,9,9,10,10,11,11,12,12,14,14,15,15,16,16,17,17,19,19,21,21,22,22,23,23],"right_children":[2,4,6,8,10,12,-1,14,16,18,20,22,24,-1,26,28,30,32,-1,34,-1,36,38,40,-1,-1,-1,-1,-1,-1,-1,-1,-1,-1,-1,-1,-1,-1,-1,-1,-1],"split_conditions":[5.8E0,1E0,1E0,5.7E0,1.48E2,1.28E2,-5.2504737E-2,1E0,1E0,1E0,1.6E2,1E0,1E0,4.83891E-2,2.44E1,2.92E1,2.19E1,5.5E0,-5.1974464E-2,4.8E0,-5.0828192E-2,1.14E2,1.08E2,1E0,-5.1970746E-2,4.3378655E-2,2.8134232E-2,3.1522438E-2,-3.0095484E-2,-3.162782E-2,-5.5794492E-2,-7.6373173E-3,-4.1910633E-2,-8.017454E-3,-4.2099778E-2,3.1992823E-2,9.485357E-3,-2.2736011E-2,-5.5488992E-2,-1.5593897E-2,-5.2915733E-2],"split_indices":[2,7,5,2,3,3,0,4,4,4,3,4,7,0,1,1,1,2,0,2,0,3,3,4,0,0,0,0,0,0,0,0,0,0,0,0,0,0,0,0,0],"split_type":[0,0,0,0,0,0,0,0,0,0,0,0,0,0,0,0,0,0,0,0,0,0,0,0,0,0,0,0,0,0,0,0,0,0,0,0,0,0,0,0,0],"sum_hessian":[2.9732505E3,1.6483627E3,1.3248877E3,1.3011368E3,3.472259E2,7.2807745E2,5.9681024E2,1.0445292E3,2.5660767E2,1.4182039E2,2.054055E2,4.7345538E2,2.5462209E2,8.729187E2,1.7161046E2,2.113605E2,4.524716E1,1.11996025E2,2.9824368E1,1.11013176E2,9.439233E1,3.983174E2,7.513797E1,1.0881754E2,1.4580455E2,1.149427E2,5.6667763E1,2.012534E2,1.0107105E1,1.4346372E1,3.090079E1,8.400674E1,2.7989288E1,5.668822E0,1.0534435E2,1.2878796E2,2.6952945E2,4.36887E0,7.07691E1,8.048979E1,2.8327755E1],"tree_param":{"num_deleted":"0","num_feature":"9","num_nodes":"41","size_leaf_vector":"1"}},{"base_weights":[2.4669815E-3,-4.402212E-2,1.1875116E-1,-4.061164E-2,2.4361648E-1,-2.1814431E-1,7.704411E-1,3.8533545E-1,-5.9631232E-2,-3.7682548E-1,3.6850545E-1,5.632279E-2,2.2310057E-1,6.933222E-2,5.509279E-1,4.838631E-1,-6.426704E-1,-3.6121674E-2,-4.5860223E-3,4.543867E-3,4.061487E-2,-9.132594E-3,3.0718861E-2,-3.8524717E-2,1.7249027E-2,4.1094057E-2,7.904595E-3,4.920814E-2,1.7051763E-3,-2.8497124E-2,-4.6506528E-2],"categories":[],"categories_nodes":[],"categories_segments":[],"categories_sizes":[],"default_left":[0,0,0,0,0,0,0,0,0,0,0,0,0,0,0,0,0,0,0,0,0,0,0,0,0,0,0,0,0,0,0],"id":33,"left_children":[1,-1,3,5,7,9,11,13,15,17,19,-1,21,23,25,27,29,-1,-1,-1,-1,-1,-1,-1,-1,-1,-1,-1,-1,-1,-1],"loss_changes":[2.067536E2,0E0,4.733224E1,1.507233E2,5.7332848E1,8.006744E1,3.3364792E0,4.7524887E1,1.3517055E2,2.9273354E1,1.1743835E1,0E0,1.0054202E0,3.4557083E1,9.369766E0,2.2216877E1,7.81723E-1,0E0,0E0,0E0,0E0,0E0,0E0,0E0,0E0,0E0,0E0,0E0,0E0,0E0,0E0],"parents":[2147483647,0,0,2,2,3,3,4,4,5,5,6,6,7,7,8,8,9,9,10,10,12,12,13,13,14,14,15,15,16,16],"right_children":[2,-1,4,6,8,10,12,14,16,18,20,-1,22,24,26,28,30,-1,-1,-1,-1,-1,-1,-1,-1,-1,-1,-1,-1,-1,-1],"split_conditions":[1E0,-4.402212E-2,2E0,1E0,1E0,1.32E2,1.03E1,1.24E2,1.32E2,5.9E0,1.39E2,5.632279E-2,2.42E1,5.7E0,4E0,1E0,1.35E2,-3.6121674E-2,-4.5860223E-3,4.543867E-3,4.061487E-2,-9.132594E-3,3.0718861E-2,-3.8524717E-2,1.7249027E-2,4.1094057E-2,7.904595E-3,4.920814E-2,1.7051763E-3,-2.8497124E-2,-4.6506528E-2],"split_indices":[8,0,8,5,5,3,2,3,3,2,3,0,1,2,8,4,3,0,0,0,0,0,0,0,0,0,0,0,0,0,0],"split_type":[0,0,0,0,0,0,0,0,0,0,0,0,0,0,0,0,0,0,0,0,0,0,0,0,0,0,0,0,0,0,0],"sum_hessian":[2.8141553E3,4.370148E2,2.3771404E3,1.0446069E3,1.3325336E3,8.576135E2,1.8699338E2,9.0794586E2,4.245877E2,6.7530884E2,1.8230466E2,1.7556305E2,1.1430328E1,3.1267697E2,5.9526886E2,2.1983406E2,2.0475363E2,4.6619742E2,2.0911142E2,7.543524E1,1.06869415E2,4.4813414E0,6.9489865E0,6.902429E1,2.4365268E2,5.4959375E2,4.5675095E1,1.4849542E2,7.1338646E1,1.8943434E1,1.858102E2],"tree_param":{"num_deleted":"0","num_feature":"9","num_nodes":"31","size_leaf_vector":"1"}},{"base_weights":[5.774475E-3,-3.9394757E-1,7.2805303E-1,-5.263378E-1,2.632334E-1,1.4413401E-1,1.0909562E0,-3.7180915E-2,-3.5542685E-1,-4.773965E-1,6.1510146E-1,-2.0604832E-1,1.028786E0,1.2030089E0,7.6604617E-1,-3.483997E-2,-5.2147394E-4,-3.6725607E-2,-8.299317E-3,-1.3800009E-1,1.0408142E0,-2.5059888E-1,3.3756447E-1,4.2919284E-1,1.2591014E0,8.478975E-2,4.1021608E-2,9.7598696E-1,2.96319E-1,-2.8587647E-2,1.5503928E-2,-3.4626313E-2,1.0008494E-1,-2.4066603E-2,-4.211139E-3,4.370776E-2,-1.1150024E-3,-9.6601766E-4,9.0396136E-2,7.342959E-2,1.2720783E-1,7.728857E-2,4.0557258E-2,3.1152809E-2,-1.1933633E-2],"categories":[],"categories_nodes":[],"categories_segments":[],"categories_sizes":[],"default_left":[0,0,0,0,0,0,0,0,0,0,0,0,0,0,0,0,0,0,0,0,0,0,0,0,0,0,0,0,0,0,0,0,0,0,0,0,0,0,0,0,0,0,0,0,0],"id":34,"left_children":[1,3,5,7,9,11,13,-1,15,17,19,21,23,25,27,-1,-1,-1,-1,29,31,33,35,37,39,-1,-1,41,43,-1,-1,-1,-1,-1,-1,-1,-1,-1,-1,-1,-1,-1,-1,-1,-1],"loss_changes":[3.0880377E2,6.004564E1,8.058949E1,2.83432E-1,3.055466E1,4.581393E1,7.6285095E0,0E0,9.244013E-1,5.8151245E-1,2.5521616E1,2.658784E0,5.2474174E0,1.725769E-1,5.9211807E0,0E0,0E0,0E0,0E0,2.9549484E0,3.0980518E1,1.7333531E0,8.6946905E-1,5.0397377E0,1.5841064E0,0E0,0E0,1.5499191E0,1.5260123E0,0E0,0E0,0E0,0E0,0E0,0E0,0E0,0E0,0E0,0E0,0E0,0E0,0E0,0E0,0E0,0E0],"parents":[2147483647,0,0,1,1,2,2,3,3,4,4,5,5,6,6,8,8,9,9,10,10,11,11,12,12,13,13,14,14,19,19,20,20,21,21,22,22,23,23,24,24,27,27,28,28],"right_children":[2,4,6,8,10,12,14,-1,16,18,20,22,24,26,28,-1,-1,-1,-1,30,32,34,36,38,40,-1,-1,42,44,-1,-1,-1,-1,-1,-1,-1,-1,-1,-1,-1,-1,-1,-1,-1,-1],"split_conditions":[1E0,3E0,1.32E2,1.63E2,1.39E2,1E0,1E0,-3.7180915E-2,1E0,4E0,1E0,2.95E1,2.23E1,3.24E1,1.57E2,-3.483997E-2,-5.2147394E-4,-3.6725607E-2,-8.299317E-3,1.59E2,1E0,1.21E2,3.06E1,1.25E2,2.74E1,8.478975E-2,4.1021608E-2,2.61E1,1.73E2,-2.8587647E-2,1.5503928E-2,-3.4626313E-2,1.0008494E-1,-2.4066603E-2,-4.211139E-3,4.370776E-2,-1.1150024E-3,-9.6601766E-4,9.0396136E-2,7.342959E-2,1.2720783E-1,7.728857E-2,4.0557258E-2,3.1152809E-2,-1.1933633E-2],"split_indices":[5,8,3,3,3,4,4,0,6,8,4,1,1,1,3,0,0,0,0,3,6,3,1,3,1,0,0,1,3,0,0,0,0,0,0,0,0,0,0,0,0,0,0,0,0],"split_type":[0,0,0,0,0,0,0,0,0,0,0,0,0,0,0,0,0,0,0,0,0,0,0,0,0,0,0,0,0,0,0,0,0,0,0,0,0,0,0,0,0,0,0,0,0],"sum_hessian":[1.0676027E3,6.875529E2,3.800497E2,5.724342E2,1.15118744E2,1.4620303E2,2.3384666E2,5.546893E2,1.7744892E1,3.696216E1,7.8156586E1,1.05291374E2,4.0911663E1,1.7187053E2,6.197613E1,1.2289458E1,5.455434E0,3.2252693E1,4.709463E0,2.8469254E1,4.9687332E1,9.781425E1,7.477132E0,1.2148443E1,2.8763218E1,1.6864592E2,3.2246096E0,4.2087627E1,1.9888504E1,1.6170317E1,1.2298938E1,9.987922E0,3.969941E1,6.513091E1,3.268333E1,3.7046971E0,3.772435E0,8.675116E0,3.473328E0,2.298886E1,5.7743587E0,3.0461826E1,1.1625803E1,1.5118425E1,4.770078E0],"tree_param":{"num_deleted":"0","num_feature":"9","num_nodes":"45","size_leaf_vector":"1"}},{"base_weights":[1.3252983E-2,-3.5095762E-2,7.539105E-1,-3.3893157E-2,1.199031E0,9.6581197E-1,1.4858608E-1,4.250671E-1,1.2986119E0,-8.034814E-3,4.9763463E-2,5.68578E-2,1.2027285E-1],"categories":[],"categories_nodes":[],"categories_segments":[],"categories_sizes":[],"default_left":[0,0,0,0,0,0,0,0,0,0,0,0,0],"id":35,"left_children":[1,-1,3,-1,5,7,-1,9,11,-1,-1,-1,-1],"loss_changes":[7.714041E1,0E0,4.6301994E1,0E0,1.1156921E1,8.58749E0,0E0,3.2966537E0,4.920376E0,0E0,0E0,0E0,0E0],"parents":[2147483647,0,0,2,2,4,4,5,5,7,7,8,8],"right_children":[2,-1,4,-1,6,8,-1,10,12,-1,-1,-1,-1],"split_conditions":[1E0,-3.5095762E-2,1E0,-3.3893157E-2,9.8E0,5E1,1.4858608E-1,1.48E2,1.54E2,-8.034814E-3,4.9763463E-2,5.68578E-2,1.2027285E-1],"split_indices":[5,0,7,0,2,0,0,3,3,0,0,0,0],"split_type":[0,0,0,0,0,0,0,0,0,0,0,0,0],"sum_hessian":[2.003927E2,1.1842921E2,8.1963486E1,2.1651709E1,6.031178E1,4.978625E1,1.0525529E1,1.9834963E1,2.9951288E1,7.07369E0,1.2761272E1,1.5231365E1,1.4719924E1],"tree_param":{"num_deleted":"0","num_feature":"9","num_nodes":"13","size_leaf_vector":"1"}},{"base_weights":[2.591836E-3,3.468646E-1,-4.296643E-1,4.6331263E-1,-4.9281284E-2,-2.1222807E-1,-6.9440126E-1,5.535039E-1,-1.712328E-1,5.9868765E-1,-3.7024057E-1,-5.470138E-1,-5.151305E-2,6.381042E-1,2.5254074E-1,3.2126114E-1,-3.6959654E-1,4.43475E-2,3.324023E-1,-1.7705372E-1,-7.236427E-1,-2.2911295E-1,-4.7818013E-2,4.6256293E-2,3.296591E-2,2.9179722E-2,-1.6190788E-2,4.0020972E-2,-1.3255263E-2,-2.9622553E-2,3.6051255E-2,4.134326E-2,-6.7479326E-3,5.41193E-3,-4.9729545E-2,-3.617726E-2,-5.3670462E-2,7.503832E-3,-5.038789E-2],"categories":[],"categories_nodes":[],"categories_segments":[],"categories_sizes":[],"default_left":[0,0,0,0,0,0,0,0,0,0,0,0,0,0,0,0,0,0,0,0,0,0,0,0,0,0,0,0,0,0,0,0,0,0,0,0,0,0,0],"id":36,"left_children":[1,3,5,7,-1,9,11,13,15,17,19,21,-1,23,25,27,29,-1,31,33,35,37,-1,-1,-1,-1,-1,-1,-1,-1,-1,-1,-1,-1,-1,-1,-1,-1,-1],"loss_changes":[4.337905E2,1.9889224E2,7.4245026E1,8.372922E1,0E0,9.132646E1,3.1593933E0,3.2422974E1,1.7959997E1,8.68927E-1,4.054014E1,5.5477905E0,0E0,3.4768982E0,2.255174E1,6.883033E0,6.410961E0,0E0,1.7804784E0,5.248682E1,1.4766464E0,6.848104E0,0E0,0E0,0E0,0E0,0E0,0E0,0E0,0E0,0E0,0E0,0E0,0E0,0E0,0E0,0E0,0E0,0E0],"parents":[2147483647,0,0,1,1,2,2,3,3,5,5,6,6,7,7,8,8,9,9,10,10,11,11,13,13,14,14,15,15,16,16,18,18,19,19,20,20,21,21],"right_children":[2,4,6,8,-1,10,12,14,16,18,20,22,-1,24,26,28,30,-1,32,34,36,38,-1,-1,-1,-1,-1,-1,-1,-1,-1,-1,-1,-1,-1,-1,-1,-1,-1],"split_conditions":[2E0,1E0,1E0,1.32E2,-4.9281284E-2,5.7E0,5.5E0,5.8E0,3.6E1,5E1,1E0,3.9E1,-5.151305E-2,5.7E0,4.3E1,1.48E2,1E0,4.43475E-2,5.4E0,1E0,2.8E1,1E0,-4.7818013E-2,4.6256293E-2,3.296591E-2,2.9179722E-2,-1.6190788E-2,4.0020972E-2,-1.3255263E-2,-2.9622553E-2,3.6051255E-2,4.134326E-2,-6.7479326E-3,5.41193E-3,-4.9729545E-2,-3.617726E-2,-5.3670462E-2,7.503832E-3,-5.038789E-2],"split_indices":[8,5,7,3,0,2,2,2,0,0,4,0,0,2,0,3,4,0,2,5,0,4,0,0,0,0,0,0,0,0,0,0,0,0,0,0,0,0,0],"split_type":[0,0,0,0,0,0,0,0,0,0,0,0,0,0,0,0,0,0,0,0,0,0,0,0,0,0,0,0,0,0,0,0,0,0,0,0,0,0,0],"sum_hessian":[2.9129824E3,1.6216266E3,1.2913558E3,1.4603633E3,1.6126328E2,7.1000745E2,5.813484E2,1.2787374E3,1.8162587E2,1.1533297E2,5.9467444E2,1.3084097E2,4.5050742E2,9.972825E2,2.8145496E2,5.1971756E1,1.296541E2,1.0076674E2,1.4566228E1,3.8546274E2,2.0921173E2,4.002797E1,9.0812996E1,8.754475E2,1.2183497E2,2.102067E2,7.1248245E1,3.4788067E1,1.718369E1,1.22741066E2,6.9130363E0,8.855968E0,5.71026E0,2.615722E2,1.2389053E2,3.830434E1,1.709074E2,2.421428E1,1.5813692E1],"tree_param":{"num_deleted":"0","num_feature":"9","num_nodes":"39","size_leaf_vector":"1"}},{"base_weights":[-2.5136333E-3,-4.327928E-2,1.08376235E-1,-4.651833E-2,2.2725992E-1,-2.0776859E-1,7.2620773E-1,3.6209032E-1,-6.1216466E-2,-3.542792E-1,4.3475556E-1,5.3339045E-2,2.0075427E-1,7.5608365E-2,5.200886E-1,4.8945665E-1,-6.33173E-1,-3.472327E-2,-7.845208E-3,1.2289462E-2,4.3378774E-2,2.5629498E-2,-1.2180897E-2,-3.6349222E-2,1.6126996E-2,3.8606174E-2,1.1387962E-2,4.2870153E-2,-7.6905377E-3,-1.5010628E-2,-4.571465E-2],"categories":[],"categories_nodes":[],"categories_segments":[],"categories_sizes":[],"default_left":[0,0,0,0,0,0,0,0,0,0,0,0,0,0,0,0,0,0,0,0,0,0,0,0,0,0,0,0,0,0,0],"id":37,"left_children":[1,-1,3,5,7,9,11,13,15,17,19,-1,21,23,25,27,29,-1,-1,-1,-1,-1,-1,-1,-1,-1,-1,-1,-1,-1,-1],"loss_changes":[1.8543642E2,0E0,4.238842E1,1.2477165E2,5.0671364E1,7.8122765E1,3.0975037E0,4.0135124E1,1.3121565E2,2.3122063E1,7.284807E0,0E0,8.3101517E-1,2.9276896E1,6.3341064E0,1.5715218E1,1.5618668E0,0E0,0E0,0E0,0E0,0E0,0E0,0E0,0E0,0E0,0E0,0E0,0E0,0E0,0E0],"parents":[2147483647,0,0,2,2,3,3,4,4,5,5,6,6,7,7,8,8,9,9,10,10,12,12,13,13,14,14,15,15,16,16],"right_children":[2,-1,4,6,8,10,12,14,16,18,20,-1,22,24,26,28,30,-1,-1,-1,-1,-1,-1,-1,-1,-1,-1,-1,-1,-1,-1],"split_conditions":[1E0,-4.327928E-2,2E0,1E0,1E0,1.33E2,1.03E1,1.24E2,1.32E2,5.8E0,2.4E1,5.3339045E-2,1.23E2,5.7E0,4E0,9.4E0,1E0,-3.472327E-2,-7.845208E-3,1.2289462E-2,4.3378774E-2,2.5629498E-2,-1.2180897E-2,-3.6349222E-2,1.6126996E-2,3.8606174E-2,1.1387962E-2,4.2870153E-2,-7.6905377E-3,-1.5010628E-2,-4.571465E-2],"split_indices":[8,0,8,5,5,3,2,3,3,2,1,0,3,2,8,2,7,0,0,0,0,0,0,0,0,0,0,0,0,0,0],"split_type":[0,0,0,0,0,0,0,0,0,0,0,0,0,0,0,0,0,0,0,0,0,0,0,0,0,0,0,0,0,0,0],"sum_hessian":[2.7137727E3,4.1343405E2,2.3003386E3,9.991484E2,1.3011903E3,8.272511E2,1.7189728E2,8.865652E2,4.1462512E2,6.740097E2,1.5324142E2,1.6051733E2,1.1379941E1,3.1567075E2,5.708945E2,2.113164E2,2.0330873E2,4.244955E2,2.4951419E2,6.462289E1,8.861854E1,7.911637E0,3.4683046E0,6.4688194E1,2.5098254E2,5.2425146E2,4.664298E1,1.7532068E2,3.5995724E1,9.755035E0,1.935537E2],"tree_param":{"num_deleted":"0","num_feature":"9","num_nodes":"31","size_leaf_vector":"1"}},{"base_weights":[-9.3587936E-4,-3.894008E-1,6.484962E-1,-5.2045953E-1,2.3962617E-1,1.1319936E-1,9.6608317E-1,-3.703703E-2,-2.581234E-1,-4.7467133E-1,5.79602E-1,-2.4601293E-1,8.9488393E-1,9.969636E-1,-1.8629761E-2,-4.464449E-1,3.362307E-2,-3.655689E-2,-1.1782243E-2,-1.4380385E-1,1.0132203E0,-4.340947E-1,4.2576826E-1,2.8293332E-1,9.4316535E-2,1.1008378E0,7.0145357E-1,-3.484632E-2,-1.2369189E-2,-2.8090965E-2,1.1603419E-2,-3.3692304E-2,9.29096E-2,-3.1858973E-2,4.4748193E-4,8.464706E-3,5.1216573E-2,-2.6516149E-2,4.411594E-2,7.784155E-2,2.7526738E-2,5.409456E-2,-1.1936667E-2],"categories":[],"categories_nodes":[],"categories_segments":[],"categories_sizes":[],"default_left":[0,0,0,0,0,0,0,0,0,0,0,0,0,0,0,0,0,0,0,0,0,0,0,0,0,0,0,0,0,0,0,0,0,0,0,0,0,0,0,0,0,0,0],"id":38,"left_children":[1,3,5,7,9,11,13,-1,15,17,19,21,23,25,-1,27,-1,-1,-1,29,31,33,35,37,-1,39,41,-1,-1,-1,-1,-1,-1,-1,-1,-1,-1,-1,-1,-1,-1,-1,-1],"loss_changes":[2.6442096E2,5.419068E1,6.6581436E1,1.0944366E0,2.7902596E1,4.155522E1,9.62912E0,0E0,2.8941932E0,4.5475292E-1,2.446544E1,1.302763E1,1.251276E1,6.6033173E0,0E0,1.3192868E-1,0E0,0E0,0E0,2.4524345E0,2.3449627E1,7.432461E-1,2.0318694E0,5.0787725E0,0E0,9.557953E-1,4.189892E0,0E0,0E0,0E0,0E0,0E0,0E0,0E0,0E0,0E0,0E0,0E0,0E0,0E0,0E0,0E0,0E0],"parents":[2147483647,0,0,1,1,2,2,3,3,4,4,5,5,6,6,8,8,9,9,10,10,11,11,12,12,13,13,15,15,19,19,20,20,21,21,22,22,23,23,25,25,26,26],"right_children":[2,4,6,8,10,12,14,-1,16,18,20,22,24,26,-1,28,-1,-1,-1,30,32,34,36,38,-1,40,42,-1,-1,-1,-1,-1,-1,-1,-1,-1,-1,-1,-1,-1,-1,-1,-1],"split_conditions":[6.5E0,3E0,1.32E2,1.63E2,1.39E2,1E0,1.1E1,-3.703703E-2,2.78E1,4E0,1E0,9.2E0,8E0,1E0,-1.8629761E-2,6E0,3.362307E-2,-3.655689E-2,-1.1782243E-2,1.59E2,5.7E0,3.01E1,1.01E1,2.23E1,9.4316535E-2,1.05E1,1.73E2,-3.484632E-2,-1.2369189E-2,-2.8090965E-2,1.1603419E-2,-3.3692304E-2,9.29096E-2,-3.1858973E-2,4.4748193E-4,8.464706E-3,5.1216573E-2,-2.6516149E-2,4.411594E-2,7.784155E-2,2.7526738E-2,5.409456E-2,-1.1936667E-2],"split_indices":[2,8,3,3,3,4,2,0,1,8,4,2,2,4,0,2,0,0,0,3,2,1,2,1,0,2,3,0,0,0,0,0,0,0,0,0,0,0,0,0,0,0,0],"split_type":[0,0,0,0,0,0,0,0,0,0,0,0,0,0,0,0,0,0,0,0,0,0,0,0,0,0,0,0,0,0,0,0,0,0,0,0,0,0,0,0,0,0,0],"sum_hessian":[1.0461174E3,6.5482623E2,3.9129114E2,5.420599E2,1.1276639E2,1.4620953E2,2.4508159E2,5.237903E2,1.8269564E1,3.6236477E1,7.6529915E1,1.0064487E2,4.556467E1,2.3927608E2,5.8055177E0,1.4872251E1,3.3973136E0,3.0756048E1,5.4804287E0,2.893162E1,4.759829E1,7.890678E1,2.1738089E1,2.0060415E1,2.5504255E1,1.7502733E2,6.424875E1,1.178321E1,3.0890408E0,1.5632385E1,1.3299235E1,8.17287E0,3.9425423E1,7.527893E1,3.6278408E0,1.1586645E1,1.0151444E1,6.8732963E0,1.3187119E1,1.7174123E2,3.2861023E0,5.949588E1,4.75287E0],"tree_param":{"num_deleted":"0","num_feature":"9","num_nodes":"43","size_leaf_vector":"1"}},{"base_weights":[9.412229E-3,-4.5304766E-1,7.757221E-1,-4.9303764E-1,3.0316876E-2,-3.3320818E-2,1.1237411E0,-3.5095524E-2,-9.696732E-3,6.613797E-1,1.420864E0,-2.821365E-2,8.39365E-1,3.1361774E-2,1.0845692E-1,9.091765E-3,7.75582E-2],"categories":[],"categories_nodes":[],"categories_segments":[],"categories_sizes":[],"default_left":[0,0,0,0,0,0,0,0,0,0,0,0,0,0,0,0,0],"id":39,"left_children":[1,3,5,7,-1,-1,9,-1,-1,11,13,-1,15,-1,-1,-1,-1],"loss_changes":[6.954933E1,4.5511417E0,3.270901E1,2.77668E-1,0E0,0E0,7.0401917E0,0E0,0E0,4.998008E0,3.618332E0,0E0,3.933692E0,0E0,0E0,0E0,0E0],"parents":[2147483647,0,0,1,1,2,2,3,3,6,6,9,9,10,10,12,12],"right_children":[2,4,6,8,-1,-1,10,-1,-1,12,14,-1,16,-1,-1,-1,-1],"split_conditions":[6.6E0,4E0,1E0,1.68E2,3.0316876E-2,-3.3320818E-2,8.4E0,-3.5095524E-2,-9.696732E-3,1.43E2,3.8E1,-2.821365E-2,1E0,3.1361774E-2,1.0845692E-1,9.091765E-3,7.75582E-2],"split_indices":[2,8,7,3,0,0,2,0,0,3,0,0,4,0,0,0,0],"split_type":[0,0,0,0,0,0,0,0,0,0,0,0,0,0,0,0,0],"sum_hessian":[1.9426048E2,1.2140353E2,7.285695E1,1.1658586E2,4.81767E0,1.5769696E1,5.7087254E1,1.1350553E2,3.0803297E0,2.359552E1,3.3491734E1,3.1990778E0,2.0396442E1,4.431725E0,2.9060009E1,6.008806E0,1.4387635E1],"tree_param":{"num_deleted":"0","num_feature":"9","num_nodes":"17","size_leaf_vector":"1"}},{"base_weights":[-1.8870967E-3,3.2639945E-1,-3.994793E-1,5.498399E-1,-4.7012484E-1,-1.6320504E-1,-6.704218E-1,6.416098E-1,1.8922244E-1,-9.130257E-2,-5.7474625E-1,5.3302515E-2,-5.720729E-1,-5.3553057E-1,-4.9726952E-2,4.633882E-2,5.4134995E-1,3.8210997E-1,-6.7839855E-1,1.0472286E-1,-4.8816353E-2,-4.1980708E-1,-6.520038E-1,1.9306827E-1,-7.1834373E-1,-2.218963E-1,-6.909491E-1,-1.7393827E-1,-6.0613126E-1,4.3148328E-2,1.9025729E-3,4.076257E-2,-1.6267943E-3,-2.4321368E-2,-5.141929E-2,4.041066E-2,-1.8327082E-2,-1.4596821E-2,-4.0830616E-2,-3.5056602E-2,-4.7318045E-2,2.4868758E-2,-2.4434878E-2,-2.4589047E-2,-5.3776372E-2,8.687914E-3,-4.7616635E-2,-3.6503952E-2,-5.009645E-2,-2.1519815E-3,-3.616365E-2,-3.5785474E-2,-5.074899E-2],"categories":[],"categories_nodes":[],"categories_segments":[],"categories_sizes":[],"default_left":[0,0,0,0,0,0,0,0,0,0,0,0,0,0,0,0,0,0,0,0,0,0,0,0,0,0,0,0,0,0,0,0,0,0,0,0,0,0,0,0,0,0,0,0,0,0,0,0,0,0,0,0,0],"id":40,"left_children":[1,3,5,7,9,11,13,15,17,19,21,23,25,27,-1,-1,29,31,33,35,-1,37,39,41,43,45,47,49,51,-1,-1,-1,-1,-1,-1,-1,-1,-1,-1,-1,-1,-1,-1,-1,-1,-1,-1,-1,-1,-1,-1,-1,-1],"loss_changes":[3.6838177E2,2.7539145E2,8.160318E1,3.9846252E1,1.3390808E1,6.0505524E1,2.8230896E0,1.6072083E0,4.149672E1,8.935188E0,2.9055939E0,4.8407852E1,9.695648E0,3.465622E0,0E0,0E0,6.4667854E0,1.642589E1,5.845051E-1,1.00648155E1,0E0,3.0278912E0,2.9717255E-1,3.351402E1,9.9092865E-1,9.827564E0,3.6460114E-1,1.1742438E0,9.4501877E-1,0E0,0E0,0E0,0E0,0E0,0E0,0E0,0E0,0E0,0E0,0E0,0E0,0E0,0E0,0E0,0E0,0E0,0E0,0E0,0E0,0E0,0E0,0E0,0E0],"parents":[2147483647,0,0,1,1,2,2,3,3,4,4,5,5,6,6,7,7,8,8,9,9,10,10,11,11,12,12,13,13,16,16,17,17,18,18,19,19,21,21,22,22,23,23,24,24,25,25,26,26,27,27,28,28],"right_children":[2,4,6,8,10,12,14,16,18,20,22,24,26,28,-1,-1,30,32,34,36,-1,38,40,42,44,46,48,50,52,-1,-1,-1,-1,-1,-1,-1,-1,-1,-1,-1,-1,-1,-1,-1,-1,-1,-1,-1,-1,-1,-1,-1,-1],"split_conditions":[5.8E0,1E0,6.5E0,5.7E0,3.6E1,1.28E2,6.6E0,1E0,1E0,1E0,1.46E2,1E0,3.4E1,3.5E1,-4.9726952E-2,4.633882E-2,5E1,4.3E1,2.7E1,1.48E2,-4.8816353E-2,4.6E1,4E1,4.5E1,2.3E1,1.36E2,2.11E1,1.28E2,1.32E2,4.3148328E-2,1.9025729E-3,4.076257E-2,-1.6267943E-3,-2.4321368E-2,-5.141929E-2,4.041066E-2,-1.8327082E-2,-1.4596821E-2,-4.0830616E-2,-3.5056602E-2,-4.7318045E-2,2.4868758E-2,-2.4434878E-2,-2.4589047E-2,-5.3776372E-2,8.687914E-3,-4.7616635E-2,-3.6503952E-2,-5.009645E-2,-2.1519815E-3,-3.616365E-2,-3.5785474E-2,-5.074899E-2],"split_indices":[2,7,2,2,0,3,2,4,4,4,3,4,0,0,0,0,0,0,0,3,0,0,0,0,0,3,1,3,3,0,0,0,0,0,0,0,0,0,0,0,0,0,0,0,0,0,0,0,0,0,0,0,0],"split_type":[0,0,0,0,0,0,0,0,0,0,0,0,0,0,0,0,0,0,0,0,0,0,0,0,0,0,0,0,0,0,0,0,0,0,0,0,0,0,0,0,0,0,0,0,0,0,0,0,0,0,0,0,0],"sum_hessian":[2.820327E3,1.5449016E3,1.2754254E3,1.2067068E3,3.3819482E2,6.8215625E2,5.9326917E2,9.612969E2,2.4540987E2,7.3593575E1,2.6460126E2,4.4655948E2,2.3559674E2,1.3888383E2,4.5438535E2,7.942901E2,1.6700677E2,2.0123201E2,4.4177856E1,5.6233055E1,1.736052E1,9.0180016E1,1.7442123E2,3.7871405E2,6.7845436E1,6.0435863E1,1.7516087E2,2.325312E1,1.15630714E2,1.4556017E2,2.1446604E1,1.3440797E2,6.682404E1,7.451985E0,3.672587E1,2.4312426E1,3.1920631E1,4.03324E1,4.984761E1,2.6862595E1,1.4755864E2,2.917665E2,8.694755E1,9.079921E0,5.8765514E1,3.4853558E1,2.5582308E1,2.5106817E1,1.5005405E2,1.7168669E1,6.0844507E0,6.723884E1,4.8391876E1],"tree_param":{"num_deleted":"0","num_feature":"9","num_nodes":"53","size_leaf_vector":"1"}},{"base_weights":[1.0399072E-3,-4.2609483E-2,1.07357025E-1,-1.1579387E-1,1.881809E-1,-2.7203178E-1,3.559463E-1,9.152916E-2,3.380511E-1,-3.9083484E-1,6.148213E-1,4.0275142E-1,-3.1705332E-1,1.6150181E-1,-2.0989703E-1,2.3384407E-2,4.6388552E-1,-3.327942E-2,2.2262901E-2,3.4996187E-3,4.790095E-2,9.064323E-3,4.351571E-2,1.1121637E-2,-3.939051E-2,4.8028718E-4,2.4967326E-2,4.3878082E-2,-3.3724163E-2,-8.730904E-3,4.114226E-2,3.6018167E-2,7.2719306E-3],"categories":[],"categories_nodes":[],"categories_segments":[],"categories_sizes":[],"default_left":[0,0,0,0,0,0,0,0,0,0,0,0,0,0,0,0,0,0,0,0,0,0,0,0,0,0,0,0,0,0,0,0,0],"id":41,"left_children":[1,-1,3,5,7,9,11,13,15,17,19,21,23,25,27,29,31,-1,-1,-1,-1,-1,-1,-1,-1,-1,-1,-1,-1,-1,-1,-1,-1],"loss_changes":[1.7438396E2,0E0,4.1334938E1,4.503161E1,2.4332268E1,4.8553745E1,4.9193096E0,2.1629261E1,2.6084854E1,2.443481E1,2.1068745E0,8.453321E0,1.3113338E0,2.5095192E1,4.4283752E1,1.5898199E1,8.53154E0,0E0,0E0,0E0,0E0,0E0,0E0,0E0,0E0,0E0,0E0,0E0,0E0,0E0,0E0,0E0,0E0],"parents":[2147483647,0,0,2,2,3,3,4,4,5,5,6,6,7,7,8,8,9,9,10,10,11,11,12,12,13,13,14,14,15,15,16,16],"right_children":[2,-1,4,6,8,10,12,14,16,18,20,22,24,26,28,30,32,-1,-1,-1,-1,-1,-1,-1,-1,-1,-1,-1,-1,-1,-1,-1,-1],"split_conditions":[1E0,-4.2609483E-2,3.4E1,6.2E0,1E0,3E0,1.56E2,3E0,1.18E2,1.4E2,1.17E2,1E0,6.8E0,5.7E0,1E0,4.9E1,1.59E2,-3.327942E-2,2.2262901E-2,3.4996187E-3,4.790095E-2,9.064323E-3,4.351571E-2,1.1121637E-2,-3.939051E-2,4.8028718E-4,2.4967326E-2,4.3878082E-2,-3.3724163E-2,-8.730904E-3,4.114226E-2,3.6018167E-2,7.2719306E-3],"split_indices":[8,0,0,2,6,8,3,8,3,3,3,5,2,2,5,0,3,0,0,0,0,0,0,0,0,0,0,0,0,0,0,0,0],"split_type":[0,0,0,0,0,0,0,0,0,0,0,0,0,0,0,0,0,0,0,0,0,0,0,0,0,0,0,0,0,0,0,0,0],"sum_hessian":[2.6880015E3,3.983976E2,2.2896038E3,6.0866785E2,1.6809359E3,4.5755225E2,1.5111562E2,1.02288513E3,6.580508E2,4.039926E2,5.355964E1,1.4166481E2,9.450811E0,8.3054724E2,1.9233786E2,1.883188E2,4.69732E2,3.6122E2,4.2772614E1,6.0549574E0,4.750468E1,6.371682E1,7.794799E1,3.3377845E0,6.1130266E0,4.6396973E2,3.6657755E2,4.6849243E1,1.4548862E2,1.4978746E2,3.8531334E1,4.1140878E2,5.832321E1],"tree_param":{"num_deleted":"0","num_feature":"9","num_nodes":"33","size_leaf_vector":"1"}},{"base_weights":[-3.5867973E-3,-3.8860986E-1,6.2112194E-1,-5.204513E-1,2.0834482E-1,1.3556993E-1,9.0847784E-1,-3.7066445E-2,-2.556539E-1,-4.717187E-1,5.1083463E-1,-2.3442703E-1,9.226829E-1,1.020268E0,6.080579E-1,-3.4560192E-2,1.8756737E-1,-3.6594633E-2,-4.300686E-3,-2.0454934E-1,9.050277E-1,-3.324998E-1,1.9409192E-1,3.6202103E-1,1.1457882E0,7.194581E-2,3.4102987E-2,6.761629E-1,-1.3897276E-2,-1.3794295E-2,3.885464E-2,-2.6720788E-2,5.499746E-2,-3.3968337E-2,8.372335E-2,-2.572155E-2,6.6771894E-3,-2.9698925E-2,2.4413267E-2,6.522262E-3,6.1778344E-2,1.3727313E-2,8.7344326E-2,5.316923E-2,7.394E-4],"categories":[],"categories_nodes":[],"categories_segments":[],"categories_sizes":[],"default_left":[0,0,0,0,0,0,0,0,0,0,0,0,0,0,0,0,0,0,0,0,0,0,0,0,0,0,0,0,0,0,0,0,0,0,0,0,0,