{"learner":{"attributes":{"scikit_learn":"{\"_estimator_type\": \"classifier\"}"},"feature_names":["age","bmi","hba1c","bp_systolic","smoker","has_diabetes","has_hypertension","chronic_count","bmi_age_interaction","metabolic_risk_score"],"feature_types":["float","float","float","float","float","float","float","float","float","float"],"gradient_booster":{"model":{"cats":{"enc":[],"feature_segments":[],"sorted_idx":[]},"gbtree_model_param":{"num_parallel_tree":"1","num_trees":"1200"},"iteration_indptr":[0,4,8,12,16,20,24,28,32,36,40,44,48,52,56,60,64,68,72,76,80,84,88,92,96,100,104,108,112,116,120,124,128,132,136,140,144,148,152,156,160,164,168,172,176,180,184,188,192,196,200,204,208,212,216,220,224,228,232,236,240,244,248,252,256,260,264,268,272,276,280,284,288,292,296,300,304,308,312,316,320,324,328,332,336,340,344,348,352,356,360,364,368,372,376,380,384,388,392,396,400,404,408,412,416,420,424,428,432,436,440,444,448,452,456,460,464,468,472,476,480,484,488,492,496,500,504,508,512,516,520,524,528,532,536,540,544,548,552,556,560,564,568,572,576,580,584,588,592,596,600,604,608,612,616,620,624,628,632,636,640,644,648,652,656,660,664,668,672,676,680,684,688,692,696,700,704,708,712,716,720,724,728,732,736,740,744,748,752,756,760,764,768,772,776,780,784,788,792,796,800,804,808,812,816,820,824,828,832,836,840,844,848,852,856,860,864,868,872,876,880,884,888,892,896,900,904,908,912,916,920,924,928,932,936,940,944,948,952,956,960,964,968,972,976,980,984,988,992,996,1000,1004,1008,1012,1016,1020,1024,1028,1032,1036,1040,1044,1048,1052,1056,1060,1064,1068,1072,1076,1080,1084,1088,1092,1096,1100,1104,1108,1112,1116,1120,1124,1128,1132,1136,1140,1144,1148,1152,1156,1160,1164,1168,1172,1176,1180,1184,1188,1192,1196,1200],"tree_info":[0,1,2,3,0,1,2,3,0,1,2,3,0,1,2,3,0,1,2,3,0,1,2,3,0,1,2,3,0,1,2,3,0,1,2,3,0,1,2,3,0,1,2,3,0,1,2,3,0,1,2,3,0,1,2,3,0,1,2,3,0,1,2,3,0,1,2,3,0,1,2,3,0,1,2,3,0,1,2,3,0,1,2,3,0,1,2,3,0,1,2,3,0,1,2,3,0,1,2,3,0,1,2,3,0,1,2,3,0,1,2,3,0,1,2,3,0,1,2,3,0,1,2,3,0,1,2,3,0,1,2,3,0,1,2,3,0,1,2,3,0,1,2,3,0,1,2,3,0,1,2,3,0,1,2,3,0,1,2,3,0,1,2,3,0,1,2,3,0,1,2,3,0,1,2,3,0,1,2,3,0,1,2,3,0,1,2,3,0,1,2,3,0,1,2,3,0,1,2,3,0,1,2,3,0,1,2,3,0,1,2,3,0,1,2,3,0,1,2,3,0,1,2,3,0,1,2,3,0,1,2,3,0,1,2,3,0,1,2,3,0,1,2,3,0,1,2,3,0,1,2,3,0,1,2,3,0,1,2,3,0,1,2,3,0,1,2,3,0,1,2,3,0,1,2,3,0,1,2,3,0,1,2,3,0,1,2,3,0,1,2,3,0,1,2,3,0,1,2,3,0,1,2,3,0,1,2,3,0,1,2,3,0,1,2,3,0,1,2,3,0,1,2,3,0,1,2,3,0,1,2,3,0,1,2,3,0,1,2,3,0,1,2,3,0,1,2,3,0,1,2,3,0,1,2,3,0,1,2,3,0,1,2,3,0,1,2,3,0,1,2,3,0,1,2,3,0,1,2,3,0,1,2,3,0,1,2,3,0,1,2,3,0,1,2,3,0,1,2,3,0,1,2,3,0,1,2,3,0,1,2,3,0,1,2,3,0,1,2,3,0,1,2,3,0,1,2,3,0,1,2,3,0,1,2,3,0,1,2,3,0,1,2,3,0,1,2,3,0,1,2,3,0,1,2,3,0,1,2,3,0,1,2,3,0,1,2,3,0,1,2,3,0,1,2,3,0,1,2,3,0,1,2,3,0,1,2,3,0,1,2,3,0,1,2,3,0,1,2,3,0,1,2,3,0,1,2,3,0,1,2,3,0,1,2,3,0,1,2,3,0,1,2,3,0,1,2,3,0,1,2,3,0,1,2,3,0,1,2,3,0,1,2,3,0,1,2,3,0,1,2,3,0,1,2,3,0,1,2,3,0,1,2,3,0,1,2,3,0,1,2,3,0,1,2,3,0,1,2,3,0,1,2,3,0,1,2,3,0,1,2,3,0,1,2,3,0,1,2,3,0,1,2,3,0,1,2,3,0,1,2,3,0,1,2,3,0,1,2,3,0,1,2,3,0,1,2,3,0,1,2,3,0,1,2,3,0,1,2,3,0,1,2,3,0,1,2,3,0,1,2,3,0,1,2,3,0,1,2,3,0,1,2,3,0,1,2,3,0,1,2,3,0,1,2,3,0,1,2,3,0,1,2,3,0,1,2,3,0,1,2,3,0,1,2,3,0,1,2,3,0,1,2,3,0,1,2,3,0,1,2,3,0,1,2,3,0,1,2,3,0,1,2,3,0,1,2,3,0,1,2,3,0,1,2,3,0,1,2,3,0,1,2,3,0,1,2,3,0,1,2,3,0,1,2,3,0,1,2,3,0,1,2,3,0,1,2,3,0,1,2,3,0,1,2,3,0,1,2,3,0,1,2,3,0,1,2,3,0,1,2,3,0,1,2,3,0,1,2,3,0,1,2,3,0,1,2,3,0,1,2,3,0,1,2,3,0,1,2,3,0,1,2,3,0,1,2,3,0,1,2,3,0,1,2,3,0,1,2,3,0,1,2,3,0,1,2,3,0,1,2,3,0,1,2,3,0,1,2,3,0,1,2,3,0,1,2,3,0,1,2,3,0,1,2,3,0,1,2,3,0,1,2,3,0,1,2,3,0,1,2,3,0,1,2,3,0,1,2,3,0,1,2,3,0,1,2,3,0,1,2,3,0,1,2,3,0,1,2,3,0,1,2,3,0,1,2,3,0,1,2,3,0,1,2,3,0,1,2,3,0,1,2,3,0,1,2,3,0,1,2,3,0,1,2,3,0,1,2,3,0,1,2,3,0,1,2,3,0,1,2,3,0,1,2,3,0,1,2,3,0,1,2,3,0,1,2,3,0,1,2,3,0,1,2,3,0,1,2,3,0,1,2,3,0,1,2,3,0,1,2,3,0,1,2,3,0,1,2,3,0,1,2,3,0,1,2,3,0,1,2,3,0,1,2,3,0,1,2,3,0,1,2,3,0,1,2,3,0,1,2,3,0,1,2,3,0,1,2,3,0,1,2,3,0,1,2,3,0,1,2,3,0,1,2,3,0,1,2,3,0,1,2,3,0,1,2,3,0,1,2,3,0,1,2,3,0,1,2,3,0,1,2,3,0,1,2,3,0,1,2,3,0,1,2,3,0,1,2,3,0,1,2,3,0,1,2,3,0,1,2,3,0,1,2,3,0,1,2,3,0,1,2,3,0,1,2,3,0,1,2,3,0,1,2,3,0,1,2,3,0,1,2,3,0,1,2,3,0,1,2,3,0,1,2,3,0,1,2,3,0,1,2,3,0,1,2,3,0,1,2,3,0,1,2,3,0,1,2,3],"trees":[{"base_weights":[2.0028726E-4,-5.0824744E-1,1.3863823E0,-6.452755E-1,1.0662824E-1,2.2276689E-1,1.8224163E0,-6.6021645E-1,-5.335883E-1,-5.8425784E-1,1.156013E0,-9.680833E-2,1.3329225E0,1.3258787E0,1.9272223E0,-3.3070933E-2,-4.0723735E-1,-3.2828927E-2,-2.838977E-1,-6.478822E-1,9.314836E-1,-2.5444007E-1,1.3810486E0,-4.9647453E-1,1.0812035E0,2.3940317E-1,1.795561E0,4.804626E-1,1.8555641E0,1.7311894E0,9.914209E-2,-3.0075064E-2,1.0539718E-2,-6.3435924E-1,2.802729E-1,-3.3015694E-2,-0E0,-2.611186E-2,7.616147E-2,2.8614396E-1,-3.155504E-2,-2.9469354E-2,1.4675702E0,-5.612022E-1,5.5408373E-2,2.0299183E-1,1.6725874E0,-2.9548797E-1,8.4643535E-2,1.3287444E0,9.6047364E-2,-2.7113527E-1,1.6904082E0,1.1277149E0,9.521737E-2,1.4020779E0,9.507897E-2,-3.277608E-2,-5.46288E-3,-1.6402707E-2,5.0619096E-2,-2.5473952E-2,3.142428E-2,-1.3777924E-2,5.652835E-2,5.3148694E-2,8.963426E-2,-2.5639718E-3,-3.164921E-2,5.3357583E-2,-2.5556285E-2,-8.171036E-3,6.910076E-2,3.5679754E-2,9.670948E-2,-2.0833476E-2,9.24959E-3,8.491845E-2,1.5741132E-2,1.7149756E-2,-2.9163837E-2,2.519002E-2,9.25679E-2,9.24959E-3,8.148217E-2,9.4692245E-2,4.6693627E-2],"categories":[],"categories_nodes":[],"categories_segments":[],"categories_sizes":[],"default_left":[0,0,0,0,0,0,0,0,0,0,0,0,0,0,0,0,0,0,0,0,0,0,0,0,0,0,0,0,0,0,0,0,0,0,0,0,0,0,0,0,0,0,0,0,0,0,0,0,0,0,0,0,0,0,0,0,0,0,0,0,0,0,0,0,0,0,0,0,0,0,0,0,0,0,0,0,0,0,0,0,0,0,0,0,0,0,0],"id":0,"left_children":[1,3,5,7,9,11,13,15,17,19,21,23,25,27,29,-1,31,-1,33,35,37,39,41,43,45,47,49,51,53,55,-1,-1,-1,57,59,-1,61,-1,-1,63,-1,-1,65,67,69,71,73,75,-1,77,-1,79,81,83,-1,85,-1,-1,-1,-1,-1,-1,-1,-1,-1,-1,-1,-1,-1,-1,-1,-1,-1,-1,-1,-1,-1,-1,-1,-1,-1,-1,-1,-1,-1,-1,-1],"loss_changes":[3.3846926E3,2.9614728E2,6.532888E2,4.323242E0,4.654735E2,1.25312164E2,4.5895996E1,3.9294434E-1,1.0315582E1,3.7910263E1,8.13624E1,1.2974977E2,3.929718E1,7.35361E1,4.6083984E0,0E0,1.9617648E0,0E0,2.3128693E1,3.0352936E0,1.4610089E1,7.515372E0,3.846353E1,7.4320107E0,3.572805E1,1.9829943E1,3.562317E-1,6.029738E1,1.1738586E0,7.0303345E0,0E0,0E0,0E0,6.509361E-1,2.0438864E1,0E0,2.863359E0,0E0,0E0,7.654932E0,0E0,0E0,2.5577484E1,6.6493607E0,1.3410484E1,1.3004501E1,8.768753E0,1.1974645E0,0E0,4.9266567E0,0E0,8.1416645E0,3.6717224E0,3.7723665E0,0E0,1.2914963E1,0E0,0E0,0E0,0E0,0E0,0E0,0E0,0E0,0E0,0E0,0E0,0E0,0E0,0E0,0E0,0E0,0E0,0E0,0E0,0E0,0E0,0E0,0E0,0E0,0E0,0E0,0E0,0E0,0E0,0E0,0E0],"parents":[2147483647,0,0,1,1,2,2,3,3,4,4,5,5,6,6,7,7,8,8,9,9,10,10,11,11,12,12,13,13,14,14,16,16,18,18,19,19,20,20,21,21,22,22,23,23,24,24,25,25,26,26,27,27,28,28,29,29,33,33,34,34,36,36,39,39,42,42,43,43,44,44,45,45,46,46,47,47,49,49,51,51,52,52,53,53,55,55],"right_children":[2,4,6,8,10,12,14,16,18,20,22,24,26,28,30,-1,32,-1,34,36,38,40,42,44,46,48,50,52,54,56,-1,-1,-1,58,60,-1,62,-1,-1,64,-1,-1,66,68,70,72,74,76,-1,78,-1,80,82,84,-1,86,-1,-1,-1,-1,-1,-1,-1,-1,-1,-1,-1,-1,-1,-1,-1,-1,-1,-1,-1,-1,-1,-1,-1,-1,-1,-1,-1,-1,-1,-1,-1],"split_conditions":[6.5E0,1.6E2,1.3E2,1.51E2,1E0,1.476E1,1.071E1,2.331E1,1.7E0,2.27E1,1.066E1,1E0,7.4E0,1E0,1.4E2,-3.3070933E-2,1.4E2,-3.2828927E-2,1E0,3.69E0,5.6E0,2.01E1,1E0,1.373E1,9.18E0,1E0,1.569E1,1E0,6.34E0,1.361E1,9.914209E-2,-3.0075064E-2,1.0539718E-2,2.331E1,1.549E1,-3.3015694E-2,2.91E1,-2.611186E-2,7.616147E-2,9.79E0,-3.155504E-2,-2.9469354E-2,1.493E1,1.7E1,2.21E1,2.48E1,7.5E0,2.93E1,8.4643535E-2,2.73E1,9.6047364E-2,1.73E1,6.9E0,4.88E0,9.521737E-2,2.05E1,9.507897E-2,-3.277608E-2,-5.46288E-3,-1.6402707E-2,5.0619096E-2,-2.5473952E-2,3.142428E-2,-1.3777924E-2,5.652835E-2,5.3148694E-2,8.963426E-2,-2.5639718E-3,-3.164921E-2,5.3357583E-2,-2.5556285E-2,-8.171036E-3,6.910076E-2,3.5679754E-2,9.670948E-2,-2.0833476E-2,9.24959E-3,8.491845E-2,1.5741132E-2,1.7149756E-2,-2.9163837E-2,2.519002E-2,9.25679E-2,9.24959E-3,8.148217E-2,9.4692245E-2,4.6693627E-2],"split_indices":[2,3,3,3,4,8,8,8,9,8,8,4,2,6,3,0,3,0,4,9,2,1,6,8,8,4,8,4,8,8,0,0,0,8,8,0,1,0,0,8,0,0,8,1,1,1,2,1,0,1,0,1,2,9,0,1,0,0,0,0,0,0,0,0,0,0,0,0,0,0,0,0,0,0,0,0,0,0,0,0,0,0,0,0,0,0,0],"split_type":[0,0,0,0,0,0,0,0,0,0,0,0,0,0,0,0,0,0,0,0,0,0,0,0,0,0,0,0,0,0,0,0,0,0,0,0,0,0,0,0,0,0,0,0,0,0,0,0,0,0,0,0,0,0,0,0,0,0,0,0,0,0,0,0,0,0,0,0,0,0,0,0,0,0,0,0,0,0,0,0,0,0,0,0,0,0,0],"sum_hessian":[4.8002134E3,3.5124263E3,1.287787E3,2.872409E3,6.400173E2,3.5150058E2,9.362864E2,2.5283684E3,3.440405E2,3.8614075E2,2.538765E2,2.7357156E2,7.792902E1,1.6572733E2,7.705591E2,2.5144104E3,1.3958205E1,2.2914188E2,1.1489862E2,3.7119797E2,1.4942777E1,3.485309E1,2.190234E2,2.0476425E2,6.8807304E1,2.3683334E1,5.424569E1,6.464505E1,1.0108228E2,1.7780444E2,5.9275464E2,1.0763499E1,3.194706E0,7.0905266E1,4.3993355E1,3.642767E2,6.921278E0,4.3079815E0,1.0634795E1,1.4301862E1,2.0551228E1,8.919677E0,2.1010373E2,1.8341652E2,2.1347734E1,2.829752E1,4.0509785E1,1.7844334E1,5.839E0,1.4109688E1,4.0136E1,4.0302853E1,2.4342192E1,7.9929914E0,9.3089294E1,6.4000946E1,1.1380349E2,6.773658E1,3.168689E0,2.4254782E1,1.9738571E1,3.8771834E0,3.0440946E0,8.922167E0,5.379695E0,9.5648766E1,1.1445497E2,2.3016912E1,1.603996E2,7.409091E0,1.3938643E1,2.2180824E1,6.116697E0,9.563082E0,3.0946701E1,1.4522543E1,3.321791E0,9.773199E0,4.336489E0,1.3440266E1,2.6862589E1,3.4748929E0,2.08673E1,3.321791E0,4.6712003E0,2.96258E1,3.4375145E1],"tree_param":{"num_deleted":"0","num_feature":"10","num_nodes":"87","size_leaf_vector":"1"}},{"base_weights":[-4.192437E-3,-3.330082E-2,2.1233375E-1,3.8631803E-1,-4.3412274E-1,1.5394445E-1,1.3985182E0,4.993862E-1,-6.399437E-1,-1.2264855E-1,5.5628836E-1,1.5541706E0,-3.2334052E-2,9.696713E-2,2.2773039E-2,-2.7863687E-1,-6.521976E-1,-4.7412476E-1,1.6929837E0,1.3951076E0,-2.2355492E-1,5.5642265E-1,1.7898428E0,5.4955125E-1,-5.607022E-1,5.6137063E-2,-5.685916E-1,-5.572511E-1,-3.326073E-2,-3.138234E-2,-5.3318576E-3,8.813372E-2,2.5970152E-2,4.947731E-2,9.21141E-2,2.3098871E-2,-2.7688509E-2,-1.2107542E-2,7.5552024E-2,9.429451E-2,3.161652E-2,8.506755E-2,1.8758189E-2,-3.0822738E-3,-3.1187614E-2,-3.0964091E-2,-1.1317591E-2,-8.905153E-3,-3.272923E-2],"categories":[],"categories_nodes":[],"categories_segments":[],"categories_sizes":[],"default_left":[0,0,0,0,0,0,0,0,0,0,0,0,0,0,0,0,0,0,0,0,0,0,0,0,0,0,0,0,0,0,0,0,0,0,0,0,0,0,0,0,0,0,0,0,0,0,0,0,0],"id":1,"left_children":[1,-1,3,5,7,9,11,13,15,17,19,21,-1,-1,23,25,27,29,31,33,35,37,39,41,43,-1,45,47,-1,-1,-1,-1,-1,-1,-1,-1,-1,-1,-1,-1,-1,-1,-1,-1,-1,-1,-1,-1,-1],"loss_changes":[6.894293E2,0E0,4.0784393E2,6.71546E2,1.4808763E2,2.5879684E2,1.7082385E2,9.542738E1,2.5171814E0,8.801825E2,6.201138E2,1.1535205E2,0E0,0E0,3.2824387E1,9.80662E0,2.5961304E-1,6.50502E1,1.71521E1,8.0701355E1,1.11576355E2,7.387897E1,4.3085205E1,1.0441137E1,1.4852037E0,0E0,1.1408949E-1,2.7710304E0,0E0,0E0,0E0,0E0,0E0,0E0,0E0,0E0,0E0,0E0,0E0,0E0,0E0,0E0,0E0,0E0,0E0,0E0,0E0,0E0,0E0],"parents":[2147483647,0,0,2,2,3,3,4,4,5,5,6,6,7,7,8,8,9,9,10,10,11,11,14,14,15,15,16,16,17,17,18,18,19,19,20,20,21,21,22,22,23,23,24,24,26,26,27,27],"right_children":[2,-1,4,6,8,10,12,14,16,18,20,22,-1,-1,24,26,28,30,32,34,36,38,40,42,44,-1,46,48,-1,-1,-1,-1,-1,-1,-1,-1,-1,-1,-1,-1,-1,-1,-1,-1,-1,-1,-1,-1,-1],"split_conditions":[1E0,-3.330082E-2,3E0,1.59E2,5.7E0,2E0,6.5E0,1.6E2,1.69E0,6.5E0,6.5E0,2E0,-3.2334052E-2,9.696713E-2,1.699E1,1.55E2,6.5E0,1.75E0,1.455E1,1.2E0,1.3E2,5.7E0,3.04E1,1.144E1,1.755E1,5.6137063E-2,2.31E1,1.6E2,-3.326073E-2,-3.138234E-2,-5.3318576E-3,8.813372E-2,2.5970152E-2,4.947731E-2,9.21141E-2,2.3098871E-2,-2.7688509E-2,-1.2107542E-2,7.5552024E-2,9.429451E-2,3.161652E-2,8.506755E-2,1.8758189E-2,-3.0822738E-3,-3.1187614E-2,-3.0964091E-2,-1.1317591E-2,-8.905153E-3,-3.272923E-2],"split_indices":[7,0,7,3,2,7,2,3,9,2,2,7,0,0,8,3,2,9,8,9,3,2,1,8,8,0,1,3,0,0,0,0,0,0,0,0,0,0,0,0,0,0,0,0,0,0,0,0,0],"split_type":[0,0,0,0,0,0,0,0,0,0,0,0,0,0,0,0,0,0,0,0,0,0,0,0,0,0,0,0,0,0,0,0,0,0,0,0,0,0,0,0,0,0,0,0,0,0,0,0,0],"sum_hessian":[4.808713E3,1.1850203E3,3.6236926E3,2.855684E3,7.680084E2,2.3235186E3,5.3216565E2,1.3839598E2,6.296124E2,1.3772019E3,9.463165E2,4.947975E2,3.736818E1,3.360098E1,1.04795E2,2.1699562E1,6.079129E2,1.1545033E3,2.2269868E2,4.5560043E2,4.907161E2,9.526531E1,3.9953217E2,5.5193893E1,4.960111E1,3.1685686E0,1.8530994E1,7.950346E1,5.284094E2,8.136231E2,3.4088016E2,2.0966121E2,1.3037478E1,2.4071883E2,2.148816E2,1.5930156E2,3.3141455E2,5.2221584E1,4.3043724E1,3.6825934E2,3.1272844E1,6.030945E0,4.916295E1,5.963368E0,4.3637737E1,1.5180822E1,3.3501709E0,1.702854E1,6.2474926E1],"tree_param":{"num_deleted":"0","num_feature":"10","num_nodes":"49","size_leaf_vector":"1"}},{"base_weights":[-3.3205422E-3,1.6727214E0,-5.3871757E-1,1.8347584E0,4.832436E-1,-1.5793806E-1,-6.554893E-1,1.8984846E0,4.1899547E-1,1.2135243E0,-3.264461E-2,7.6066947E-1,-3.326373E-2,-3.3424154E-1,-6.5913016E-1,1.9762229E0,1.4256512E0,1.1473964E0,-3.1339016E-2,1.5777947E0,-3.077262E-2,1.7419097E0,2.4753861E-2,5.607417E-2,-3.1355686E-2,-5.8792645E-1,-3.3301916E-2,1.9867084E0,9.9258935E-1,1.9248967E0,7.304552E-1,8.935813E-2,-0E0,1.7719984E0,-2.2264486E-2,1.7983472E0,-7.841895E-3,4.4431037E-1,-3.2762434E-2,-2.8327553E-2,6.230479E-1,-4.447514E-1,-3.309991E-2,9.948022E-2,4.7407575E-2,8.27588E-2,5.7117227E-3,9.8632805E-2,4.9689107E-2,8.5746154E-2,-3.187054E-2,2.0721834E-2,-2.603423E-2,9.766818E-2,6.581962E-2,9.12855E-2,2.8743153E-2,-2.650941E-2,6.625246E-2,6.2050182E-2,-7.566535E-3,-3.268778E-2,-1.6128471E-3],"categories":[],"categories_nodes":[],"categories_segments":[],"categories_sizes":[],"default_left":[0,0,0,0,0,0,0,0,0,0,0,0,0,0,0,0,0,0,0,0,0,0,0,0,0,0,0,0,0,0,0,0,0,0,0,0,0,0,0,0,0,0,0,0,0,0,0,0,0,0,0,0,0,0,0,0,0,0,0,0,0,0,0],"id":2,"left_children":[1,3,5,7,9,11,13,15,17,19,-1,21,-1,23,25,27,29,31,-1,33,-1,35,37,39,-1,41,-1,43,45,47,49,-1,51,53,-1,55,-1,57,-1,-1,59,61,-1,-1,-1,-1,-1,-1,-1,-1,-1,-1,-1,-1,-1,-1,-1,-1,-1,-1,-1,-1,-1],"loss_changes":[4.306908E3,2.228418E2,1.6156445E2,9.120044E1,1.17624435E2,3.9908878E2,2.9360352E0,3.2786133E1,3.5340584E1,5.841648E1,0E0,2.1980168E2,0E0,3.9250882E0,8.3618164E-1,6.362793E0,4.7557343E1,2.0059917E1,0E0,2.9252396E1,0E0,1.443158E1,5.0249985E1,5.70502E0,0E0,2.2790375E0,0E0,3.0737305E-1,5.9936476E0,1.3832397E0,8.331875E1,0E0,2.528626E0,2.5584564E0,0E0,2.9578247E0,0E0,9.4356995E1,0E0,0E0,4.3581114E0,7.6524525E0,0E0,0E0,0E0,0E0,0E0,0E0,0E0,0E0,0E0,0E0,0E0,0E0,0E0,0E0,0E0,0E0,0E0,0E0,0E0,0E0,0E0],"parents":[2147483647,0,0,1,1,2,2,3,3,4,4,5,5,6,6,7,7,8,8,9,9,11,11,13,13,14,14,15,15,16,16,17,17,19,19,21,21,22,22,23,23,25,25,27,27,28,28,29,29,30,30,32,32,33,33,35,35,37,37,40,40,41,41],"right_children":[2,4,6,8,10,12,14,16,18,20,-1,22,-1,24,26,28,30,32,-1,34,-1,36,38,40,-1,42,-1,44,46,48,50,-1,52,54,-1,56,-1,58,-1,-1,60,62,-1,-1,-1,-1,-1,-1,-1,-1,-1,-1,-1,-1,-1,-1,-1,-1,-1,-1,-1,-1,-1],"split_conditions":[1E0,5E1,1.3E2,1.4E2,5.7E0,5.7E0,4.83E0,1.3E2,5.6E0,1.4E2,-3.264461E-2,4E1,-3.326373E-2,1.4E2,3.9E1,1.361E1,5.7E0,1.066E1,-3.1339016E-2,1.574E1,-3.077262E-2,1.066E1,6.5E1,1E0,-3.1355686E-2,1.4E2,-3.3301916E-2,3.98E0,5.6E0,1.277E1,4E1,8.935813E-2,1.197E1,1.3E2,-2.2264486E-2,1.49E0,-7.841895E-3,5.6E1,-3.2762434E-2,-2.8327553E-2,5.5E0,1E0,-3.309991E-2,9.948022E-2,4.7407575E-2,8.27588E-2,5.7117227E-3,9.8632805E-2,4.9689107E-2,8.5746154E-2,-3.187054E-2,2.0721834E-2,-2.603423E-2,9.766818E-2,6.581962E-2,9.12855E-2,2.8743153E-2,-2.650941E-2,6.625246E-2,6.2050182E-2,-7.566535E-3,-3.268778E-2,-1.6128471E-3],"split_indices":[7,0,3,3,2,2,8,3,2,3,0,0,0,3,0,8,2,8,0,8,0,8,0,6,0,3,0,9,2,8,0,0,8,3,0,9,0,0,0,0,2,6,0,0,0,0,0,0,0,0,0,0,0,0,0,0,0,0,0,0,0,0,0],"split_type":[0,0,0,0,0,0,0,0,0,0,0,0,0,0,0,0,0,0,0,0,0,0,0,0,0,0,0,0,0,0,0,0,0,0,0,0,0,0,0,0,0,0,0,0,0,0,0,0,0,0,0,0,0,0,0,0,0,0,0,0,0,0,0],"sum_hessian":[4.797719E3,1.1609849E3,3.6367341E3,1.0212396E3,1.3974524E2,8.542689E2,2.7824653E3,9.768577E2,4.4381847E1,8.5078636E1,5.46666E1,3.036925E2,5.505764E2,3.2529278E1,2.749936E3,8.3601764E2,1.4084009E2,2.6159647E1,1.82222E1,7.1108284E1,1.3970353E1,1.2950838E2,1.7418414E2,1.4145038E1,1.8384241E1,2.5209642E2,2.4978396E3,8.2609015E2,9.927523E0,8.0859344E1,5.998074E1,1.6475573E1,9.684074E0,6.503852E1,6.0697627E0,1.2587254E2,3.635832E0,1.0802635E2,6.615778E1,6.657948E0,7.48709E0,8.880242E1,1.6329399E2,8.227838E2,3.3063047E0,5.089789E0,4.8377333E0,7.574803E1,5.111309E0,3.4773365E1,2.5207376E1,5.432228E0,4.251847E0,4.4011703E1,2.1026817E1,1.22557625E2,3.3149128E0,5.1418514E1,5.6607838E1,3.9007995E0,3.5862906E0,5.8389908E1,3.0412516E1],"tree_param":{"num_deleted":"0","num_feature":"10","num_nodes":"63","size_leaf_vector":"1"}},{"base_weights":[8.2631735E-3,4.4767663E-1,-5.3370357E-1,-3.2595626E-1,1.0684718E0,-2.4045031E-1,-3.2748558E-2,-4.939211E-1,9.0904826E-1,1.3476127E0,-4.9981222E-1,4.7288254E-1,-3.975941E-1,-6.1577994E-1,-1.3003625E-1,1.4619996E-1,9.823086E-2,1.229661E0,1.6903268E0,2.0161892E-1,-6.005645E-1,1.4720895E0,5.1824336E-5,-8.752892E-2,-3.2080825E-2,-6.2270045E-1,9.275795E-3,-4.9136057E-1,4.013678E-1,-8.8579394E-2,8.0653034E-2,9.411203E-1,1.3278131E0,1.933234E0,1.1696035E0,7.568257E-2,-3.1230599E-2,-3.307606E-1,-3.3090487E-2,1.6546609E0,-8.938823E-4,2.1687543E-1,-3.6566257E-1,4.3489378E-2,-3.2453593E-2,-3.1565476E-2,-1.2137249E-2,-2.8660303E-2,5.221698E-3,1.3645552E-2,4.6926517E-2,-1.2281458E-2,1.1968419E-2,1.3777395E-2,9.431071E-2,7.284912E-2,5.0177433E-2,5.1757164E-2,9.864352E-2,7.6594286E-2,1.411849E-2,2.3936307E-2,-2.932394E-2,8.674075E-2,3.260263E-2,-1.1705806E-2,1.6973643E-2,-5.927076E-3,-2.4792252E-2,7.4019665E-3,-2.7613197E-2],"categories":[],"categories_nodes":[],"categories_segments":[],"categories_sizes":[],"default_left":[0,0,0,0,0,0,0,0,0,0,0,0,0,0,0,0,0,0,0,0,0,0,0,0,0,0,0,0,0,0,0,0,0,0,0,0,0,0,0,0,0,0,0,0,0,0,0,0,0,0,0,0,0,0,0,0,0,0,0,0,0,0,0,0,0,0,0,0,0,0,0],"id":3,"left_children":[1,3,5,7,9,11,-1,13,15,17,19,21,23,25,27,29,-1,31,33,35,37,39,41,43,-1,45,-1,47,49,51,-1,53,55,57,59,-1,-1,61,-1,63,-1,65,67,69,-1,-1,-1,-1,-1,-1,-1,-1,-1,-1,-1,-1,-1,-1,-1,-1,-1,-1,-1,-1,-1,-1,-1,-1,-1,-1,-1],"loss_changes":[1.143493E3,1.2739971E3,7.6206116E1,2.4544675E2,6.4495496E2,7.088568E1,0E0,4.598674E1,1.1360681E2,4.8139404E1,1.5921974E1,5.381186E1,3.9029984E1,4.4793396E0,5.061265E1,2.901476E1,0E0,2.4960083E1,3.7530945E1,3.2075638E1,2.910431E0,1.015406E1,6.2964764E0,1.6956589E1,0E0,2.2869873E0,0E0,7.7542267E0,6.984667E0,3.8076763E0,0E0,1.5062662E2,2.7353271E1,5.293701E0,3.265831E1,0E0,0E0,8.250328E0,0E0,1.2572403E0,0E0,2.8622437E0,8.2731843E-1,1.1669386E1,0E0,0E0,0E0,0E0,0E0,0E0,0E0,0E0,0E0,0E0,0E0,0E0,0E0,0E0,0E0,0E0,0E0,0E0,0E0,0E0,0E0,0E0,0E0,0E0,0E0,0E0,0E0],"parents":[2147483647,0,0,1,1,2,2,3,3,4,4,5,5,7,7,8,8,9,9,10,10,11,11,12,12,13,13,14,14,15,15,17,17,18,18,19,19,20,20,21,21,22,22,23,23,25,25,27,27,28,28,29,29,31,31,32,32,33,33,34,34,37,37,39,39,41,41,42,42,43,43],"right_children":[2,4,6,8,10,12,-1,14,16,18,20,22,24,26,28,30,-1,32,34,36,38,40,42,44,-1,46,-1,48,50,52,-1,54,56,58,60,-1,-1,62,-1,64,-1,66,68,70,-1,-1,-1,-1,-1,-1,-1,-1,-1,-1,-1,-1,-1,-1,-1,-1,-1,-1,-1,-1,-1,-1,-1,-1,-1,-1,-1],"split_conditions":[2E0,1E0,1.34E0,5E1,6.5E0,1E0,-3.2748558E-2,4E1,5.7E0,6.4E1,3.83E0,6.5E1,6.5E1,3.89E0,5.7E0,1.524E1,9.823086E-2,3.1E1,1.75E0,4E1,7.5E0,1.683E1,1.788E1,3E0,-3.2080825E-2,1.071E1,9.275795E-3,1.277E1,1.235E1,1.293E1,8.0653034E-2,5.7E0,1.266E1,6.5E1,1.982E1,7.568257E-2,-3.1230599E-2,7.59E0,-3.3090487E-2,5.6E0,-8.938823E-4,-8.8E-1,1.97E1,1.569E1,-3.2453593E-2,-3.1565476E-2,-1.2137249E-2,-2.8660303E-2,5.221698E-3,1.3645552E-2,4.6926517E-2,-1.2281458E-2,1.1968419E-2,1.3777395E-2,9.431071E-2,7.284912E-2,5.0177433E-2,5.1757164E-2,9.864352E-2,7.6594286E-2,1.411849E-2,2.3936307E-2,-2.932394E-2,8.674075E-2,3.260263E-2,-1.1705806E-2,1.6973643E-2,-5.927076E-3,-2.4792252E-2,7.4019665E-3,-2.7613197E-2],"split_indices":[7,7,9,0,2,6,0,0,2,0,9,0,0,9,2,8,0,0,9,0,2,8,8,7,0,8,0,8,8,8,0,2,8,0,8,0,0,8,0,2,0,9,8,8,0,0,0,0,0,0,0,0,0,0,0,0,0,0,0,0,0,0,0,0,0,0,0,0,0,0,0],"split_type":[0,0,0,0,0,0,0,0,0,0,0,0,0,0,0,0,0,0,0,0,0,0,0,0,0,0,0,0,0,0,0,0,0,0,0,0,0,0,0,0,0,0,0,0,0,0,0,0,0,0,0,0,0,0,0,0,0,0,0,0,0,0,0,0,0,0,0,0,0,0,0],"sum_hessian":[4.79965E3,2.6508022E3,2.1488474E3,1.1802689E3,1.4705333E3,6.297567E2,1.5190908E3,1.0395656E3,1.4070341E2,1.2485133E3,2.2202008E2,1.1320995E2,5.1654675E2,7.780446E2,2.6152094E2,8.2392494E1,5.831093E1,9.3246643E2,3.1604684E2,2.763477E1,1.9438531E2,3.5617214E1,7.7592735E1,2.282681E2,2.8827866E2,7.717271E2,6.317502E0,1.5582939E2,1.0569153E2,7.177581E1,1.0616684E1,2.396291E2,6.9283734E2,2.1353322E2,1.0251363E2,1.0403433E1,1.7231337E1,3.7448177E1,1.5693713E2,3.1690622E1,3.926592E0,4.913949E1,2.8453249E1,1.8568813E2,4.2579983E1,7.537244E2,1.8002663E1,1.371892E2,1.8640196E1,8.666155E1,1.9029978E1,4.89096E1,2.286621E1,1.4142758E2,9.820152E1,4.9275082E2,2.000865E2,1.0278549E1,2.0325467E2,7.2195076E1,3.0318552E1,8.686753E0,2.8761425E1,2.8576056E1,3.1145668E0,1.0134182E1,3.9005306E1,1.0741588E1,1.7711662E1,1.587484E2,2.6939716E1],"tree_param":{"num_deleted":"0","num_feature":"10","num_nodes":"71","size_leaf_vector":"1"}},{"base_weights":[-6.28667E-3,-5.0457543E-1,1.2842833E0,-6.331803E-1,1.1767756E0,-4.4268048E-1,1.6286063E0,-6.4254993E-1,4.7177607E-3,2.776526E-1,1.6069696E0,-5.860101E-1,5.5617666E-1,8.977985E-1,1.7795901E0,-3.281767E-2,-5.3862834E-1,-3.142732E-2,5.7339585E-1,-4.9691314E-1,1.4131213E0,4.4729227E-1,9.169708E-2,-6.394528E-1,2.4634194E-2,-3.109976E-1,1.4675177E0,-3.77521E-2,1.2012799E0,1.1097023E0,8.9433745E-2,-6.366766E-1,-7.5288706E-2,-2.5778955E-1,6.937283E-2,-3.27443E-2,5.8444645E-2,5.1809627E-1,8.864419E-2,-5.21671E-1,8.475843E-2,-3.2818772E-2,-2.7318546E-1,-4.6379745E-1,4.8466578E-2,-3.001369E-2,2.8897617E-2,2.8566912E-2,8.3466485E-2,-3.8163382E-1,8.184424E-2,-4.734345E-1,1.3423153E0,-9.1779E-3,7.792106E-2,-3.2821722E-2,-9.584731E-3,-2.8286133E-2,2.8719148E-2,2.751481E-2,-2.9409543E-2,-2.708146E-2,7.858752E-2,-3.0205045E-2,-4.8315837E-3,-2.673299E-2,4.5732823E-3,-2.867428E-2,-5.531916E-3,-2.1980831E-2,9.164617E-3,-2.9008944E-2,-5.6205913E-3,5.0383117E-2,9.059055E-2],"categories":[],"categories_nodes":[],"categories_segments":[],"categories_sizes":[],"default_left":[0,0,0,0,0,0,0,0,0,0,0,0,0,0,0,0,0,0,0,0,0,0,0,0,0,0,0,0,0,0,0,0,0,0,0,0,0,0,0,0,0,0,0,0,0,0,0,0,0,0,0,0,0,0,0,0,0,0,0,0,0,0,0,0,0,0,0,0,0,0,0,0,0,0,0],"id":4,"left_children":[1,3,5,7,9,11,13,15,17,19,21,23,25,27,29,-1,31,-1,33,35,37,39,-1,41,43,45,47,49,51,53,-1,55,57,59,-1,-1,-1,61,-1,63,-1,-1,65,67,-1,-1,-1,-1,-1,69,-1,71,73,-1,-1,-1,-1,-1,-1,-1,-1,-1,-1,-1,-1,-1,-1,-1,-1,-1,-1,-1,-1,-1,-1],"loss_changes":[3.0716643E3,7.458505E2,7.91989E2,1.9204712E1,9.419162E1,3.2099197E1,1.2056445E2,4.053833E0,1.7348818E1,7.17005E1,4.252289E1,6.4292145E0,2.2915682E1,5.4707855E1,3.3146973E0,0E0,1.6982681E1,0E0,1.7703583E1,1.3507316E1,9.480415E0,3.5450447E1,0E0,8.382187E-1,8.102511E0,4.272348E0,1.3571777E0,2.8109451E1,3.501111E1,9.169249E0,0E0,2.518219E0,2.169074E1,3.90097E0,0E0,0E0,0E0,1.3187624E1,0E0,4.5864534E-1,0E0,0E0,1.035841E0,3.123541E-1,0E0,0E0,0E0,0E0,0E0,1.437324E0,0E0,3.264327E-1,1.8979477E1,0E0,0E0,0E0,0E0,0E0,0E0,0E0,0E0,0E0,0E0,0E0,0E0,0E0,0E0,0E0,0E0,0E0,0E0,0E0,0E0,0E0,0E0],"parents":[2147483647,0,0,1,1,2,2,3,3,4,4,5,5,6,6,7,7,8,8,9,9,10,10,11,11,12,12,13,13,14,14,16,16,18,18,19,19,20,20,21,21,23,23,24,24,25,25,26,26,27,27,28,28,29,29,31,31,32,32,33,33,37,37,39,39,42,42,43,43,49,49,51,51,52,52],"right_children":[2,4,6,8,10,12,14,16,18,20,22,24,26,28,30,-1,32,-1,34,36,38,40,-1,42,44,46,48,50,52,54,-1,56,58,60,-1,-1,-1,62,-1,64,-1,-1,66,68,-1,-1,-1,-1,-1,70,-1,72,74,-1,-1,-1,-1,-1,-1,-1,-1,-1,-1,-1,-1,-1,-1,-1,-1,-1,-1,-1,-1,-1,-1],"split_conditions":[6.5E0,3E0,2E0,2.27E1,6.5E1,1.327E1,1.3E2,1.62E2,5.7E0,5.7E0,1.6E2,1.4E2,1.3E2,7.5E0,3.5E1,-3.281767E-2,1E0,-3.142732E-2,1.57E2,3.05E1,1.6E2,5.7E0,9.169708E-2,1.256E1,1.144E1,1.58E1,7.9E0,3E0,6.89E0,7.2E0,8.9433745E-2,3.01E1,5.7E0,7.3E1,6.937283E-2,-3.27443E-2,5.8444645E-2,2.4E1,8.864419E-2,7.6E1,8.475843E-2,-3.2818772E-2,1.29E2,1.49E2,4.8466578E-2,-3.001369E-2,2.8897617E-2,2.8566912E-2,8.3466485E-2,1.894E1,8.184424E-2,2.9E1,2.5E1,-9.1779E-3,7.792106E-2,-3.2821722E-2,-9.584731E-3,-2.8286133E-2,2.8719148E-2,2.751481E-2,-2.9409543E-2,-2.708146E-2,7.858752E-2,-3.0205045E-2,-4.8315837E-3,-2.673299E-2,4.5732823E-3,-2.867428E-2,-5.531916E-3,-2.1980831E-2,9.164617E-3,-2.9008944E-2,-5.6205913E-3,5.0383117E-2,9.059055E-2],"split_indices":[2,7,7,8,0,8,3,3,2,2,3,3,3,2,0,0,4,0,3,1,3,2,0,8,8,8,2,7,8,2,0,1,2,0,0,0,0,1,0,0,0,0,3,3,0,0,0,0,0,8,0,0,1,0,0,0,0,0,0,0,0,0,0,0,0,0,0,0,0,0,0,0,0,0,0],"split_type":[0,0,0,0,0,0,0,0,0,0,0,0,0,0,0,0,0,0,0,0,0,0,0,0,0,0,0,0,0,0,0,0,0,0,0,0,0,0,0,0,0,0,0,0,0,0,0,0,0,0,0,0,0,0,0,0,0,0,0,0,0,0,0,0,0,0,0,0,0,0,0,0,0,0,0],"sum_hessian":[4.774628E3,3.4451448E3,1.329483E3,3.2009873E3,2.4415749E2,2.2091252E2,1.1085706E3,3.1547983E3,4.618917E1,7.962203E1,1.6453546E2,1.9363986E2,2.7272654E1,1.911166E2,9.17454E2,2.7793523E3,3.75446E2,2.1720596E1,2.4468576E1,4.761531E1,3.200672E1,2.7490164E1,1.3704529E2,1.781638E2,1.5476059E1,1.4256291E1,1.3016362E1,4.6944763E1,1.4417183E2,1.4070738E1,9.0338324E2,3.093862E2,6.605981E1,1.23842745E1,1.2084302E1,4.410008E1,3.5152328E0,9.956009E0,2.2050713E1,1.5756905E1,1.1733259E1,1.6927762E2,8.886198E0,1.046737E1,5.0086884E0,1.1085993E1,3.170299E0,3.1876447E0,9.828717E0,3.9637207E1,7.307559E0,1.0960173E1,1.3321165E2,3.7193131E0,1.0351425E1,2.955629E2,1.3823332E1,3.780451E1,2.8255295E1,3.3130682E0,9.071206E0,5.1586633E0,4.797345E0,1.2647551E1,3.1093535E0,5.063447E0,3.8227508E0,7.294676E0,3.1726942E0,3.6309326E1,3.3278806E0,7.7767663E0,3.1834068E0,7.973582E1,5.3475834E1],"tree_param":{"num_deleted":"0","num_feature":"10","num_nodes":"75","size_leaf_vector":"1"}},{"base_weights":[6.313852E-3,-3.2924835E-2,2.126803E-1,3.8034034E-1,-4.24559E-1,-7.647122E-2,8.435087E-1,4.4157296E-1,-6.272675E-1,-3.9007196E-1,1.5089655E0,1.4561905E0,-2.6226935E-1,1.7420751E0,-2.4367416E-1,-1.8148464E-1,-6.4307684E-1,-6.120835E-1,8.514983E-3,1.5964714E0,6.5874594E-1,6.896381E-1,1.5927602E0,4.4796255E-1,-5.60597E-1,9.281627E-2,7.394097E-4,8.111404E-2,-3.273173E-2,8.0629504E-1,-3.0808387E-2,-5.409562E-1,-3.289006E-2,-3.19689E-2,-1.4759843E-2,-2.1941667E-2,4.895664E-2,4.8143353E-2,8.443994E-2,7.332154E-2,-1.208222E-2,-5.326615E-3,7.8540444E-2,7.0745714E-2,8.717387E-2,7.497163E-2,1.101531E-3,-1.6718728E-2,-3.2864965E-2,7.136258E-2,-0E0,1.1790273E-2,-2.9621689E-2],"categories":[],"categories_nodes":[],"categories_segments":[],"categories_sizes":[],"default_left":[0,0,0,0,0,0,0,0,0,0,0,0,0,0,0,0,0,0,0,0,0,0,0,0,0,0,0,0,0,0,0,0,0,0,0,0,0,0,0,0,0,0,0,0,0,0,0,0,0,0,0,0,0],"id":5,"left_children":[1,-1,3,5,7,9,11,13,15,17,19,21,23,25,27,29,31,33,35,37,39,41,43,45,47,-1,-1,-1,-1,49,-1,51,-1,-1,-1,-1,-1,-1,-1,-1,-1,-1,-1,-1,-1,-1,-1,-1,-1,-1,-1,-1,-1],"loss_changes":[6.6167865E2,0E0,3.9341168E2,6.168439E2,1.3496935E2,7.304811E2,9.811625E2,1.3065556E2,4.1849823E0,1.0861153E2,1.6773193E1,9.620361E1,1.09776215E2,9.759903E0,7.490613E1,1.0317284E1,4.267578E-1,6.5333557E0,1.913766E2,1.09296875E1,1.8257105E1,1.0046517E2,1.8389526E1,6.848998E1,7.6553802E0,0E0,0E0,0E0,0E0,3.5567403E0,0E0,3.45887E0,0E0,0E0,0E0,0E0,0E0,0E0,0E0,0E0,0E0,0E0,0E0,0E0,0E0,0E0,0E0,0E0,0E0,0E0,0E0,0E0,0E0],"parents":[2147483647,0,0,2,2,3,3,4,4,5,5,6,6,7,7,8,8,9,9,10,10,11,11,12,12,13,13,14,14,15,15,16,16,17,17,18,18,19,19,20,20,21,21,22,22,23,23,24,24,29,29,31,31],"right_children":[2,-1,4,6,8,10,12,14,16,18,20,22,24,26,28,30,32,34,36,38,40,42,44,46,48,-1,-1,-1,-1,50,-1,52,-1,-1,-1,-1,-1,-1,-1,-1,-1,-1,-1,-1,-1,-1,-1,-1,-1,-1,-1,-1,-1],"split_conditions":[1E0,-3.2924835E-2,3E0,2E0,5.7E0,6.5E0,6.5E0,6.5E1,1.69E0,1.41E2,1.39E2,1.4E2,1.3E2,3.05E1,1.6E2,1.6E2,6.5E0,2.99E1,1.75E0,3.83E0,2.49E1,5.7E0,6.5E1,7.5E0,7.5E0,9.281627E-2,7.394097E-4,8.111404E-2,-3.273173E-2,6.4E1,-3.0808387E-2,1.47E2,-3.289006E-2,-3.19689E-2,-1.4759843E-2,-2.1941667E-2,4.895664E-2,4.8143353E-2,8.443994E-2,7.332154E-2,-1.208222E-2,-5.326615E-3,7.8540444E-2,7.0745714E-2,8.717387E-2,7.497163E-2,1.101531E-3,-1.6718728E-2,-3.2864965E-2,7.136258E-2,-0E0,1.1790273E-2,-2.9621689E-2],"split_indices":[7,0,7,7,2,2,2,0,9,3,3,3,3,1,3,3,2,1,9,9,1,2,0,2,2,0,0,0,0,0,0,3,0,0,0,0,0,0,0,0,0,0,0,0,0,0,0,0,0,0,0,0,0],"split_type":[0,0,0,0,0,0,0,0,0,0,0,0,0,0,0,0,0,0,0,0,0,0,0,0,0,0,0,0,0,0,0,0,0,0,0,0,0,0,0,0,0,0,0,0,0,0,0,0,0,0,0,0,0],"sum_hessian":[4.821225E3,1.1414293E3,3.679796E3,2.91374E3,7.6605585E2,1.4672483E3,1.4464917E3,1.4496754E2,6.210883E2,1.2256339E3,2.4161438E2,9.3062897E2,5.1586273E2,4.95439E1,9.5423645E1,2.1916035E1,5.991723E2,7.869954E2,4.3863846E2,2.1816513E2,2.3449255E1,1.4175487E2,7.888741E2,1.5234251E2,3.6352026E2,4.6345787E1,3.198114E0,1.6647095E1,7.877655E1,6.3656626E0,1.5550372E1,8.111687E1,5.180554E2,7.2335706E2,6.3638313E1,3.0055872E2,1.3807974E2,2.933858E1,1.8882655E2,1.2088135E1,1.136112E1,7.487141E1,6.688346E1,3.6693857E2,4.2193552E2,4.3125732E1,1.09216774E2,1.1050349E2,2.5301677E2,3.0967362E0,3.2689261E0,4.698366E0,7.64185E1],"tree_param":{"num_deleted":"0","num_feature":"10","num_nodes":"53","size_leaf_vector":"1"}},{"base_weights":[-7.510233E-3,1.52189E0,-5.279205E-1,1.6681894E0,4.111368E-1,-1.4115681E-1,-6.489598E-1,1.7259779E0,3.8021693E-1,1.0629487E0,-3.2274824E-2,7.301103E-1,-3.290014E-2,-5.181925E-1,-3.2829914E-2,1.7922573E0,1.3291394E0,1.010987E0,-3.1232217E-2,1.4341857E0,-3.093836E-2,1.6292357E0,-2.605052E-4,-3.1540835E-1,-3.2609385E-2,9.059655E-2,1.3799778E0,1.7437086E0,7.4355835E-1,8.630858E-2,-9.160059E-3,1.6226053E0,-2.7746627E-2,9.08641E-2,-3.0700285E-2,4.400239E-1,-3.2620333E-2,3.0162558E-1,-3.2203406E-2,8.280651E-2,1.2892234E-2,8.981473E-2,3.3303242E-2,7.92427E-2,-3.1675633E-2,4.447064E-2,-2.911344E-2,8.9600705E-2,5.614395E-2,7.811901E-2,-3.2261502E-2,6.785818E-2,-2.4575192E-2],"categories":[],"categories_nodes":[],"categories_segments":[],"categories_sizes":[],"default_left":[0,0,0,0,0,0,0,0,0,0,0,0,0,0,0,0,0,0,0,0,0,0,0,0,0,0,0,0,0,0,0,0,0,0,0,0,0,0,0,0,0,0,0,0,0,0,0,0,0,0,0,0,0],"id":6,"left_children":[1,3,5,7,9,11,13,15,17,19,-1,21,-1,23,-1,25,27,29,-1,31,-1,33,35,37,-1,-1,39,41,43,-1,45,47,-1,-1,-1,49,-1,51,-1,-1,-1,-1,-1,-1,-1,-1,-1,-1,-1,-1,-1,-1,-1],"loss_changes":[3.8068115E3,1.9643066E2,1.668963E2,7.896362E1,9.902884E1,3.841928E2,2.2567139E0,2.429541E1,3.0722672E1,5.6352394E1,0E0,2.0878111E2,0E0,3.9214249E0,0E0,4.2873535E0,3.5098206E1,2.1763027E1,0E0,2.8374008E1,0E0,6.132672E1,5.0908466E1,1.3224066E1,0E0,0E0,1.3119591E1,3.5177002E0,7.572003E1,0E0,7.246085E0,3.368515E0,0E0,0E0,0E0,1.2985635E2,0E0,1.9879864E1,0E0,0E0,0E0,0E0,0E0,0E0,0E0,0E0,0E0,0E0,0E0,0E0,0E0,0E0,0E0],"parents":[2147483647,0,0,1,1,2,2,3,3,4,4,5,5,6,6,7,7,8,8,9,9,11,11,13,13,15,15,16,16,17,17,19,19,21,21,22,22,23,23,26,26,27,27,28,28,30,30,31,31,35,35,37,37],"right_children":[2,4,6,8,10,12,14,16,18,20,-1,22,-1,24,-1,26,28,30,-1,32,-1,34,36,38,-1,-1,40,42,44,-1,46,48,-1,-1,-1,50,-1,52,-1,-1,-1,-1,-1,-1,-1,-1,-1,-1,-1,-1,-1,-1,-1],"split_conditions":[1E0,5E1,1.3E2,1.4E2,5.7E0,5.7E0,3.4E1,1.3E2,5.6E0,1.4E2,-3.2274824E-2,4E1,-3.290014E-2,1.4E2,-3.2829914E-2,3.1E1,5.7E0,2.5E1,-3.1232217E-2,2.98E1,-3.093836E-2,3E1,1E0,1E0,-3.2609385E-2,9.059655E-2,4.1E1,3E1,4E1,8.630858E-2,4E1,1.3E2,-2.7746627E-2,9.08641E-2,-3.0700285E-2,6.5E1,-3.2620333E-2,8.6E-1,-3.2203406E-2,8.280651E-2,1.2892234E-2,8.981473E-2,3.3303242E-2,7.92427E-2,-3.1675633E-2,4.447064E-2,-2.911344E-2,8.9600705E-2,5.614395E-2,7.811901E-2,-3.2261502E-2,6.785818E-2,-2.4575192E-2],"split_indices":[7,0,3,3,2,2,0,3,2,3,0,0,0,3,0,1,2,1,0,1,0,1,4,4,0,0,0,1,0,0,0,3,0,0,0,0,0,9,0,0,0,0,0,0,0,0,0,0,0,0,0,0,0],"split_type":[0,0,0,0,0,0,0,0,0,0,0,0,0,0,0,0,0,0,0,0,0,0,0,0,0,0,0,0,0,0,0,0,0,0,0,0,0,0,0,0,0,0,0,0,0,0,0,0,0,0,0,0,0],"sum_hessian":[4.78105E3,1.2132856E3,3.567764E3,1.071557E3,1.4172867E2,8.511215E2,2.7166423E3,1.0251433E3,4.6413704E1,8.771069E1,5.401797E1,3.1667844E2,5.344431E2,1.544494E2,2.562193E3,8.7520044E2,1.4994286E2,2.8571968E1,1.7841734E1,7.201919E1,1.569151E1,1.4145097E2,1.7522748E2,6.3082466E1,9.136693E1,8.3186707E2,4.333336E1,8.6532555E1,6.3410294E1,1.6447338E1,1.2124631E1,6.600169E1,6.01749E0,1.3072687E2,1.0724099E1,1.0470784E2,7.051964E1,2.1846083E1,4.123638E1,3.432189E1,9.011467E0,8.178215E1,4.7504034E0,3.9313923E1,2.4096375E1,4.4387503E0,7.6858807E0,4.721095E1,1.8790747E1,5.13032E1,5.3404644E1,9.121563E0,1.2724521E1],"tree_param":{"num_deleted":"0","num_feature":"10","num_nodes":"53","size_leaf_vector":"1"}},{"base_weights":[1.2367214E-3,4.2119497E-1,-5.276543E-1,-3.175405E-1,9.8923236E-1,-2.3166038E-1,-6.4931E-1,-4.8857495E-1,8.105071E-1,1.2496985E0,-5.193319E-1,1.2638911E0,-4.433648E-1,-5.916727E-1,-3.2850306E-2,-6.378571E-1,1.6039918E-1,1.4322239E-1,8.924239E-2,9.813712E-1,1.4114454E0,-1.8064065E-1,-3.2706726E-2,1.538766E0,-8.715982E-2,-1.3075672E-1,-3.2938804E-2,-7.2236774E-3,-3.2771483E-2,-6.493898E-1,3.9814797E-1,-3.6946023E-1,8.498111E-1,-2.1555315E-1,9.0726614E-2,4.1338253E-1,9.1590494E-2,1.6552203E0,8.27715E-1,5.932034E-1,-3.2045335E-2,1.644414E0,-7.6965913E-3,4.9233474E-2,-2.5824795E-2,3.8106114E-1,-3.2797813E-2,7.797836E-1,-2.9803902E-2,-3.266461E-2,1.0379788E-2,-2.5027974E-2,5.1857788E-2,-2.9712621E-2,2.3137044E-2,-1.2199966E-3,9.34969E-2,-2.2730133E-2,8.167145E-2,-2.1977432E-2,5.711304E-2,8.620425E-2,4.9019866E-2,7.240953E-2,1.3920094E-2,6.519251E-2,-2.935328E-2,8.986252E-2,4.5657944E-2,4.928752E-2,-3.2424297E-2,7.287517E-3,5.9640445E-2],"categories":[],"categories_nodes":[],"categories_segments":[],"categories_sizes":[],"default_left":[0,0,0,0,0,0,0,0,0,0,0,0,0,0,0,0,0,0,0,0,0,0,0,0,0,0,0,0,0,0,0,0,0,0,0,0,0,0,0,0,0,0,0,0,0,0,0,0,0,0,0,0,0,0,0,0,0,0,0,0,0,0,0,0,0,0,0,0,0,0,0,0,0],"id":7,"left_children":[1,3,5,7,9,11,13,15,17,19,21,23,25,27,-1,29,31,33,-1,35,37,39,-1,41,43,45,-1,47,-1,49,51,53,55,57,-1,59,-1,61,63,65,-1,67,-1,-1,-1,69,-1,71,-1,-1,-1,-1,-1,-1,-1,-1,-1,-1,-1,-1,-1,-1,-1,-1,-1,-1,-1,-1,-1,-1,-1,-1,-1],"loss_changes":[1.0688939E3,1.1260697E3,7.645685E1,2.2547318E2,5.9672424E2,1.9747551E2,1.5563965E-1,9.83721E1,9.9619835E1,5.452954E1,1.0024532E1,2.9006721E1,3.659159E1,6.98304E0,0E0,1.0135651E1,6.986751E1,5.6015575E1,0E0,2.3576239E2,1.12892456E2,2.366434E1,0E0,1.1917603E1,6.886907E0,6.052225E1,0E0,9.615609E0,0E0,2.9090576E0,6.0873547E0,2.0529655E1,7.431482E1,3.465679E1,0E0,1.8410345E2,0E0,2.4367188E1,8.094652E1,2.1650295E1,0E0,4.877487E0,0E0,0E0,0E0,7.1670456E1,0E0,2.004219E0,0E0,0E0,0E0,0E0,0E0,0E0,0E0,0E0,0E0,0E0,0E0,0E0,0E0,0E0,0E0,0E0,0E0,0E0,0E0,0E0,0E0,0E0,0E0,0E0,0E0],"parents":[2147483647,0,0,1,1,2,2,3,3,4,4,5,5,6,6,7,7,8,8,9,9,10,10,11,11,12,12,13,13,15,15,16,16,17,17,19,19,20,20,21,21,23,23,24,24,25,25,27,27,29,29,30,30,31,31,32,32,33,33,35,35,37,37,38,38,39,39,41,41,45,45,47,47],"right_children":[2,4,6,8,10,12,14,16,18,20,22,24,26,28,-1,30,32,34,-1,36,38,40,-1,42,44,46,-1,48,-1,50,52,54,56,58,-1,60,-1,62,64,66,-1,68,-1,-1,-1,70,-1,72,-1,-1,-1,-1,-1,-1,-1,-1,-1,-1,-1,-1,-1,-1,-1,-1,-1,-1,-1,-1,-1,-1,-1,-1,-1],"split_conditions":[2E0,1E0,1.34E0,5E1,6.5E0,1.4E2,1.3E2,1.3E2,5.7E0,1.3E2,7.5E0,1.852E1,6.5E1,6.5E0,-3.2850306E-2,1.361E1,5.7E0,1.4E2,8.924239E-2,5.7E0,1.75E0,4E1,-3.2706726E-2,5.7E0,1.3E2,1.6E2,-3.2938804E-2,1.524E1,-3.2771483E-2,4.17E0,2.05E0,1.104E1,4E1,2.98E1,9.0726614E-2,4E1,9.1590494E-2,1.61E2,2.5E1,2.5E1,-3.2045335E-2,2.55E1,-7.6965913E-3,4.9233474E-2,-2.5824795E-2,2.49E1,-3.2797813E-2,1.091E1,-2.9803902E-2,-3.266461E-2,1.0379788E-2,-2.5027974E-2,5.1857788E-2,-2.9712621E-2,2.3137044E-2,-1.2199966E-3,9.34969E-2,-2.2730133E-2,8.167145E-2,-2.1977432E-2,5.711304E-2,8.620425E-2,4.9019866E-2,7.240953E-2,1.3920094E-2,6.519251E-2,-2.935328E-2,8.986252E-2,4.5657944E-2,4.928752E-2,-3.2424297E-2,7.287517E-3,5.9640445E-2],"split_indices":[7,7,9,0,2,3,3,3,2,3,2,8,0,2,0,8,2,3,0,2,9,0,0,2,3,3,0,8,0,9,9,8,0,1,0,0,0,3,1,1,0,1,0,0,0,1,0,8,0,0,0,0,0,0,0,0,0,0,0,0,0,0,0,0,0,0,0,0,0,0,0,0,0],"split_type":[0,0,0,0,0,0,0,0,0,0,0,0,0,0,0,0,0,0,0,0,0,0,0,0,0,0,0,0,0,0,0,0,0,0,0,0,0,0,0,0,0,0,0,0,0,0,0,0,0,0,0,0,0,0,0,0,0,0,0,0,0,0,0,0,0,0,0,0,0,0,0,0,0],"sum_hessian":[4.8104536E3,2.6815781E3,2.1288755E3,1.1657627E3,1.5158153E3,6.211982E2,1.5076774E3,1.01285004E3,1.5291267E2,1.2928346E3,2.2298077E2,7.63554E1,5.448428E2,1.8830556E2,1.3193718E3,8.2357587E2,1.8927415E2,9.149871E1,6.141397E1,4.8911346E2,8.0372107E2,6.4359535E1,1.5862123E2,6.3393E1,1.29624E1,2.2311958E2,3.217232E2,1.878533E1,1.6952022E2,8.149734E2,8.602506E0,1.0720158E2,8.207257E1,7.599604E1,1.5502669E1,2.9421655E2,1.9489691E2,5.655371E2,2.3818396E2,2.3814384E1,4.0545155E1,5.975129E1,3.641711E0,3.2707207E0,9.691679E0,1.13041916E2,1.1007766E2,7.828472E0,1.0956859E1,8.116319E2,3.3414943E0,3.599832E0,5.0026736E0,8.4722595E1,2.2478977E1,4.4670044E1,3.7402527E1,6.801128E1,7.984762E0,1.3569106E2,1.5852551E2,5.1162354E2,5.3913574E1,1.10993286E2,1.2719068E2,1.4851957E1,8.962428E0,4.8102985E1,1.1648307E1,7.130289E1,4.173903E1,3.7172058E0,4.111266E0],"tree_param":{"num_deleted":"0","num_feature":"10","num_nodes":"73","size_leaf_vector":"1"}},{"base_weights":[-6.5208375E-3,-4.968179E-1,1.1874866E0,-6.4032584E-1,-1.7440599E-1,5.055355E-1,1.5215765E0,-6.486888E-1,-6.152187E-2,-6.3408256E-1,5.141919E-1,3.396273E-2,1.5839963E0,1.3466063E0,8.1334E-2,-3.2500174E-2,-3.505221E-1,-3.0688137E-2,5.0946987E-1,-6.437823E-1,1.6997743E-2,-1.3135436E-1,1.4485542E0,-4.7673243E-1,1.117124E0,1.0525383E0,8.079951E-2,1.0557249E0,8.283844E-2,-2.8743267E-2,1.0424221E-2,-2.7599728E-2,1.100301E0,-3.2432422E-2,-2.6894602E-1,-6.243424E-1,3.7034988E-1,1.3038827E0,8.159671E-2,-6.169401E-1,2.5687674E-1,-3.579338E-1,1.3029315E0,6.6780373E-3,7.2602354E-2,7.567573E-1,8.268294E-2,6.5383814E-2,2.3521604E-2,-2.6969507E-2,6.927855E-3,-3.242066E-2,-6.1514075E-3,-2.4554547E-2,6.877719E-2,6.6582076E-2,3.627778E-2,-3.206682E-2,-1.8768845E-3,-2.2874404E-2,2.7912423E-2,-2.8686294E-2,6.422158E-4,3.0788198E-2,7.878604E-2,-1.6389436E-4,5.073104E-2],"categories":[],"categories_nodes":[],"categories_segments":[],"categories_sizes":[],"default_left":[0,0,0,0,0,0,0,0,0,0,0,0,0,0,0,0,0,0,0,0,0,0,0,0,0,0,0,0,0,0,0,0,0,0,0,0,0,0,0,0,0,0,0,0,0,0,0,0,0,0,0,0,0,0,0,0,0,0,0,0,0,0,0,0,0,0,0],"id":8,"left_children":[1,3,5,7,9,11,13,15,17,19,21,23,25,27,-1,-1,29,-1,31,33,-1,35,37,39,41,43,-1,45,-1,-1,-1,-1,47,-1,49,51,53,55,-1,57,59,61,63,-1,-1,65,-1,-1,-1,-1,-1,-1,-1,-1,-1,-1,-1,-1,-1,-1,-1,-1,-1,-1,-1,-1,-1],"loss_changes":[2.805438E3,1.5699689E2,3.1684863E2,1.126593E1,3.3206412E2,2.3387247E2,1.4719727E1,5.800781E-1,1.1280873E1,6.191986E0,2.5365518E2,1.7834886E2,4.1183472E-1,3.0215515E1,0E0,0E0,1.7458508E0,0E0,1.1664007E1,8.7057495E-1,0E0,6.190288E1,2.135254E0,2.2721725E1,2.8879272E1,3.6831026E0,0E0,3.1990662E1,0E0,0E0,0E0,0E0,7.306013E-1,0E0,1.2123619E0,1.3657761E0,1.0818635E2,4.5419312E-1,0E0,2.512886E0,7.9584646E0,1.0462661E0,1.6063553E1,0E0,0E0,2.4960281E1,0E0,0E0,0E0,0E0,0E0,0E0,0E0,0E0,0E0,0E0,0E0,0E0,0E0,0E0,0E0,0E0,0E0,0E0,0E0,0E0,0E0],"parents":[2147483647,0,0,1,1,2,2,3,3,4,4,5,5,6,6,7,7,8,8,9,9,10,10,11,11,12,12,13,13,16,16,18,18,19,19,21,21,22,22,23,23,24,24,25,25,27,27,32,32,34,34,35,35,36,36,37,37,39,39,40,40,41,41,42,42,45,45],"right_children":[2,4,6,8,10,12,14,16,18,20,22,24,26,28,-1,-1,30,-1,32,34,-1,36,38,40,42,44,-1,46,-1,-1,-1,-1,48,-1,50,52,54,56,-1,58,60,62,64,-1,-1,66,-1,-1,-1,-1,-1,-1,-1,-1,-1,-1,-1,-1,-1,-1,-1,-1,-1,-1,-1,-1,-1],"split_conditions":[6.5E0,1E0,5.5E1,2.27E1,1E0,1E0,6.5E1,2.233E1,2.08E0,2.331E1,6.5E1,1E0,3.5E1,1E0,8.1334E-2,-3.2500174E-2,2.05E0,-3.0688137E-2,1E0,2.114E1,1.6997743E-2,5E1,5.7E0,1.256E1,6.22E0,7.3E0,8.079951E-2,1E0,8.283844E-2,-2.8743267E-2,1.0424221E-2,-2.7599728E-2,6.1E0,-3.2432422E-2,3.08E1,1.333E1,5.7E0,1.3E0,8.159671E-2,3E1,7.6E0,2.7E1,7.5E0,6.6780373E-3,7.2602354E-2,7.5E0,8.268294E-2,6.5383814E-2,2.3521604E-2,-2.6969507E-2,6.927855E-3,-3.242066E-2,-6.1514075E-3,-2.4554547E-2,6.877719E-2,6.6582076E-2,3.627778E-2,-3.206682E-2,-1.8768845E-3,-2.2874404E-2,2.7912423E-2,-2.8686294E-2,6.422158E-4,3.0788198E-2,7.878604E-2,-1.6389436E-4,5.073104E-2],"split_indices":[2,4,0,8,6,6,0,8,9,8,0,4,0,6,0,0,9,0,6,8,0,0,2,8,8,2,0,4,0,0,0,0,2,0,1,8,2,9,0,1,2,0,2,0,0,2,0,0,0,0,0,0,0,0,0,0,0,0,0,0,0,0,0,0,0,0,0],"split_type":[0,0,0,0,0,0,0,0,0,0,0,0,0,0,0,0,0,0,0,0,0,0,0,0,0,0,0,0,0,0,0,0,0,0,0,0,0,0,0,0,0,0,0,0,0,0,0,0,0,0,0,0,0,0,0,0,0,0,0,0,0,0,0,0,0,0,0],"sum_hessian":[4.790303E3,3.3963308E3,1.3939725E3,2.34933E3,1.0470006E3,4.5928433E2,9.3468823E2,2.3155793E3,3.3750656E1,6.280005E2,4.1900012E2,3.2033664E2,1.3894768E2,3.563016E2,5.783866E2,2.303906E3,1.1673395E1,1.720799E1,1.6542665E1,6.222457E2,5.7547913E0,2.482428E2,1.7075732E2,2.1801378E2,1.0232286E2,9.992001E0,1.2895567E2,1.8630463E2,1.69997E2,8.437667E0,3.2357278E0,5.878342E0,1.0664324E1,6.1328674E2,8.958934E0,1.2518628E2,1.2305651E2,1.0029141E2,7.046592E1,1.8328049E2,3.473329E1,1.128342E1,9.1039444E1,3.5077822E0,6.484218E0,1.25824905E2,6.0479713E1,7.093891E0,3.5704334E0,5.3380356E0,3.6208978E0,1.18980484E2,6.205799E0,6.648851E1,5.6568005E1,9.429016E1,6.0012546E0,1.7560692E2,7.6735797E0,1.0053311E1,2.467998E1,6.956877E0,4.326542E0,2.6900297E1,6.4139145E1,3.2026993E1,9.379791E1],"tree_param":{"num_deleted":"0","num_feature":"10","num_nodes":"67","size_leaf_vector":"1"}},{"base_weights":[-2.7491595E-3,-3.2564774E-2,1.9238296E-1,3.475975E-1,-4.111506E-1,5.587111E-2,9.959533E-1,4.4656122E-1,-6.159833E-1,-3.49558E-1,3.1038666E-1,1.1676344E0,-5.5788606E-1,1.5632329E0,-1.9227579E-1,-8.58032E-2,-6.301587E-1,-3.2129645E-2,6.2216496E-1,4.573042E-1,3.3784676E-2,1.4319798E-1,1.4863789E0,1.3861266E-2,-5.9252405E-1,8.4351204E-2,-1.209928E-3,7.56143E-2,-3.232285E-2,3.5278294E-2,-2.9367153E-2,-5.081608E-1,-3.2532107E-2,-7.675506E-3,5.620837E-2,2.7220675E-3,3.819037E-2,2.0368403E-2,-2.8179038E-2,-1.889489E-2,4.5989297E-2,7.630916E-2,2.5706142E-2,-4.3018013E-3,-3.2192864E-2,-3.4813804E-3,-3.2144677E-2],"categories":[],"categories_nodes":[],"categories_segments":[],"categories_sizes":[],"default_left":[0,0,0,0,0,0,0,0,0,0,0,0,0,0,0,0,0,0,0,0,0,0,0,0,0,0,0,0,0,0,0,0,0,0,0,0,0,0,0,0,0,0,0,0,0,0,0],"id":9,"left_children":[1,-1,3,5,7,9,11,13,15,17,19,21,23,25,27,29,31,-1,33,35,37,39,41,-1,43,-1,-1,-1,-1,-1,-1,45,-1,-1,-1,-1,-1,-1,-1,-1,-1,-1,-1,-1,-1,-1,-1],"loss_changes":[6.052202E2,0E0,3.4448325E2,5.530046E2,1.3245987E2,2.0835875E2,2.4277338E2,1.04239426E2,4.4421387E0,2.2212491E2,5.0348083E1,2.6656384E2,2.825224E0,1.0645279E1,7.319249E1,7.216795E0,1.0319061E0,0E0,7.068674E1,9.988005E1,9.654456E1,7.938549E1,2.3133545E1,0E0,2.1521397E0,0E0,0E0,0E0,0E0,0E0,0E0,5.220501E0,0E0,0E0,0E0,0E0,0E0,0E0,0E0,0E0,0E0,0E0,0E0,0E0,0E0,0E0,0E0],"parents":[2147483647,0,0,2,2,3,3,4,4,5,5,6,6,7,7,8,8,9,9,10,10,11,11,12,12,13,13,14,14,15,15,16,16,18,18,19,19,20,20,21,21,22,22,24,24,31,31],"right_children":[2,-1,4,6,8,10,12,14,16,18,20,22,24,26,28,30,32,-1,34,36,38,40,42,-1,44,-1,-1,-1,-1,-1,-1,46,-1,-1,-1,-1,-1,-1,-1,-1,-1,-1,-1,-1,-1,-1,-1],"split_conditions":[1E0,-3.2564774E-2,3E0,1.51E2,5.7E0,5.7E0,6.5E0,6.5E1,1.65E0,2E0,6.2E1,2E0,2E0,1.832E1,1.6E2,1.6E2,6.5E0,-3.2129645E-2,1.4E2,6.5E0,7.5E0,5.7E0,2.27E1,1.3861266E-2,4E1,8.4351204E-2,-1.209928E-3,7.56143E-2,-3.232285E-2,3.5278294E-2,-2.9367153E-2,1.6E2,-3.2532107E-2,-7.675506E-3,5.620837E-2,2.7220675E-3,3.819037E-2,2.0368403E-2,-2.8179038E-2,-1.889489E-2,4.5989297E-2,7.630916E-2,2.5706142E-2,-4.3018013E-3,-3.2192864E-2,-3.4813804E-3,-3.2144677E-2],"split_indices":[7,0,7,3,2,2,2,0,9,7,0,7,7,8,3,3,2,0,3,2,2,2,8,0,0,0,0,0,0,0,0,3,0,0,0,0,0,0,0,0,0,0,0,0,0,0,0],"split_type":[0,0,0,0,0,0,0,0,0,0,0,0,0,0,0,0,0,0,0,0,0,0,0,0,0,0,0,0,0,0,0,0,0,0,0,0,0,0,0,0,0,0,0,0,0,0,0],"sum_hessian":[4.7800225E3,1.1051365E3,3.6748862E3,2.9235962E3,7.512899E2,2.017201E3,9.063952E2,1.4450876E2,6.067812E2,7.776622E2,1.239539E3,8.16495E2,8.9900215E1,5.211774E1,9.2391014E1,1.6168442E1,5.9061273E2,5.97823E2,1.7983919E2,8.088841E2,4.3065482E2,1.9417734E2,6.223176E2,3.1864061E0,8.671381E1,4.834774E1,3.7700005E0,1.8901814E1,7.3489204E1,6.0368457E0,1.0131597E1,8.931966E1,5.0129306E2,7.085371E1,1.0898547E2,3.5015277E2,4.5873132E2,2.6525424E2,1.6540057E2,1.1643397E2,7.774336E1,5.971958E2,2.512181E1,8.405314E0,7.8308495E1,2.1523418E1,6.779624E1],"tree_param":{"num_deleted":"0","num_feature":"10","num_nodes":"47","size_leaf_vector":"1"}},{"base_weights":[-2.6818858E-3,1.4100443E0,-5.204772E-1,1.4854847E0,6.2471803E-2,-1.4451309E-1,-6.407698E-1,1.568305E0,6.3712585E-1,4.4626802E-1,-3.139819E-2,6.7920834E-1,-3.2546945E-2,-4.4268453E-1,-3.234092E-2,1.618883E0,1.2697687E0,1.1725101E0,-1.2906468E-1,1.1760936E0,-4.0542787E-1,1.4788197E0,8.121756E-2,-2.0065357E-1,-3.181602E-2,1.6220696E0,3.0722534E-2,8.315619E-2,6.7397124E-1,1.3954892E0,-2.369961E-2,8.9147955E-2,-3.0177817E-2,6.709522E-1,6.793677E-2,5.6565277E-2,-3.0576332E-2,1.5667661E0,-2.8031722E-2,4.251098E-1,-3.7520266E-1,5.093912E-1,-3.1235E-2,8.234917E-2,7.297244E-2,6.729341E-2,-1.0725236E-2,8.228763E-2,3.198157E-2,1.6261775E-2,-2.4718521E-2,6.206463E-2,-1.3724128E-2,-1.4952484E-2,2.2017838E-2,6.279191E-2,8.23635E-2,4.0816557E-2,-2.1464104E-2,7.7910325E-3,-2.8866211E-2,7.928938E-2,-1.9421963E-2],"categories":[],"categories_nodes":[],"categories_segments":[],"categories_sizes":[],"default_left":[0,0,0,0,0,0,0,0,0,0,0,0,0,0,0,0,0,0,0,0,0,0,0,0,0,0,0,0,0,0,0,0,0,0,0,0,0,0,0,0,0,0,0,0,0,0,0,0,0,0,0,0,0,0,0,0,0,0,0,0,0,0,0],"id":10,"left_children":[1,3,5,7,9,11,13,15,17,19,-1,21,-1,23,-1,25,27,29,31,33,35,37,39,41,-1,43,-1,-1,45,47,-1,49,-1,51,-1,53,-1,55,-1,57,59,61,-1,-1,-1,-1,-1,-1,-1,-1,-1,-1,-1,-1,-1,-1,-1,-1,-1,-1,-1,-1,-1],"loss_changes":[3.4891877E3,1.2981177E2,1.5769684E2,8.389502E1,1.8529644E1,3.540316E2,2.772583E0,1.4308105E1,4.5187706E1,2.8516502E1,0E0,1.5423271E2,0E0,3.6317463E0,0E0,1.7856445E0,3.7244843E1,2.4490913E1,4.8556404E0,1.1499672E0,2.1315205E0,2.5754059E1,2.9359465E1,1.1812453E1,0E0,1.0754395E0,0E0,0E0,4.0565033E1,9.548546E0,0E0,4.573435E0,0E0,5.09575E0,0E0,1.1530074E0,0E0,9.633179E-1,0E0,3.6044918E1,8.754181E0,1.4963726E1,0E0,0E0,0E0,0E0,0E0,0E0,0E0,0E0,0E0,0E0,0E0,0E0,0E0,0E0,0E0,0E0,0E0,0E0,0E0,0E0,0E0],"parents":[2147483647,0,0,1,1,2,2,3,3,4,4,5,5,6,6,7,7,8,8,9,9,11,11,13,13,15,15,16,16,17,17,18,18,19,19,20,20,21,21,22,22,23,23,25,25,28,28,29,29,31,31,33,33,35,35,37,37,39,39,40,40,41,41],"right_children":[2,4,6,8,10,12,14,16,18,20,-1,22,-1,24,-1,26,28,30,32,34,36,38,40,42,-1,44,-1,-1,46,48,-1,50,-1,52,-1,54,-1,56,-1,58,60,62,-1,-1,-1,-1,-1,-1,-1,-1,-1,-1,-1,-1,-1,-1,-1,-1,-1,-1,-1,-1,-1],"split_conditions":[1E0,1.4E2,1.3E2,1.235E1,5.6E0,5.7E0,6.08E0,1.3E2,5.7E0,1.066E1,-3.139819E-2,8.74E0,-3.2546945E-2,1.4E2,-3.234092E-2,3.48E1,5.7E0,1.574E1,1.3E2,1.99E1,2.46E1,3E1,1E0,1E0,-3.181602E-2,1.014E1,3.0722534E-2,8.315619E-2,8.74E0,1.3E2,-2.369961E-2,1.437E1,-3.0177817E-2,8.58E0,6.793677E-2,2.36E1,-3.0576332E-2,1.88E1,-2.8031722E-2,1.699E1,9.96E0,8.6E-1,-3.1235E-2,8.234917E-2,7.297244E-2,6.729341E-2,-1.0725236E-2,8.228763E-2,3.198157E-2,1.6261775E-2,-2.4718521E-2,6.206463E-2,-1.3724128E-2,-1.4952484E-2,2.2017838E-2,6.279191E-2,8.23635E-2,4.0816557E-2,-2.1464104E-2,7.7910325E-3,-2.8866211E-2,7.928938E-2,-1.9421963E-2],"split_indices":[7,3,3,8,2,2,8,3,2,8,0,8,0,3,0,1,2,8,3,1,1,1,4,4,0,8,0,0,8,3,0,8,0,8,0,1,0,1,0,8,8,9,0,0,0,0,0,0,0,0,0,0,0,0,0,0,0,0,0,0,0,0,0],"split_type":[0,0,0,0,0,0,0,0,0,0,0,0,0,0,0,0,0,0,0,0,0,0,0,0,0,0,0,0,0,0,0,0,0,0,0,0,0,0,0,0,0,0,0,0,0,0,0,0,0,0,0,0,0,0,0,0,0,0,0,0,0,0,0],"sum_hessian":[4.768007E3,1.2783381E3,3.4896687E3,1.2104004E3,6.793774E1,8.466306E2,2.643038E3,1.1018652E3,1.0853519E2,4.3985664E1,2.3952074E1,3.2213187E2,5.244988E2,8.100264E1,2.5620354E3,9.381638E2,1.6370145E2,6.365543E1,4.4879753E1,2.3545689E1,2.0439976E1,1.3712848E2,1.8500337E2,3.7136875E1,4.3865765E1,9.3448474E2,3.6791003E0,9.742236E1,6.6279076E1,5.62508E1,7.4046288E0,3.1153858E1,1.3725893E1,7.639069E0,1.590662E1,6.3796415E0,1.4060334E1,1.317288E2,5.3996677E0,1.0567197E2,7.933141E1,1.3722366E1,2.3414509E1,8.018911E2,1.3259361E2,3.7510246E1,2.8768827E1,4.127506E1,1.4975743E1,2.2617128E1,8.536731E0,4.635505E0,3.003564E0,3.2907393E0,3.0889022E0,3.0761467E1,1.0096734E2,7.259343E1,3.307854E1,2.1797724E1,5.7533688E1,5.942783E0,7.7795835E0],"tree_param":{"num_deleted":"0","num_feature":"10","num_nodes":"63","size_leaf_vector":"1"}},{"base_weights":[-6.1174845E-3,4.0280876E-1,-5.2401006E-1,-3.1836674E-1,9.3386483E-1,-2.1414562E-1,-6.306039E-1,-4.8392195E-1,7.7527404E-1,1.1640793E0,-5.1338756E-1,4.5820838E-1,-3.668151E-1,-4.4882613E-1,-3.2075383E-2,-6.045028E-1,-1.2997212E-1,1.189837E-1,1.546525E0,7.647317E-1,1.2471477E0,1.2568049E-1,-6.010787E-1,1.3031776E0,4.4767247E-4,-5.3524204E-2,-3.1492684E-2,-3.1726055E-2,-5.3961504E-1,-6.107168E-1,9.011389E-3,-4.681533E-1,3.668137E-1,-6.770616E-2,7.58388E-2,8.5172606E-1,8.0342345E-2,1.0553462E-1,1.4315683E0,1.3656043E0,1.0526624E0,6.0951646E-2,-3.0391319E-2,-3.2518724E-1,-3.237222E-2,8.463507E-2,2.691515E-1,2.6940334E-1,-5.2205306E-1,2.021413E-1,-4.8820084E-1,2.7403578E-2,-3.3861566E-1,1.0154623E-2,-2.892128E-2,-3.0828778E-2,-1.4542309E-2,-2.539233E-2,9.274824E-3,1.1421993E-2,7.3174804E-2,-9.645684E-3,1.24177085E-2,6.3193694E-2,1.0582332E-2,4.5081045E-2,-7.598404E-3,4.6965025E-2,7.7236764E-2,6.2203605E-2,8.266082E-2,6.6671275E-2,3.3988472E-2,2.8812844E-2,-2.619636E-2,3.209484E-2,-1.6590906E-2,1.9057094E-3,3.3464678E-2,-2.8855002E-2,-9.824309E-3,6.389546E-2,9.557277E-4,-1.7667618E-2,-2.8495336E-2,-2.5819654E-2,-8.500126E-3],"categories":[],"categories_nodes":[],"categories_segments":[],"categories_sizes":[],"default_left":[0,0,0,0,0,0,0,0,0,0,0,0,0,0,0,0,0,0,0,0,0,0,0,0,0,0,0,0,0,0,0,0,0,0,0,0,0,0,0,0,0,0,0,0,0,0,0,0,0,0,0,0,0,0,0,0,0,0,0,0,0,0,0,0,0,0,0,0,0,0,0,0,0,0,0,0,0,0,0,0,0,0,0,0,0,0,0],"id":11,"left_children":[1,3,5,7,9,11,13,15,17,19,21,23,25,27,-1,29,31,33,35,37,39,41,43,45,47,49,-1,51,53,55,-1,57,59,61,-1,63,-1,65,67,69,71,-1,-1,73,-1,-1,75,77,79,81,83,-1,85,-1,-1,-1,-1,-1,-1,-1,-1,-1,-1,-1,-1,-1,-1,-1,-1,-1,-1,-1,-1,-1,-1,-1,-1,-1,-1,-1,-1,-1,-1,-1,-1,-1,-1],"loss_changes":[1.0113615E3,1.0223015E3,6.9377686E1,2.0535553E2,5.1278406E2,5.569935E1,2.7089844E0,4.1849457E1,7.5156265E1,4.2848877E1,1.1980267E1,3.872207E1,3.6291443E1,3.429531E0,0E0,3.7301636E0,4.244366E1,2.1579823E1,1.2534332E0,1.01327576E2,2.357727E1,2.1829279E1,2.0761337E0,1.353373E1,9.422609E0,2.2667799E1,0E0,3.3316982E0,2.3378258E0,1.0945435E0,0E0,4.0241585E0,1.5024636E1,2.9315834E0,0E0,1.6232829E0,0E0,2.4283138E1,4.694931E0,2.13396E1,4.2828125E1,0E0,0E0,5.5159316E0,0E0,0E0,2.6848645E0,4.020422E0,2.1643305E-1,2.5102087E1,5.3874207E-1,0E0,2.1435726E-1,0E0,0E0,0E0,0E0,0E0,0E0,0E0,0E0,0E0,0E0,0E0,0E0,0E0,0E0,0E0,0E0,0E0,0E0,0E0,0E0,0E0,0E0,0E0,0E0,0E0,0E0,0E0,0E0,0E0,0E0,0E0,0E0,0E0,0E0],"parents":[2147483647,0,0,1,1,2,2,3,3,4,4,5,5,6,6,7,7,8,8,9,9,10,10,11,11,12,12,13,13,15,15,16,16,17,17,18,18,19,19,20,20,21,21,22,22,23,23,24,24,25,25,27,27,28,28,29,29,31,31,32,32,33,33,35,35,37,37,38,38,39,39,40,40,43,43,46,46,47,47,48,48,49,49,50,50,52,52],"right_children":[2,4,6,8,10,12,14,16,18,20,22,24,26,28,-1,30,32,34,36,38,40,42,44,46,48,50,-1,52,54,56,-1,58,60,62,-1,64,-1,66,68,70,72,-1,-1,74,-1,-1,76,78,80,82,84,-1,86,-1,-1,-1,-1,-1,-1,-1,-1,-1,-1,-1,-1,-1,-1,-1,-1,-1,-1,-1,-1,-1,-1,-1,-1,-1,-1,-1,-1,-1,-1,-1,-1,-1,-1],"split_conditions":[2E0,1E0,1.02E0,5E1,1E0,1E0,1.37E0,4E1,1.2E0,3E1,3.83E0,6.5E1,6.5E1,1E0,-3.2075383E-2,3.98E0,1.39E0,2.98E1,1.39E0,1.12E0,2.5E1,4E1,5.06E0,2.59E1,2.51E1,2.49E1,-3.1492684E-2,6.5E1,3.8E1,1.071E1,9.011389E-3,1.373E1,2.99E1,2.51E1,7.58388E-2,1.98E1,8.0342345E-2,1E0,1.44E0,6.5E1,1.75E0,6.0951646E-2,-3.0391319E-2,6.34E0,-3.237222E-2,8.463507E-2,2.81E1,2.29E1,2.92E1,3.9E1,1E0,2.7403578E-2,1.82E1,1.0154623E-2,-2.892128E-2,-3.0828778E-2,-1.4542309E-2,-2.539233E-2,9.274824E-3,1.1421993E-2,7.3174804E-2,-9.645684E-3,1.24177085E-2,6.3193694E-2,1.0582332E-2,4.5081045E-2,-7.598404E-3,4.6965025E-2,7.7236764E-2,6.2203605E-2,8.266082E-2,6.6671275E-2,3.3988472E-2,2.8812844E-2,-2.619636E-2,3.209484E-2,-1.6590906E-2,1.9057094E-3,3.3464678E-2,-2.8855002E-2,-9.824309E-3,6.389546E-2,9.557277E-4,-1.7667618E-2,-2.8495336E-2,-2.5819654E-2,-8.500126E-3],"split_indices":[7,7,9,0,5,6,9,0,9,0,9,0,0,6,0,9,9,1,9,9,1,0,9,1,1,1,0,0,0,8,0,8,1,1,0,1,0,4,9,0,9,0,0,8,0,0,1,1,1,0,4,0,1,0,0,0,0,0,0,0,0,0,0,0,0,0,0,0,0,0,0,0,0,0,0,0,0,0,0,0,0,0,0,0,0,0,0],"split_type":[0,0,0,0,0,0,0,0,0,0,0,0,0,0,0,0,0,0,0,0,0,0,0,0,0,0,0,0,0,0,0,0,0,0,0,0,0,0,0,0,0,0,0,0,0,0,0,0,0,0,0,0,0,0,0,0,0,0,0,0,0,0,0,0,0,0,0,0,0,0,0,0,0,0,0,0,0,0,0,0,0,0,0,0,0,0,0],"sum_hessian":[4.773478E3,2.6673647E3,2.1061133E3,1.1312867E3,1.536078E3,5.4007684E2,1.5660364E3,9.8311224E2,1.4817447E2,1.3254961E3,2.1058192E2,9.944893E1,4.406279E2,9.1526085E1,1.4745104E3,7.325593E2,2.5055295E2,8.074718E1,6.7427284E1,2.3020503E2,1.0952911E3,2.5219057E1,1.8536287E2,3.421921E1,6.522971E1,2.0182677E2,2.3880115E2,1.6799074E1,7.4727005E1,7.2715045E2,5.40888E0,1.492272E2,1.0132575E2,7.200956E1,8.737615E0,6.726584E0,6.0700703E1,1.1642351E2,1.1378152E2,6.7663336E2,4.1865775E2,9.914736E0,1.5304322E1,2.8132908E1,1.5722995E2,2.4322918E1,9.896295E0,4.3509247E1,2.1720469E1,1.27272995E2,7.4553764E1,5.429512E0,1.1369562E1,3.372816E0,7.1354195E1,7.128537E2,1.4296711E1,1.4103859E2,8.188609E0,9.1127266E1,1.019849E1,5.2082905E1,1.9926653E1,3.4039736E0,3.3226104E0,2.7938076E1,8.848543E1,2.3171408E1,9.061011E1,4.796343E2,1.9699904E2,2.3721028E2,1.8144746E2,4.647965E0,2.3484941E1,6.168587E0,3.7277074E0,2.8418114E1,1.5091134E1,1.7655512E1,4.064957E0,1.7556068E1,1.0971693E2,3.059988E1,4.3953884E1,4.241679E0,7.1278834E0],"tree_param":{"num_deleted":"0","num_feature":"10","num_nodes":"87","size_leaf_vector":"1"}},{"base_weights":[-2.2220863E-3,-4.8770583E-1,1.1254047E0,-6.1786103E-1,1.0108125E0,-4.4907358E-1,1.4110923E0,-6.274219E-1,6.5878324E-2,2.5219834E-1,1.3494593E0,-6.2094605E-1,3.0422106E-1,3.94361E-1,1.4347407E0,-3.224982E-2,-5.773449E-1,-3.0687302E-2,5.8681387E-1,-5.3986186E-1,1.1930306E0,1.0425662E0,7.0338756E-2,-3.185802E-2,-2.244499E-1,-3.618804E-1,5.762172E-1,-2.546099E-1,1.1709455E0,1.3179809E0,7.6914005E-2,-3.6566558E-1,-6.335049E-1,-2.7814606E-2,1.0231415E0,-3.1897675E-2,2.8535247E-2,7.811614E-1,7.405948E-2,7.045174E-1,6.768903E-2,-2.5846854E-2,8.838326E-3,-2.8996218E-2,4.2942893E-3,8.793021E-1,1.5253982E-1,-2.9353132E-2,1.64042E-1,8.616208E-3,7.280333E-2,1.0090641E0,1.4370644E0,-3.0301427E-2,1.480593E-2,-3.203684E-2,-1.0222623E-2,6.1084814E-2,1.487574E-2,4.77602E-2,1.0932074E-2,4.6513595E-2,6.613833E-3,1.9673537E-2,6.3352734E-2,-2.4350518E-2,2.0712933E-2,4.1779142E-2,-2.5328381E-2,3.5441157E-3,5.4113574E-2,6.7027204E-2,7.7668965E-2],"categories":[],"categories_nodes":[],"categories_segments":[],"categories_sizes":[],"default_left":[0,0,0,0,0,0,0,0,0,0,0,0,0,0,0,0,0,0,0,0,0,0,0,0,0,0,0,0,0,0,0,0,0,0,0,0,0,0,0,0,0,0,0,0,0,0,0,0,0,0,0,0,0,0,0,0,0,0,0,0,0,0,0,0,0,0,0,0,0,0,0,0,0],"id":12,"left_children":[1,3,5,7,9,11,13,15,17,19,21,23,25,27,29,-1,31,-1,33,35,37,39,-1,-1,41,43,45,47,49,51,-1,53,55,-1,57,-1,-1,59,-1,61,-1,-1,-1,-1,-1,63,65,-1,67,-1,-1,69,71,-1,-1,-1,-1,-1,-1,-1,-1,-1,-1,-1,-1,-1,-1,-1,-1,-1,-1,-1,-1],"loss_changes":[2.6112825E3,6.5095E2,6.4644995E2,2.0158203E1,6.803992E1,2.8856651E1,2.8473633E1,2.1689453E0,1.5609351E1,6.305389E1,1.5272522E0,9.3141174E-1,7.776403E0,1.505614E1,1.2040039E1,0E0,9.146332E0,0E0,1.3075773E1,5.3876963E0,3.1989632E0,2.324234E0,0E0,0E0,1.1672951E0,1.3278711E0,3.6237068E0,2.4496264E0,3.429144E0,1.9106262E1,0E0,2.7237673E1,1.7342072E0,0E0,2.149395E0,0E0,0E0,1.4508619E0,0E0,2.110507E0,0E0,0E0,0E0,0E0,0E0,2.5720005E0,2.5188801E0,0E0,4.057941E0,0E0,0E0,1.085997E1,2.1809692E0,0E0,0E0,0E0,0E0,0E0,0E0,0E0,0E0,0E0,0E0,0E0,0E0,0E0,0E0,0E0,0E0,0E0,0E0,0E0,0E0],"parents":[2147483647,0,0,1,1,2,2,3,3,4,4,5,5,6,6,7,7,8,8,9,9,10,10,11,11,12,12,13,13,14,14,16,16,18,18,19,19,20,20,21,21,24,24,25,25,26,26,27,27,28,28,29,29,31,31,32,32,34,34,37,37,39,39,45,45,46,46,48,48,51,51,52,52],"right_children":[2,4,6,8,10,12,14,16,18,20,22,24,26,28,30,-1,32,-1,34,36,38,40,-1,-1,42,44,46,48,50,52,-1,54,56,-1,58,-1,-1,60,-1,62,-1,-1,-1,-1,-1,64,66,-1,68,-1,-1,70,72,-1,-1,-1,-1,-1,-1,-1,-1,-1,-1,-1,-1,-1,-1,-1,-1,-1,-1,-1,-1],"split_conditions":[6.5E0,3E0,2E0,2.27E1,6.5E1,1.256E1,6.89E0,2E0,2.08E0,5.7E0,4.8E0,3E1,7.72E0,1E0,3E0,-3.224982E-2,5.6E1,-3.0687302E-2,2E0,3.01E1,2.4E1,1.803E1,7.0338756E-2,-3.185802E-2,3.8E1,1.476E1,8.8E0,5.52E0,3.89E0,7.5E0,7.6914005E-2,5E1,3.64E0,-2.7814606E-2,1E0,-3.1897675E-2,2.8535247E-2,2.28E0,7.405948E-2,4.6E0,6.768903E-2,-2.5846854E-2,8.838326E-3,-2.8996218E-2,4.2942893E-3,9.31E0,4.9E1,-2.9353132E-2,2.8E1,8.616208E-3,7.280333E-2,4E1,6.5E1,-3.0301427E-2,1.480593E-2,-3.203684E-2,-1.0222623E-2,6.1084814E-2,1.487574E-2,4.77602E-2,1.0932074E-2,4.6513595E-2,6.613833E-3,1.9673537E-2,6.3352734E-2,-2.4350518E-2,2.0712933E-2,4.1779142E-2,-2.5328381E-2,3.5441157E-3,5.4113574E-2,6.7027204E-2,7.7668965E-2],"split_indices":[2,7,7,8,0,8,8,7,9,2,2,1,9,6,7,0,0,0,7,1,1,8,0,0,0,8,2,8,9,2,0,0,9,0,4,0,0,9,0,2,0,0,0,0,0,9,0,0,0,0,0,0,0,0,0,0,0,0,0,0,0,0,0,0,0,0,0,0,0,0,0,0,0],"split_type":[0,0,0,0,0,0,0,0,0,0,0,0,0,0,0,0,0,0,0,0,0,0,0,0,0,0,0,0,0,0,0,0,0,0,0,0,0,0,0,0,0,0,0,0,0,0,0,0,0,0,0,0,0,0,0,0,0,0,0,0,0,0,0,0,0,0,0,0,0,0,0,0,0],"sum_hessian":[4.768063E3,3.3335198E3,1.4345435E3,3.067724E3,2.657957E2,2.2017818E2,1.2143654E3,3.0256445E3,4.2079502E1,8.26619E1,1.8313377E2,1.7952582E2,4.065235E1,2.8101051E1,1.1862643E3,2.2293713E3,7.9627325E2,1.8098137E1,2.3981365E1,4.5052975E1,3.760893E1,3.2114407E1,1.5101938E2,1.716473E2,7.8785267E0,1.1584507E1,2.9067844E1,1.5604316E1,1.2496736E1,5.644443E2,6.2181995E2,1.6890942E2,6.2736383E2,6.4857225E0,1.7495644E1,4.187035E1,3.1826248E0,1.7151693E1,2.0457235E1,1.7112011E1,1.5002398E1,4.534031E0,3.3444958E0,7.7424355E0,3.8420715E0,1.618103E1,1.2886813E1,8.606479E0,6.9978375E0,3.2097776E0,9.286958E0,1.5991609E2,4.045282E2,1.240788E2,4.483062E1,6.162502E2,1.1113648E1,1.3091842E1,4.4038014E0,1.2430019E1,4.7216744E0,1.1697012E1,5.414999E0,8.190924E0,7.9901066E0,3.3812656E0,9.505548E0,3.4480813E0,3.5497563E0,1.1816549E1,1.4809955E2,2.2839032E2,1.7613788E2],"tree_param":{"num_deleted":"0","num_feature":"10","num_nodes":"73","size_leaf_vector":"1"}},{"base_weights":[2.759227E-3,-3.2222062E-2,1.9251984E-1,3.4506327E-1,-4.1671342E-1,-5.788176E-2,7.3462105E-1,3.9656362E-1,-6.108624E-1,-3.6118814E-1,1.3573365E0,1.2462522E0,-2.4398296E-1,1.5119542E0,-2.0702866E-1,-4.4774127E-1,-3.218701E-2,-5.842285E-1,-5.435328E-2,1.4131905E0,4.1932437E-1,1.0577502E0,1.4070754E0,1.5758234E-1,-4.113309E-1,7.930976E-2,1.4013163E-2,-3.497887E-2,-3.619993E-1,-8.1158355E-2,-6.079095E-1,-3.1056447E-2,-8.88654E-3,-1.4495835E-2,2.8194526E-2,1.0003012E-2,7.147209E-2,4.3256417E-2,7.993649E-3,4.1322853E-2,6.712104E-2,7.292519E-2,4.524188E-2,5.265069E-2,1.0238801E-3,5.4787107E-2,-2.2768822E-2,-1.9822469E-2,1.1474484E-2,-9.257965E-3,-2.6400292E-2,1.7098328E-2,-2.6857812E-2,-9.902736E-3,-3.112339E-2],"categories":[],"categories_nodes":[],"categories_segments":[],"categories_sizes":[],"default_left":[0,0,0,0,0,0,0,0,0,0,0,0,0,0,0,0,0,0,0,0,0,0,0,0,0,0,0,0,0,0,0,0,0,0,0,0,0,0,0,0,0,0,0,0,0,0,0,0,0,0,0,0,0,0,0],"id":13,"left_children":[1,-1,3,5,7,9,11,13,15,17,19,21,23,25,27,29,-1,31,33,35,37,39,41,43,45,-1,-1,47,49,51,53,-1,-1,-1,-1,-1,-1,-1,-1,-1,-1,-1,-1,-1,-1,-1,-1,-1,-1,-1,-1,-1,-1,-1,-1],"loss_changes":[5.8972986E2,0E0,3.4525238E2,4.664049E2,1.1773041E2,6.275197E2,7.567301E2,9.730859E1,2.8261871E0,8.230182E1,1.2741669E1,2.8344238E1,3.499357E1,4.0048447E0,2.4587169E0,6.0245495E0,0E0,1.0263275E1,7.413208E1,4.3414917E0,1.6123965E0,2.9033936E1,1.21875E1,1.8694695E1,2.48003E1,0E0,0E0,4.509292E0,1.2733936E0,6.600408E0,2.2705078E-1,0E0,0E0,0E0,0E0,0E0,0E0,0E0,0E0,0E0,0E0,0E0,0E0,0E0,0E0,0E0,0E0,0E0,0E0,0E0,0E0,0E0,0E0,0E0,0E0],"parents":[2147483647,0,0,2,2,3,3,4,4,5,5,6,6,7,7,8,8,9,9,10,10,11,11,12,12,13,13,14,14,15,15,17,17,18,18,19,19,20,20,21,21,22,22,23,23,24,24,27,27,28,28,29,29,30,30],"right_children":[2,-1,4,6,8,10,12,14,16,18,20,22,24,26,28,30,-1,32,34,36,38,40,42,44,46,-1,-1,48,50,52,54,-1,-1,-1,-1,-1,-1,-1,-1,-1,-1,-1,-1,-1,-1,-1,-1,-1,-1,-1,-1,-1,-1,-1,-1],"split_conditions":[1E0,-3.2222062E-2,3E0,2E0,5.7E0,6.5E0,6.5E0,6.5E1,6.5E0,5.7E0,1.455E1,6.5E1,7.5E0,1.803E1,1.755E1,6.4E1,-3.218701E-2,2.99E1,1E0,3.99E0,7.7E0,5.7E0,3.02E1,4E1,5.74E0,7.930976E-2,1.4013163E-2,1.379E1,7.6E1,2.4E1,1.109E1,-3.1056447E-2,-8.88654E-3,-1.4495835E-2,2.8194526E-2,1.0003012E-2,7.147209E-2,4.3256417E-2,7.993649E-3,4.1322853E-2,6.712104E-2,7.292519E-2,4.524188E-2,5.265069E-2,1.0238801E-3,5.4787107E-2,-2.2768822E-2,-1.9822469E-2,1.1474484E-2,-9.257965E-3,-2.6400292E-2,1.7098328E-2,-2.6857812E-2,-9.902736E-3,-3.112339E-2],"split_indices":[7,0,7,7,2,2,2,0,2,2,8,0,2,8,8,0,0,1,6,8,2,2,1,0,8,0,0,8,0,1,8,0,0,0,0,0,0,0,0,0,0,0,0,0,0,0,0,0,0,0,0,0,0,0,0],"split_type":[0,0,0,0,0,0,0,0,0,0,0,0,0,0,0,0,0,0,0,0,0,0,0,0,0,0,0,0,0,0,0,0,0,0,0,0,0,0,0,0,0,0,0,0,0,0,0,0,0,0,0,0,0,0,0],"sum_hessian":[4.800203E3,1.0876667E3,3.7125361E3,2.9695903E3,7.4294586E2,1.4600059E3,1.5095846E3,1.4287872E2,6.0006714E2,1.2029976E3,2.5700827E2,9.911979E2,5.183867E2,4.9699234E1,9.317949E1,1.0362067E2,4.9644647E2,6.959076E2,5.0708994E2,2.41986E2,1.5022272E1,4.601049E2,5.31093E2,1.5232678E2,3.6605994E2,4.652585E1,3.1733859E0,4.5043167E1,4.8136326E1,3.2155727E1,7.146494E1,6.3728326E2,5.8624363E1,3.6768668E2,1.3940326E2,3.4561262E0,2.3852988E2,4.525839E0,1.0496433E1,2.5619913E2,2.0390575E2,4.7985373E2,5.1239258E1,1.9242727E1,1.3308405E2,9.652131E0,3.564078E2,1.8980314E1,2.6062853E1,2.4623585E1,2.3512741E1,1.6695023E1,1.5460704E1,3.1879833E0,6.8276955E1],"tree_param":{"num_deleted":"0","num_feature":"10","num_nodes":"55","size_leaf_vector":"1"}},{"base_weights":[-2.5609157E-3,1.3121438E0,-5.120417E-1,1.4275962E0,4.0259972E-1,-1.3194317E-1,-6.3371146E-1,1.4732977E0,3.2566372E-1,9.9882746E-1,-5.1341605E-1,5.910541E-1,-6.2586075E-1,-4.640848E-1,-6.406347E-1,1.525338E0,1.1507756E0,1.0092407E0,-2.9413074E-2,1.2718513E0,-3.024124E-2,-0E0,-2.971297E-2,1.2927567E0,-3.948906E-2,-4.2524534E-1,-3.223079E-2,-1.9915731E-1,-3.1769816E-2,-5.820162E-1,-3.2264426E-2,1.5298747E0,8.435292E-3,1.5038712E0,6.5085864E-1,7.523028E-2,4.0341876E-2,1.3915559E0,-2.5939608E-2,-2.6537905E-2,3.592058E-2,1.4148932E0,-3.0129964E-2,3.5677254E-1,-3.2162808E-2,-5.70086E-1,3.1209698E-2,4.2433783E-1,-3.1133786E-2,-4.531776E-1,-3.2002408E-2,7.667571E-2,1.735411E-2,7.627188E-2,3.1074826E-2,6.749582E-2,-2.8498907E-2,4.0148735E-2,-2.7527822E-2,7.6562785E-2,4.9062528E-2,7.825196E-2,2.2170458E-2,6.4963736E-2,-3.1957705E-2,-1.1037319E-2,-3.1178294E-2,7.0154056E-2,-1.799555E-2,-5.441396E-4,-3.163714E-2],"categories":[],"categories_nodes":[],"categories_segments":[],"categories_sizes":[],"default_left":[0,0,0,0,0,0,0,0,0,0,0,0,0,0,0,0,0,0,0,0,0,0,0,0,0,0,0,0,0,0,0,0,0,0,0,0,0,0,0,0,0,0,0,0,0,0,0,0,0,0,0,0,0,0,0,0,0,0,0,0,0,0,0,0,0,0,0,0,0,0,0],"id":14,"left_children":[1,3,5,7,9,11,13,15,17,19,21,23,25,27,29,31,33,35,-1,37,-1,39,-1,41,43,45,-1,47,-1,49,-1,51,-1,53,55,-1,57,59,-1,-1,-1,61,-1,63,-1,65,-1,67,-1,69,-1,-1,-1,-1,-1,-1,-1,-1,-1,-1,-1,-1,-1,-1,-1,-1,-1,-1,-1,-1,-1],"loss_changes":[3.1938164E3,1.3908228E2,1.5877124E2,5.882617E1,8.329747E1,2.9847388E2,2.6489258E0,1.7006836E1,3.0879047E1,4.1190033E1,2.4599323E0,1.5027863E2,1.4871216E0,4.612747E0,1.8310547E-1,5.5603027E0,2.737799E1,1.3283981E1,0E0,1.7771454E1,0E0,3.925078E0,0E0,3.8127502E1,4.322268E1,7.3189373E0,0E0,1.1748364E1,0E0,1.0621719E0,0E0,3.453125E0,0E0,6.2568665E-1,5.963446E1,0E0,5.248986E0,2.5164795E0,0E0,0E0,0E0,2.1173157E1,0E0,1.0317768E2,0E0,5.418768E-1,0E0,1.4472332E1,0E0,5.0645504E0,0E0,0E0,0E0,0E0,0E0,0E0,0E0,0E0,0E0,0E0,0E0,0E0,0E0,0E0,0E0,0E0,0E0,0E0,0E0,0E0,0E0],"parents":[2147483647,0,0,1,1,2,2,3,3,4,4,5,5,6,6,7,7,8,8,9,9,10,10,11,11,12,12,13,13,14,14,15,15,16,16,17,17,19,19,21,21,23,23,24,24,25,25,27,27,29,29,31,31,33,33,34,34,36,36,37,37,41,41,43,43,45,45,47,47,49,49],"right_children":[2,4,6,8,10,12,14,16,18,20,22,24,26,28,30,32,34,36,-1,38,-1,40,-1,42,44,46,-1,48,-1,50,-1,52,-1,54,56,-1,58,60,-1,-1,-1,62,-1,64,-1,66,-1,68,-1,70,-1,-1,-1,-1,-1,-1,-1,-1,-1,-1,-1,-1,-1,-1,-1,-1,-1,-1,-1,-1,-1],"split_conditions":[1E0,5E1,1.3E2,1.4E2,1.26E0,1.47E0,6.46E0,1.3E2,1.1E0,1.4E2,1.47E0,4E1,1.81E0,1.4E2,4E1,1.518E1,1.26E0,2.5E1,-2.9413074E-2,2.98E1,-3.024124E-2,2.08E1,-2.971297E-2,3E1,1E0,2.58E1,-3.223079E-2,1E0,-3.1769816E-2,1.4E2,-3.2264426E-2,4.17E0,8.435292E-3,3.01E1,4E1,7.523028E-2,1.031E1,2.5E1,-2.5939608E-2,-2.6537905E-2,3.592058E-2,1.12E0,-3.0129964E-2,6.5E1,-3.2162808E-2,1.53E0,3.1209698E-2,8.6E-1,-3.1133786E-2,1E0,-3.2002408E-2,7.667571E-2,1.735411E-2,7.627188E-2,3.1074826E-2,6.749582E-2,-2.8498907E-2,4.0148735E-2,-2.7527822E-2,7.6562785E-2,4.9062528E-2,7.825196E-2,2.2170458E-2,6.4963736E-2,-3.1957705E-2,-1.1037319E-2,-3.1178294E-2,7.0154056E-2,-1.799555E-2,-5.441396E-4,-3.163714E-2],"split_indices":[7,0,3,3,9,9,8,3,9,3,9,0,9,3,0,8,9,1,0,1,0,1,0,1,4,1,0,4,0,3,0,9,0,1,0,0,8,1,0,0,0,9,0,0,0,9,0,9,0,4,0,0,0,0,0,0,0,0,0,0,0,0,0,0,0,0,0,0,0,0,0],"split_type":[0,0,0,0,0,0,0,0,0,0,0,0,0,0,0,0,0,0,0,0,0,0,0,0,0,0,0,0,0,0,0,0,0,0,0,0,0,0,0,0,0,0,0,0,0,0,0,0,0,0,0,0,0,0,0,0,0,0,0,0,0,0,0,0,0,0,0,0,0,0,0],"sum_hessian":[4.7663105E3,1.3306984E3,3.435612E3,1.1802098E3,1.504886E2,8.33779E2,2.601833E3,1.1328003E3,4.7409473E1,9.1167274E1,5.9321327E1,3.3824963E2,4.955294E2,1.0526277E2,2.4965703E3,9.719347E2,1.6086563E2,2.712572E1,2.0283754E1,7.81341E1,1.3033171E1,8.330119E0,5.099121E1,1.5966931E2,1.785803E2,4.484498E1,4.506844E2,4.241526E1,6.284751E1,1.9447978E2,2.3020903E3,9.684946E2,3.440083E0,9.29828E1,6.788283E1,1.751486E1,9.610859E0,7.349939E1,4.634716E0,4.9999456E0,3.3301737E0,1.5029085E2,9.378461E0,1.07964806E2,7.06155E1,3.989135E1,4.9536314E0,1.7060738E1,2.5354525E1,6.366572E1,1.3081407E2,9.6514374E2,3.3508844E0,8.994239E1,3.040418E0,4.315069E1,2.4732141E1,4.112919E0,5.49794E0,5.2610863E1,2.0888527E1,1.2955396E2,2.0736904E1,5.536529E1,5.2599514E1,6.2251453E0,3.3666203E1,7.2950025E0,9.765736E0,1.8850857E1,4.4814865E1],"tree_param":{"num_deleted":"0","num_feature":"10","num_nodes":"71","size_leaf_vector":"1"}},{"base_weights":[2.461237E-3,3.806961E-1,-5.059228E-1,-3.052952E-1,8.657976E-1,-1.9682932E-1,-6.2929183E-1,-4.7434503E-1,7.640058E-1,1.0779802E0,-4.975165E-1,1.5486024E-1,-4.7725096E-1,-4.4372234E-1,-3.1775326E-2,-5.89922E-1,-1.3722424E-1,1.4349395E-1,7.681229E-2,9.8544395E-1,1.3453963E0,9.9967055E-2,-5.8447057E-1,1.2456524E0,-3.0722156E-2,-0E0,-3.121763E-2,8.172992E-3,-5.2430385E-1,-5.9739494E-1,2.8640023E-2,-4.6777496E-1,3.1316787E-1,-3.6857024E-2,7.136265E-2,7.525912E-1,1.0538312E0,1.5202878E0,9.67181E-1,6.70517E-2,-3.0477602E-2,-3.2411355E-1,-3.2113116E-2,7.958012E-2,2.1105951E-1,2.1461275E-1,-5.057677E-1,2.9914403E-1,-2.5969787E-2,-3.2258624E-1,-2.9943844E-2,-3.0128514E-2,6.38942E-3,-3.196995E-2,-8.310754E-3,9.203056E-3,7.62171E-2,-1.2942825E-2,1.7941471E-2,1.0843946E-2,7.401243E-2,5.978949E-2,4.2692877E-2,4.4315416E-2,7.711022E-2,7.682696E-2,2.6546884E-2,1.1273361E-2,-2.9422982E-2,2.458561E-2,-1.4867333E-2,6.418221E-2,7.6848984E-4,-1.7876733E-2,-2.9309839E-2,5.042281E-3,3.4574743E-2,2.174931E-3,-2.2035489E-2],"categories":[],"categories_nodes":[],"categories_segments":[],"categories_sizes":[],"default_left":[0,0,0,0,0,0,0,0,0,0,0,0,0,0,0,0,0,0,0,0,0,0,0,0,0,0,0,0,0,0,0,0,0,0,0,0,0,0,0,0,0,0,0,0,0,0,0,0,0,0,0,0,0,0,0,0,0,0,0,0,0,0,0,0,0,0,0,0,0,0,0,0,0,0,0,0,0,0,0],"id":15,"left_children":[1,3,5,7,9,11,13,15,17,19,21,23,25,27,-1,29,31,33,-1,35,37,39,41,43,45,47,-1,-1,49,51,-1,53,55,57,-1,59,61,63,65,-1,-1,67,-1,-1,69,71,73,75,-1,77,-1,-1,-1,-1,-1,-1,-1,-1,-1,-1,-1,-1,-1,-1,-1,-1,-1,-1,-1,-1,-1,-1,-1,-1,-1,-1,-1,-1,-1],"loss_changes":[9.146512E2,9.0799786E2,7.716925E1,2.0468954E2,4.6287646E2,5.73595E1,1.2818604E0,3.7908737E1,7.3707825E1,3.2670532E1,1.1320866E1,5.2415264E1,2.2684555E1,2.607727E0,0E0,6.6611023E0,3.7519382E1,2.031428E1,0E0,1.5454529E1,2.1603333E1,2.5660679E1,2.5347137E0,1.295414E1,2.5952835E1,1.2164033E1,0E0,0E0,3.9517212E-1,2.837494E0,0E0,7.3303604E0,1.6230429E1,6.856675E0,0E0,9.229938E1,2.1331665E1,1.713501E0,2.7396233E1,0E0,0E0,5.4881554E0,0E0,0E0,1.6861513E0,3.1082294E1,6.0061455E-1,3.710915E0,0E0,6.962856E-1,0E0,0E0,0E0,0E0,0E0,0E0,0E0,0E0,0E0,0E0,0E0,0E0,0E0,0E0,0E0,0E0,0E0,0E0,0E0,0E0,0E0,0E0,0E0,0E0,0E0,0E0,0E0,0E0,0E0],"parents":[2147483647,0,0,1,1,2,2,3,3,4,4,5,5,6,6,7,7,8,8,9,9,10,10,11,11,12,12,13,13,15,15,16,16,17,17,19,19,20,20,21,21,22,22,23,23,24,24,25,25,28,28,29,29,31,31,32,32,33,33,35,35,36,36,37,37,38,38,41,41,44,44,45,45,46,46,47,47,49,49],"right_children":[2,4,6,8,10,12,14,16,18,20,22,24,26,28,-1,30,32,34,-1,36,38,40,42,44,46,48,-1,-1,50,52,-1,54,56,58,-1,60,62,64,66,-1,-1,68,-1,-1,70,72,74,76,-1,78,-1,-1,-1,-1,-1,-1,-1,-1,-1,-1,-1,-1,-1,-1,-1,-1,-1,-1,-1,-1,-1,-1,-1,-1,-1,-1,-1,-1,-1],"split_conditions":[2E0,1E0,1.2E0,5E1,6.5E0,6.5E1,5.7E0,4E1,5.7E0,6.4E1,3.83E0,1E0,1E0,1E0,-3.1775326E-2,3.49E1,5.7E0,2.98E1,7.681229E-2,3E1,1.75E0,4E1,7.5E0,2.6E1,2.49E1,2.51E1,-3.121763E-2,8.172992E-3,2.48E1,3.89E0,2.8640023E-2,2.51E1,3E1,2.46E1,7.136265E-2,5.7E0,5E1,6.5E1,2.49E1,6.70517E-2,-3.0477602E-2,2.37E1,-3.2113116E-2,7.958012E-2,2.81E1,4E1,1E0,2.31E1,-2.5969787E-2,6.3E1,-2.9943844E-2,-3.0128514E-2,6.38942E-3,-3.196995E-2,-8.310754E-3,9.203056E-3,7.62171E-2,-1.2942825E-2,1.7941471E-2,1.0843946E-2,7.401243E-2,5.978949E-2,4.2692877E-2,4.4315416E-2,7.711022E-2,7.682696E-2,2.6546884E-2,1.1273361E-2,-2.9422982E-2,2.458561E-2,-1.4867333E-2,6.418221E-2,7.6848984E-4,-1.7876733E-2,-2.9309839E-2,5.042281E-3,3.4574743E-2,2.174931E-3,-2.2035489E-2],"split_indices":[7,7,9,0,2,0,2,0,2,0,9,6,6,6,0,1,2,1,0,0,9,0,2,1,1,1,0,0,1,9,0,1,1,1,0,2,0,0,1,0,0,1,0,0,1,0,4,1,0,0,0,0,0,0,0,0,0,0,0,0,0,0,0,0,0,0,0,0,0,0,0,0,0,0,0,0,0,0,0],"split_type":[0,0,0,0,0,0,0,0,0,0,0,0,0,0,0,0,0,0,0,0,0,0,0,0,0,0,0,0,0,0,0,0,0,0,0,0,0,0,0,0,0,0,0,0,0,0,0,0,0,0,0,0,0,0,0,0,0,0,0,0,0,0,0,0,0,0,0,0,0,0,0,0,0,0,0,0,0,0,0],"sum_hessian":[4.7547227E3,2.7265974E3,2.0281252E3,1.129506E3,1.5970914E3,5.79537E2,1.4485883E3,9.75876E2,1.5363E2,1.3822452E3,2.1484625E2,2.5713873E2,3.2239825E2,4.9808437E1,1.3987798E3,7.259486E2,2.499274E2,8.591262E1,6.7717384E1,1.0306575E3,3.5158774E2,2.7129917E1,1.8771634E2,3.6635292E1,2.2050345E2,7.6244576E1,2.4615369E2,5.569881E0,4.4238556E1,7.2188116E2,4.0674148E0,1.442461E2,1.0568131E2,7.611314E1,9.799484E0,2.3703629E2,7.936212E2,2.3817056E2,1.1341717E2,9.595925E0,1.753399E1,3.561341E1,1.5210294E2,2.6978954E1,9.656339E0,1.4563084E2,7.487261E1,4.861127E1,2.7633307E1,1.373974E1,3.0498817E1,7.1707074E2,4.810445E0,9.100266E1,5.3243427E1,9.6616844E1,9.064471E0,4.91411E1,2.6972038E1,1.3735152E2,9.968477E1,4.6093213E2,3.326891E2,9.495578E0,2.2867499E2,4.800827E1,6.54089E1,1.1491382E1,2.4122028E1,6.3696594E0,3.28668E0,2.19444E1,1.2368645E2,2.8688183E1,4.6184425E1,3.329534E1,1.53159275E1,3.2994294E0,1.04403105E1],"tree_param":{"num_deleted":"0","num_feature":"10","num_nodes":"79","size_leaf_vector":"1"}},{"base_weights":[2.9335194E-3,-4.716904E-1,1.0579246E0,-6.107902E-1,1.0142897E0,-4.3642798E-1,1.3115073E0,-6.2156475E-1,9.957812E-2,3.2388946E-1,1.3088311E0,-5.9030575E-1,4.520141E-1,7.424552E-1,1.4170222E0,-3.175425E-2,-4.9721095E-1,-3.052335E-2,6.6094464E-1,-4.925876E-1,1.166284E0,2.7637708E-1,7.2950035E-2,-6.218156E-1,-1.1160278E-1,-4.2918625E-1,1.2991443E0,-2.8367484E-2,9.8307025E-1,9.5179915E-1,7.115955E-2,-6.111006E-1,3.491822E-2,-1.9268736E-1,6.3411854E-2,-3.1494018E-2,4.898798E-2,6.028834E-1,7.2312005E-2,-5.180786E-1,6.1391927E-2,-3.196414E-2,-1.5207459E-1,-2.7452474E-2,2.1172294E-2,-3.0186996E-2,1.1019822E-2,1.1461164E-2,7.578236E-2,-2.8471574E-1,6.396844E-2,-2.9270878E-2,1.0864831E0,-1.248232E-2,6.932389E-2,-3.1815153E-2,-6.286847E-3,-2.5790853E-2,3.4684088E-2,-2.8173009E-2,2.107258E-2,-2.8837053E-2,6.932389E-2,-6.359155E-3,-3.040737E-2,9.88021E-3,-2.4190664E-2,9.732265E-3,-2.7046159E-2,3.9759528E-2,7.354151E-2],"categories":[],"categories_nodes":[],"categories_segments":[],"categories_sizes":[],"default_left":[0,0,0,0,0,0,0,0,0,0,0,0,0,0,0,0,0,0,0,0,0,0,0,0,0,0,0,0,0,0,0,0,0,0,0,0,0,0,0,0,0,0,0,0,0,0,0,0,0,0,0,0,0,0,0,0,0,0,0,0,0,0,0,0,0,0,0,0,0,0,0],"id":16,"left_children":[1,3,5,7,9,11,13,15,17,19,21,23,25,27,29,-1,31,-1,33,35,37,39,-1,41,43,45,47,49,51,53,-1,55,57,59,-1,-1,-1,61,-1,63,-1,-1,65,-1,-1,-1,-1,-1,-1,67,-1,-1,69,-1,-1,-1,-1,-1,-1,-1,-1,-1,-1,-1,-1,-1,-1,-1,-1,-1,-1],"loss_changes":[2.3584534E3,6.720328E2,5.544911E2,2.2854614E1,5.6019318E1,2.9362457E1,7.3773926E1,4.4921875E0,1.8390806E1,5.8880783E1,2.960907E1,2.6002502E0,2.4438871E1,3.679853E1,1.4301758E0,0E0,1.7797043E1,0E0,1.3702732E1,9.403966E0,5.552948E0,2.0390871E1,0E0,1.2201614E0,3.20478E0,2.0215409E0,3.313549E0,1.6327383E1,2.515039E1,9.344098E0,0E0,2.792099E0,1.9362007E1,2.8714767E0,0E0,0E0,0E0,1.5472841E1,0E0,3.7149668E-1,0E0,0E0,1.0080938E0,0E0,0E0,0E0,0E0,0E0,0E0,5.1683893E0,0E0,0E0,1.44913025E1,0E0,0E0,0E0,0E0,0E0,0E0,0E0,0E0,0E0,0E0,0E0,0E0,0E0,0E0,0E0,0E0,0E0,0E0],"parents":[2147483647,0,0,1,1,2,2,3,3,4,4,5,5,6,6,7,7,8,8,9,9,10,10,11,11,12,12,13,13,14,14,16,16,18,18,19,19,20,20,21,21,23,23,24,24,25,25,26,26,27,27,28,28,29,29,31,31,32,32,33,33,37,37,39,39,42,42,49,49,52,52],"right_children":[2,4,6,8,10,12,14,16,18,20,22,24,26,28,30,-1,32,-1,34,36,38,40,-1,42,44,46,48,50,52,54,-1,56,58,60,-1,-1,-1,62,-1,64,-1,-1,66,-1,-1,-1,-1,-1,-1,68,-1,-1,70,-1,-1,-1,-1,-1,-1,-1,-1,-1,-1,-1,-1,-1,-1,-1,-1,-1,-1],"split_conditions":[6.5E0,3E0,2E0,2.27E1,6.5E1,1.327E1,1.3E2,1.64E2,5.7E0,5.7E0,1.59E2,1.4E2,1.3E2,7.5E0,3.5E1,-3.175425E-2,1E0,-3.052335E-2,1.57E2,3.01E1,1.6E2,5.7E0,7.2950035E-2,1.277E1,1.086E1,1.58E1,7.3E0,3E0,6.22E0,7.3E0,7.115955E-2,3.02E1,5.7E0,3.33E1,6.3411854E-2,-3.1494018E-2,4.898798E-2,2.5E1,7.2312005E-2,1.47E2,6.1391927E-2,-3.196414E-2,1.287E1,-2.7452474E-2,2.1172294E-2,-3.0186996E-2,1.1019822E-2,1.1461164E-2,7.578236E-2,5.6E1,6.396844E-2,-2.9270878E-2,2.49E1,-1.248232E-2,6.932389E-2,-3.1815153E-2,-6.286847E-3,-2.5790853E-2,3.4684088E-2,-2.8173009E-2,2.107258E-2,-2.8837053E-2,6.932389E-2,-6.359155E-3,-3.040737E-2,9.88021E-3,-2.4190664E-2,9.732265E-3,-2.7046159E-2,3.9759528E-2,7.354151E-2],"split_indices":[2,7,7,8,0,8,3,3,2,2,3,3,3,2,0,0,4,0,3,1,3,2,0,8,8,8,2,7,8,2,0,1,2,1,0,0,0,1,0,3,0,0,8,0,0,0,0,0,0,0,0,0,1,0,0,0,0,0,0,0,0,0,0,0,0,0,0,0,0,0,0],"split_type":[0,0,0,0,0,0,0,0,0,0,0,0,0,0,0,0,0,0,0,0,0,0,0,0,0,0,0,0,0,0,0,0,0,0,0,0,0,0,0,0,0,0,0,0,0,0,0,0,0,0,0,0,0,0,0,0,0,0,0,0,0,0,0,0,0,0,0,0,0,0,0],"sum_hessian":[4.7079727E3,3.2474526E3,1.4605198E3,2.970085E3,2.7736783E2,2.117239E2,1.2487958E3,2.9259707E3,4.4114082E1,8.367472E1,1.936931E2,1.8084906E2,3.0874847E1,1.9674014E2,1.0520557E3,2.6346125E3,2.9135825E2,1.9360422E1,2.4753658E1,4.2641598E1,4.1033127E1,2.5040398E1,1.686527E2,1.6920364E2,1.1645418E1,1.531707E1,1.5557777E1,4.691429E1,1.4982585E2,1.6011799E1,1.0360438E3,2.4002586E2,5.1332363E1,1.0505207E1,1.4248452E1,3.959004E1,3.05156E0,1.4786522E1,2.6246605E1,1.3837057E1,1.1203341E1,1.6258421E2,6.6194324E0,6.4955215E0,5.149897E0,1.2249849E1,3.0672212E0,3.0425658E0,1.2515212E1,3.99432E1,6.9710917E0,8.919143E0,1.4090671E2,4.305918E0,1.170588E1,2.276863E2,1.2339578E1,2.7994104E1,2.3338257E1,6.70348E0,3.8017275E0,5.9562845E0,8.830237E0,3.2508419E0,1.0586215E1,3.2726727E0,3.3467598E0,1.3860444E1,2.6082756E1,8.205055E1,5.885616E1],"tree_param":{"num_deleted":"0","num_feature":"10","num_nodes":"71","size_leaf_vector":"1"}},{"base_weights":[3.9605414E-3,-3.1897437E-2,1.8619534E-1,3.3200562E-1,-4.1331246E-1,6.259884E-2,8.9130986E-1,3.4988174E-1,-6.0876393E-1,-3.3409926E-1,3.0229583E-1,1.0413479E0,-5.6265587E-1,1.3900499E0,-2.419934E-1,-4.6755633E-1,-3.1849902E-2,-3.166248E-2,5.1048183E-1,4.331616E-1,2.0744836E-2,1.8908063E-1,1.296255E0,-2.5655398E-1,-3.0961597E-2,7.264613E-2,1.3843595E-2,7.119222E-2,-3.1913284E-2,3.354545E-2,-5.409566E-1,-8.843497E-3,4.755031E-2,1.6523836E-3,3.650622E-2,-1.0541028E-2,6.791722E-2,-1.8453984E-2,4.4624653E-2,6.6411436E-2,2.1600632E-2,1.0858758E-2,-2.9001439E-2,-9.065296E-3,-3.163679E-2],"categories":[],"categories_nodes":[],"categories_segments":[],"categories_sizes":[],"default_left":[0,0,0,0,0,0,0,0,0,0,0,0,0,0,0,0,0,0,0,0,0,0,0,0,0,0,0,0,0,0,0,0,0,0,0,0,0,0,0,0,0,0,0,0,0],"id":17,"left_children":[1,-1,3,5,7,9,11,13,15,17,19,21,23,25,27,29,-1,-1,31,33,35,37,39,41,-1,-1,-1,-1,-1,-1,43,-1,-1,-1,-1,-1,-1,-1,-1,-1,-1,-1,-1,-1,-1],"loss_changes":[5.521837E2,0E0,3.2155438E2,4.456159E2,1.0758973E2,1.9006526E2,2.1039423E2,9.111081E1,1.8778076E0,1.9053381E2,4.585598E1,1.8905023E2,1.3213463E0,3.177124E0,6.330733E1,8.697672E0,0E0,0E0,6.0006535E1,1.00937546E2,1.2326798E2,7.970073E1,1.7791504E1,2.6302118E0,0E0,0E0,0E0,0E0,0E0,0E0,2.9225883E0,0E0,0E0,0E0,0E0,0E0,0E0,0E0,0E0,0E0,0E0,0E0,0E0,0E0,0E0],"parents":[2147483647,0,0,2,2,3,3,4,4,5,5,6,6,7,7,8,8,9,9,10,10,11,11,12,12,13,13,14,14,15,15,18,18,19,19,20,20,21,21,22,22,23,23,30,30],"right_children":[2,-1,4,6,8,10,12,14,16,18,20,22,24,26,28,30,-1,-1,32,34,36,38,40,42,-1,-1,-1,-1,-1,-1,44,-1,-1,-1,-1,-1,-1,-1,-1,-1,-1,-1,-1,-1,-1],"split_conditions":[1E0,-3.1897437E-2,3E0,1.51E2,5.7E0,5.7E0,6.5E0,6.5E1,6.5E0,2E0,6.3E1,2E0,4.3E1,1.832E1,1.6E2,1.47E2,-3.1849902E-2,-3.166248E-2,1.4E2,6.5E0,1E0,5.7E0,2.27E1,1.55E2,-3.0961597E-2,7.264613E-2,1.3843595E-2,7.119222E-2,-3.1913284E-2,3.354545E-2,1.6E2,-8.843497E-3,4.755031E-2,1.6523836E-3,3.650622E-2,-1.0541028E-2,6.791722E-2,-1.8453984E-2,4.4624653E-2,6.6411436E-2,2.1600632E-2,1.0858758E-2,-2.9001439E-2,-9.065296E-3,-3.163679E-2],"split_indices":[7,0,7,3,2,2,2,0,2,7,0,7,0,8,3,3,0,0,3,2,4,2,8,3,0,0,0,0,0,0,3,0,0,0,0,0,0,0,0,0,0,0,0,0,0],"split_type":[0,0,0,0,0,0,0,0,0,0,0,0,0,0,0,0,0,0,0,0,0,0,0,0,0,0,0,0,0,0,0,0,0,0,0,0,0,0,0,0,0,0,0,0,0],"sum_hessian":[4.7187695E3,1.0427405E3,3.676029E3,2.9573623E3,7.1866675E2,1.9968206E3,9.6054175E2,1.4625845E2,5.7240826E2,7.5179315E2,1.2450273E3,8.710126E2,8.95292E1,5.2614147E1,9.364431E1,9.889664E1,4.7351166E2,5.55429E2,1.9636415E2,8.4935223E2,3.9567514E2,2.0102641E2,6.6998615E2,1.5105246E1,7.442395E1,4.9427433E1,3.1867166E0,1.7448666E1,7.619564E1,5.414409E0,9.348223E1,7.684075E1,1.1952341E2,3.6245084E2,4.8690137E2,3.3793878E2,5.773637E1,1.12271614E2,8.87548E1,6.4545416E2,2.4531982E1,6.1370316E0,8.968214E0,1.9832102E1,7.365013E1],"tree_param":{"num_deleted":"0","num_feature":"10","num_nodes":"45","size_leaf_vector":"1"}},{"base_weights":[-5.2665994E-3,1.2291731E0,-5.0747204E-1,1.3319418E0,3.6383185E-1,5.743384E-2,-5.823001E-1,1.3834975E0,1.0085727E0,9.300034E-1,-3.1640317E-2,7.064226E-1,-3.1790923E-2,-4.7871262E-1,-3.193819E-2,1.3862021E0,1.76571E-2,6.260577E-2,5.829121E-1,1.0633626E0,-2.7888441E-2,1.0071852E0,-5.7842057E-2,-3.2349432E-1,-3.1908482E-2,7.048359E-2,1.2207283E0,8E-1,-1.4471912E-1,5.9239734E-2,7.088626E-1,1.0957074E0,-2.9013405E-2,1.2536564E-1,-2.9792253E-2,-1.9690344E-1,-3.1824216E-2,7.053866E-2,4.4292163E-2,2.0151203E-2,4.6390053E-2,2.201116E-2,-2.9767057E-2,9.2751574E-4,4.2219598E-2,6.1833955E-2,4.4533364E-2,2.6434073E-2,-3.5183614E-3,-2.0950617E-2,1.87126E-2],"categories":[],"categories_nodes":[],"categories_segments":[],"categories_sizes":[],"default_left":[0,0,0,0,0,0,0,0,0,0,0,0,0,0,0,0,0,0,0,0,0,0,0,0,0,0,0,0,0,0,0,0,0,0,0,0,0,0,0,0,0,0,0,0,0,0,0,0,0,0,0],"id":18,"left_children":[1,3,5,7,9,11,13,15,17,19,-1,21,-1,23,-1,25,-1,-1,27,29,-1,31,33,35,-1,-1,37,39,41,-1,43,45,-1,47,-1,49,-1,-1,-1,-1,-1,-1,-1,-1,-1,-1,-1,-1,-1,-1,-1],"loss_changes":[2.9526516E3,1.2182764E2,1.4319836E2,1.8881836E1,8.395137E1,1.7896371E2,1.7069885E1,2.2858887E0,1.7039215E1,1.9422981E1,0E0,4.738304E1,0E0,2.5917984E1,0E0,2.1142578E0,0E0,0E0,1.0455713E1,2.7275314E0,0E0,2.1427979E1,5.9249744E0,2.1154396E1,0E0,0E0,7.3710938E0,2.0477982E0,4.4126515E0,0E0,2.233798E0,2.7383728E0,0E0,3.6044583E0,0E0,4.9075356E1,0E0,0E0,0E0,0E0,0E0,0E0,0E0,0E0,0E0,0E0,0E0,0E0,0E0,0E0,0E0],"parents":[2147483647,0,0,1,1,2,2,3,3,4,4,5,5,6,6,7,7,8,8,9,9,11,11,13,13,15,15,18,18,19,19,21,21,22,22,23,23,26,26,27,27,28,28,30,30,31,31,33,33,35,35],"right_children":[2,4,6,8,10,12,14,16,18,20,-1,22,-1,24,-1,26,-1,-1,28,30,-1,32,34,36,-1,-1,38,40,42,-1,44,46,-1,48,-1,50,-1,-1,-1,-1,-1,-1,-1,-1,-1,-1,-1,-1,-1,-1,-1],"split_conditions":[1E0,5E1,3.4E1,1.053E1,5.7E0,5.7E0,2E0,3.44E1,5.7E0,2.98E1,-3.1640317E-2,1E0,-3.1790923E-2,5.7E0,-3.193819E-2,4.1E1,1.76571E-2,6.260577E-2,3E1,2.51E1,-2.7888441E-2,3E1,1E0,6.5E1,-3.1908482E-2,7.048359E-2,5.7E0,2.5E1,4E1,5.9239734E-2,1.322E1,2.7E1,-2.9013405E-2,5.2E0,-2.9792253E-2,5.6E1,-3.1824216E-2,7.053866E-2,4.4292163E-2,2.0151203E-2,4.6390053E-2,2.201116E-2,-2.9767057E-2,9.2751574E-4,4.2219598E-2,6.1833955E-2,4.4533364E-2,2.6434073E-2,-3.5183614E-3,-2.0950617E-2,1.87126E-2],"split_indices":[7,0,0,8,2,2,7,1,2,1,0,6,0,2,0,0,0,0,1,1,0,1,4,0,0,0,2,1,0,0,8,0,0,8,0,0,0,0,0,0,0,0,0,0,0,0,0,0,0,0,0],"split_type":[0,0,0,0,0,0,0,0,0,0,0,0,0,0,0,0,0,0,0,0,0,0,0,0,0,0,0,0,0,0,0,0,0,0,0,0,0,0,0,0,0,0,0,0,0,0,0,0,0,0,0],"sum_hessian":[4.7608945E3,1.3762859E3,3.3846086E3,1.2296024E3,1.4668355E2,3.957601E2,2.9888486E3,1.057426E3,1.721763E2,9.364995E1,5.3033596E1,2.044703E2,1.9128981E2,1.0583901E3,1.9304585E3,1.0542164E3,3.209658E0,1.0813188E2,6.404442E1,8.626951E1,7.3804455E0,1.4659392E2,5.7876392E1,5.38176E2,5.202142E2,9.161523E2,1.3806413E2,4.9356842E1,1.4687579E1,6.2303535E1,2.3965971E1,1.3920415E2,7.389771E0,4.360766E1,1.4268734E1,3.8457907E2,1.5359694E2,8.583948E1,5.2224655E1,1.3222152E1,3.613469E1,6.3047223E0,8.382857E0,4.240731E0,1.972524E1,7.921927E1,5.9984875E1,1.3859482E1,2.9748178E1,2.7721725E2,1.0736181E2],"tree_param":{"num_deleted":"0","num_feature":"10","num_nodes":"51","size_leaf_vector":"1"}},{"base_weights":[5.533141E-4,3.7142745E-1,-5.06088E-1,-2.9513782E-1,8.2415783E-1,-2.3236649E-1,-6.2615895E-1,-4.6389008E-1,7.265784E-1,9.930201E-1,-5.461282E-1,1.1591092E0,-4.36749E-1,-5.62606E-1,-3.176558E-2,-6.108404E-1,1.5029699E-1,9.51844E-2,1.3368415E0,6.224746E-1,1.0790173E0,-9.845151E-2,-6.1549205E-1,1.367001E0,-2.7867591E-2,-1.5131025E-1,-3.203798E-2,4.0448397E-1,-6.132247E-1,-6.27668E-1,4.4150198E-1,-4.0845746E-1,7.351695E-1,-2.620759E-1,7.868081E-2,8.3538806E-1,7.0086226E-2,1.8911605E-1,1.2992312E0,1.2060707E0,7.9394466E-1,7.135038E-1,-4.4312438E-1,-4.0491098E-1,-3.1765826E-2,1.4191891E0,2.073512E-2,4.6450388E-2,-2.4455145E-2,3.0362353E-1,-3.2275386E-2,5.67899E-2,-2.4790674E-2,-3.232863E-1,-3.176486E-2,-3.1645585E-2,2.2055704E-2,-2.6505087E-2,5.529009E-2,-2.9913206E-2,1.2911324E-2,-2.8723336E-3,7.627168E-2,-2.1166807E-2,6.169614E-2,6.306093E-2,2.4335887E-3,-1.9735431E-2,4.631837E-2,6.7032956E-2,1.0207019E-2,3.414313E-2,6.7360036E-2,6.357246E-2,1.0852633E-2,5.828401E-2,1.005559E-3,-2.724032E-2,-0E0,8.209487E-3,-2.9275352E-2,7.745933E-2,4.495972E-2,4.4268426E-2,-3.1847235E-2,-2.7442724E-2,-2.6179533E-3],"categories":[],"categories_nodes":[],"categories_segments":[],"categories_sizes":[],"default_left":[0,0,0,0,0,0,0,0,0,0,0,0,0,0,0,0,0,0,0,0,0,0,0,0,0,0,0,0,0,0,0,0,0,0,0,0,0,0,0,0,0,0,0,0,0,0,0,0,0,0,0,0,0,0,0,0,0,0,0,0,0,0,0,0,0,0,0,0,0,0,0,0,0,0,0,0,0,0,0,0,0,0,0,0,0,0,0],"id":19,"left_children":[1,3,5,7,9,11,13,15,17,19,21,23,25,27,-1,29,31,33,35,37,39,41,43,45,47,49,-1,51,53,55,57,59,61,63,-1,65,-1,67,69,71,73,75,77,79,-1,81,-1,-1,-1,83,-1,-1,-1,85,-1,-1,-1,-1,-1,-1,-1,-1,-1,-1,-1,-1,-1,-1,-1,-1,-1,-1,-1,-1,-1,-1,-1,-1,-1,-1,-1,-1,-1,-1,-1,-1,-1],"loss_changes":[8.9257623E2,8.2799207E2,6.5749695E1,1.916995E2,3.7861487E2,1.750436E2,3.3392334E-1,8.618503E1,6.0477066E1,4.552014E1,5.4518623E0,1.9627487E1,3.1043991E1,9.358215E0,0E0,1.3924896E1,6.0704967E1,4.2082012E1,1.2085724E0,8.073748E1,4.155493E1,7.4276485E0,2.8709412E-1,2.567009E0,5.997414E0,5.0812008E1,0E0,7.039541E0,8.3109283E-1,4.546631E0,8.780699E0,1.2214101E1,5.704894E1,1.5914993E1,0E0,3.7668734E0,0E0,7.355102E1,4.4593353E0,5.894983E1,1.0059616E2,2.334238E0,8.417988E-1,1.83971E0,0E0,2.6330414E0,0E0,0E0,0E0,6.5001045E1,0E0,0E0,0E0,8.201014E-1,0E0,0E0,0E0,0E0,0E0,0E0,0E0,0E0,0E0,0E0,0E0,0E0,0E0,0E0,0E0,0E0,0E0,0E0,0E0,0E0,0E0,0E0,0E0,0E0,0E0,0E0,0E0,0E0,0E0,0E0,0E0,0E0,0E0],"parents":[2147483647,0,0,1,1,2,2,3,3,4,4,5,5,6,6,7,7,8,8,9,9,10,10,11,11,12,12,13,13,15,15,16,16,17,17,18,18,19,19,20,20,21,21,22,22,23,23,24,24,25,25,27,27,28,28,29,29,30,30,31,31,32,32,33,33,35,35,37,37,38,38,39,39,40,40,41,41,42,42,43,43,45,45,49,49,53,53],"right_children":[2,4,6,8,10,12,14,16,18,20,22,24,26,28,-1,30,32,34,36,38,40,42,44,46,48,50,-1,52,54,56,58,60,62,64,-1,66,-1,68,70,72,74,76,78,80,-1,82,-1,-1,-1,84,-1,-1,-1,86,-1,-1,-1,-1,-1,-1,-1,-1,-1,-1,-1,-1,-1,-1,-1,-1,-1,-1,-1,-1,-1,-1,-1,-1,-1,-1,-1,-1,-1,-1,-1,-1,-1],"split_conditions":[2E0,1E0,1.34E0,5E1,4.17E0,1.4E2,1.3E2,1.3E2,1.2E0,1.21E2,5.06E0,1.852E1,6.5E1,2.44E0,-3.176558E-2,1.361E1,1.1E0,1.4E2,1.47E0,1.47E0,1.75E0,3.7E1,5.75E0,1.17E0,1.3E2,1.6E2,-3.203798E-2,1.488E1,3.23E0,3.48E1,2.05E0,1.104E1,4E1,2.98E1,7.868081E-2,2.06E1,7.0086226E-2,4E1,3.69E0,1.3E2,1.4E2,1.2E2,3.17E1,7.33E0,-3.1765826E-2,2.51E1,2.073512E-2,4.6450388E-2,-2.4455145E-2,2.49E1,-3.2275386E-2,5.67899E-2,-2.4790674E-2,1.166E1,-3.176486E-2,-3.1645585E-2,2.2055704E-2,-2.6505087E-2,5.529009E-2,-2.9913206E-2,1.2911324E-2,-2.8723336E-3,7.627168E-2,-2.1166807E-2,6.169614E-2,6.306093E-2,2.4335887E-3,-1.9735431E-2,4.631837E-2,6.7032956E-2,1.0207019E-2,3.414313E-2,6.7360036E-2,6.357246E-2,1.0852633E-2,5.828401E-2,1.005559E-3,-2.724032E-2,-0E0,8.209487E-3,-2.9275352E-2,7.745933E-2,4.495972E-2,4.4268426E-2,-3.1847235E-2,-2.7442724E-2,-2.6179533E-3],"split_indices":[7,7,9,0,9,3,3,3,9,3,9,8,0,9,0,8,9,3,9,9,9,0,9,9,3,3,0,8,9,1,9,8,0,1,0,1,0,0,9,3,3,3,1,8,0,1,0,0,0,1,0,0,0,8,0,0,0,0,0,0,0,0,0,0,0,0,0,0,0,0,0,0,0,0,0,0,0,0,0,0,0,0,0,0,0,0,0],"split_type":[0,0,0,0,0,0,0,0,0,0,0,0,0,0,0,0,0,0,0,0,0,0,0,0,0,0,0,0,0,0,0,0,0,0,0,0,0,0,0,0,0,0,0,0,0,0,0,0,0,0,0,0,0,0,0,0,0,0,0,0,0,0,0,0,0,0,0,0,0,0,0,0,0,0,0,0,0,0,0,0,0,0,0,0,0,0,0],"sum_hessian":[4.74834E3,2.741764E3,2.0065756E3,1.1090345E3,1.6327295E3,6.1297217E2,1.3936034E3,9.5237836E2,1.5665616E2,1.4539104E3,1.788191E2,7.7842804E1,5.3512933E2,1.8467465E2,1.2089288E3,7.6864154E2,1.837368E2,7.764375E1,7.901241E1,2.7563837E2,1.1782721E3,2.4507547E1,1.5431155E2,6.618371E1,1.1659094E1,2.23981E2,3.1114835E2,8.739364E0,1.7593529E2,7.570346E2,1.1606888E1,9.40333E1,8.970351E1,6.3140953E1,1.4502799E1,1.0818375E1,6.819404E1,1.6890675E2,1.06731606E2,8.1254785E2,3.6572424E2,6.897857E0,1.760969E1,1.5554666E1,1.387569E2,6.218078E1,4.0029273E0,3.3917053E0,8.267389E0,1.1671875E2,1.0726225E2,4.7391963E0,4.000168E0,1.3873544E1,1.6206174E2,7.538375E2,3.197096E0,4.734174E0,6.872714E0,7.339125E1,2.0642052E1,4.5184895E1,4.451861E1,5.770459E1,5.436363E0,6.5453053E0,4.273069E0,9.444518E1,7.446156E1,1.0253701E2,4.194599E0,1.7400609E2,6.3854175E2,1.9934517E2,1.6637907E2,3.6755843E0,3.2222729E0,1.4147475E1,3.462214E0,3.6354928E0,1.1919172E1,4.800748E1,1.4173297E1,7.221717E1,4.4501583E1,6.8093143E0,7.0642295E0],"tree_param":{"num_deleted":"0","num_feature":"10","num_nodes":"87","size_leaf_vector":"1"}},{"base_weights":[-1.3674385E-3,-4.718266E-1,9.9581003E-1,-6.0687584E-1,9.3761337E-1,-4.2755347E-1,1.2313914E0,-6.157558E-1,5.3818293E-2,1.7591155E-1,1.1545106E0,-5.504822E-1,5.5325896E-1,7.159091E-1,1.3293118E0,-3.1416684E-2,-5.029699E-1,-2.999425E-2,5.5076206E-1,-5.7778186E-1,9.000846E-1,4.7919035E-1,6.8471335E-2,-6.019645E-1,2.3891248E-1,-3.192913E-1,1.2563939E0,-2.8784614E-2,9.6121657E-1,7.977391E-3,6.662862E-2,-6.0587764E-1,3.8694248E-2,-4.2902645E-2,6.469395E-2,-3.117711E-2,-4.600919E-3,2.2565748E-1,6.615904E-2,-4.519711E-1,6.786114E-2,-3.168588E-2,-3.2616132E-1,-2.1461229E-1,4.957475E-2,-2.774933E-2,1.168371E-2,2.6284888E-2,7.142523E-2,-2.532996E-1,6.0213685E-2,-2.806964E-2,1.0340593E0,-3.1512093E-2,-7.5241625E-3,-2.2607718E-2,3.5346266E-2,-2.1498937E-2,3.7429344E-2,-2.0053845E-2,4.7257278E-2,-3.081337E-2,2.7468551E-2,-3.0102124E-2,1.5046567E-2,-2.6443062E-2,1.1609521E-2,1.3044879E-2,-2.745138E-2,3.8839653E-2,6.803251E-2],"categories":[],"categories_nodes":[],"categories_segments":[],"categories_sizes":[],"default_left":[0,0,0,0,0,0,0,0,0,0,0,0,0,0,0,0,0,0,0,0,0,0,0,0,0,0,0,0,0,0,0,0,0,0,0,0,0,0,0,0,0,0,0,0,0,0,0,0,0,0,0,0,0,0,0,0,0,0,0,0,0,0,0,0,0,0,0,0,0,0,0],"id":20,"left_children":[1,3,5,7,9,11,13,15,17,19,21,23,25,27,29,-1,31,-1,33,35,37,39,-1,41,43,45,47,49,51,-1,-1,53,55,57,-1,-1,-1,59,-1,61,-1,-1,63,65,-1,-1,-1,-1,-1,67,-1,-1,69,-1,-1,-1,-1,-1,-1,-1,-1,-1,-1,-1,-1,-1,-1,-1,-1,-1,-1],"loss_changes":[2.197616E3,6.063919E2,5.0411707E2,1.7134644E1,4.56989E1,2.6096378E1,6.3891113E1,3.6379395E0,1.3092485E1,3.4960213E1,3.05961E1,7.9295197E0,1.5362417E1,3.81267E1,3.7636719E0,0E0,1.6438065E1,0E0,1.0298986E1,5.697632E-1,8.851322E0,4.480622E1,0E0,1.2685547E0,4.4789314E0,1.6668484E0,7.747097E-1,1.4722136E1,1.7999329E1,0E0,0E0,2.5656738E0,1.5969933E1,4.4697976E0,0E0,0E0,0E0,6.6866665E0,0E0,4.766435E0,0E0,0E0,3.8285854E0,1.3313649E0,0E0,0E0,0E0,0E0,0E0,7.051528E0,0E0,0E0,1.1323166E1,0E0,0E0,0E0,0E0,0E0,0E0,0E0,0E0,0E0,0E0,0E0,0E0,0E0,0E0,0E0,0E0,0E0,0E0],"parents":[2147483647,0,0,1,1,2,2,3,3,4,4,5,5,6,6,7,7,8,8,9,9,10,10,11,11,12,12,13,13,14,14,16,16,18,18,19,19,20,20,21,21,23,23,24,24,25,25,26,26,27,27,28,28,31,31,32,32,33,33,37,37,39,39,42,42,43,43,49,49,52,52],"right_children":[2,4,6,8,10,12,14,16,18,20,22,24,26,28,30,-1,32,-1,34,36,38,40,-1,42,44,46,48,50,52,-1,-1,54,56,58,-1,-1,-1,60,-1,62,-1,-1,64,66,-1,-1,-1,-1,-1,68,-1,-1,70,-1,-1,-1,-1,-1,-1,-1,-1,-1,-1,-1,-1,-1,-1,-1,-1,-1,-1],"split_conditions":[6.5E0,3E0,2E0,2.27E1,1.6E2,1.39E2,1.3E2,1.64E2,5.7E0,5.7E0,6.5E1,1.455E1,2.49E1,7.5E0,2.4E1,-3.1416684E-2,1E0,-2.999425E-2,1.61E2,2.88E1,1.569E1,5.7E0,6.8471335E-2,1.256E1,1.3E2,1.071E1,7.9E0,3E0,6.22E0,7.977391E-3,6.662862E-2,3.01E1,5.7E0,1E0,6.469395E-2,-3.117711E-2,-4.600919E-3,6.5E1,6.615904E-2,2.76E1,6.786114E-2,-3.168588E-2,1.3E2,8.9E0,4.957475E-2,-2.774933E-2,1.168371E-2,2.6284888E-2,7.142523E-2,5.6E1,6.0213685E-2,-2.806964E-2,2.45E1,-3.1512093E-2,-7.5241625E-3,-2.2607718E-2,3.5346266E-2,-2.1498937E-2,3.7429344E-2,-2.0053845E-2,4.7257278E-2,-3.081337E-2,2.7468551E-2,-3.0102124E-2,1.5046567E-2,-2.6443062E-2,1.1609521E-2,1.3044879E-2,-2.745138E-2,3.8839653E-2,6.803251E-2],"split_indices":[2,7,7,8,3,3,3,3,2,2,0,8,1,2,0,0,4,0,3,1,8,2,0,8,3,8,2,7,8,0,0,1,2,4,0,0,0,0,0,1,0,0,3,2,0,0,0,0,0,0,0,0,1,0,0,0,0,0,0,0,0,0,0,0,0,0,0,0,0,0,0],"split_type":[0,0,0,0,0,0,0,0,0,0,0,0,0,0,0,0,0,0,0,0,0,0,0,0,0,0,0,0,0,0,0,0,0,0,0,0,0,0,0,0,0,0,0,0,0,0,0,0,0,0,0,0,0,0,0,0,0,0,0,0,0,0,0,0,0,0,0,0,0,0,0],"sum_hessian":[4.682547E3,3.1819563E3,1.5005906E3,2.9043123E3,2.77644E2,2.1291803E2,1.2876726E3,2.8660115E3,3.830077E1,6.204076E1,2.1560326E2,1.8968486E2,2.3233177E1,2.0704701E2,1.0806256E3,2.5735513E3,2.924604E2,1.6365044E1,2.1935728E1,3.043214E1,3.160862E1,5.294179E1,1.6266147E2,1.7841333E2,1.1271534E1,1.054773E1,1.2685447E1,5.1420845E1,1.5562617E2,3.2277083E0,1.0773978E3,2.4582379E2,4.6636597E1,1.2643071E1,9.292657E0,2.7364801E1,3.0673382E0,1.2867372E1,1.874125E1,2.5873774E1,2.7068018E1,1.5850444E2,1.9908882E1,7.396299E0,3.8752353E0,7.519722E0,3.0280085E0,3.3020456E0,9.383401E0,4.4241108E1,7.1797357E0,6.7364426E0,1.4888972E2,2.327669E2,1.3056877E1,2.6987013E1,1.9649584E1,8.882297E0,3.7607746E0,7.0392017E0,5.82817E0,2.2643023E1,3.2307525E0,1.3964706E1,5.9441767E0,4.3658376E0,3.0304613E0,1.6073292E1,2.8167816E1,8.534523E1,6.3544502E1],"tree_param":{"num_deleted":"0","num_feature":"10","num_nodes":"71","size_leaf_vector":"1"}},{"base_weights":[2.3617267E-3,-3.158089E-2,1.7904729E-1,3.1433666E-1,-4.0135282E-1,-5.7066128E-2,6.5417486E-1,4.059586E-1,-5.961651E-1,-3.519673E-1,1.1931838E0,1.0973808E0,-2.5403076E-1,1.3241954E0,-1.3921763E-1,-8.943149E-2,-6.131717E-1,-5.4252815E-1,4.1173156E-2,1.2365795E0,4.0881318E-1,9.2932105E-1,1.2436523E0,1.1816155E-1,-4.1604477E-1,6.940004E-2,1.3291958E-2,4.302206E-2,-3.851264E-1,2.9125452E-1,-2.3040365E-2,-5.0541353E-1,-3.1532522E-2,-3.0575713E-2,-1.7195689E-2,-2.424023E-2,1.52257625E-2,1.1095716E-2,6.2656075E-2,4.978817E-2,-5.787363E-3,3.4388937E-2,5.845458E-2,6.4947136E-2,3.3688445E-2,4.4749495E-2,4.3870602E-4,3.8783707E-2,-2.3248501E-2,6.5810354E-3,-2.6421262E-2,-1.1431581E-2,-2.4800304E-2,2.7710808E-2,-9.801247E-3,-1.3135629E-2,-3.0201543E-2],"categories":[],"categories_nodes":[],"categories_segments":[],"categories_sizes":[],"default_left":[0,0,0,0,0,0,0,0,0,0,0,0,0,0,0,0,0,0,0,0,0,0,0,0,0,0,0,0,0,0,0,0,0,0,0,0,0,0,0,0,0,0,0,0,0,0,0,0,0,0,0,0,0,0,0,0,0],"id":21,"left_children":[1,-1,3,5,7,9,11,13,15,17,19,21,23,25,27,29,31,33,35,37,39,41,43,45,47,-1,-1,49,51,53,-1,55,-1,-1,-1,-1,-1,-1,-1,-1,-1,-1,-1,-1,-1,-1,-1,-1,-1,-1,-1,-1,-1,-1,-1,-1,-1],"loss_changes":[5.281547E2,0E0,2.8969193E2,3.7766147E2,1.0994728E2,5.276132E2,6.29222E2,6.842125E1,4.7211E0,8.682597E1,8.626007E0,2.4443115E1,3.101939E1,2.8998718E0,3.9145555E0,2.9252594E0,5.917511E-1,1.0383957E1,5.259903E1,3.9077148E0,5.1086683E0,2.7560638E1,1.651648E1,1.3175425E1,2.1196968E1,0E0,0E0,2.5707238E0,4.5671892E-1,1.4475026E0,0E0,1.7105503E0,0E0,0E0,0E0,0E0,0E0,0E0,0E0,0E0,0E0,0E0,0E0,0E0,0E0,0E0,0E0,0E0,0E0,0E0,0E0,0E0,0E0,0E0,0E0,0E0,0E0],"parents":[2147483647,0,0,2,2,3,3,4,4,5,5,6,6,7,7,8,8,9,9,10,10,11,11,12,12,13,13,14,14,15,15,16,16,17,17,18,18,19,19,20,20,21,21,22,22,23,23,24,24,27,27,28,28,29,29,31,31],"right_children":[2,-1,4,6,8,10,12,14,16,18,20,22,24,26,28,30,32,34,36,38,40,42,44,46,48,-1,-1,50,52,54,-1,56,-1,-1,-1,-1,-1,-1,-1,-1,-1,-1,-1,-1,-1,-1,-1,-1,-1,-1,-1,-1,-1,-1,-1,-1,-1],"split_conditions":[1E0,-3.158089E-2,3E0,2E0,5.7E0,6.5E0,6.5E0,6.5E1,1.69E0,1.75E0,1.455E1,6.5E1,7.5E0,3.05E1,7.5E1,6.5E1,6.5E0,1E0,9.62E0,4.1E0,9.51E0,1.2E0,3.02E1,4E1,6.53E0,6.940004E-2,1.3291958E-2,2.88E1,2.35E1,1.59E0,-2.3040365E-2,6.4E1,-3.1532522E-2,-3.0575713E-2,-1.7195689E-2,-2.424023E-2,1.52257625E-2,1.1095716E-2,6.2656075E-2,4.978817E-2,-5.787363E-3,3.4388937E-2,5.845458E-2,6.4947136E-2,3.3688445E-2,4.4749495E-2,4.3870602E-4,3.8783707E-2,-2.3248501E-2,6.5810354E-3,-2.6421262E-2,-1.1431581E-2,-2.4800304E-2,2.7710808E-2,-9.801247E-3,-1.3135629E-2,-3.0201543E-2],"split_indices":[7,0,7,7,2,2,2,0,9,9,8,0,2,1,0,0,2,6,8,8,9,9,1,0,8,0,0,1,1,9,0,0,0,0,0,0,0,0,0,0,0,0,0,0,0,0,0,0,0,0,0,0,0,0,0,0,0],"split_type":[0,0,0,0,0,0,0,0,0,0,0,0,0,0,0,0,0,0,0,0,0,0,0,0,0,0,0,0,0,0,0,0,0,0,0,0,0,0,0,0,0,0,0,0,0,0,0,0,0,0,0,0,0,0,0,0,0],"sum_hessian":[4.7134287E3,1.0266136E3,3.686815E3,2.9903945E3,6.964204E2,1.429098E3,1.5612965E3,1.3507327E2,5.6134717E2,1.1569923E3,2.7210568E2,1.0491913E3,5.1210535E2,4.9855858E1,8.521741E1,1.8621866E1,5.427253E2,7.791847E2,3.7780762E2,2.571734E2,1.4932301E1,4.9197284E2,5.572184E2,1.552061E2,3.5689923E2,4.663821E1,3.2176454E0,4.9185265E1,3.6032143E1,9.169235E0,9.452631E0,8.071931E1,4.6200598E2,5.763979E2,2.0278677E2,1.2564132E2,2.521663E2,4.4536285E0,2.5271977E2,6.7131085E0,8.2191925E0,2.4721574E2,2.4475708E2,5.0661185E2,5.0606537E1,1.81581E1,1.3704799E2,1.3408065E1,3.4349115E2,4.340094E1,5.7843266E0,1.6586264E1,1.9445879E1,5.9994626E0,3.1697729E0,2.4673893E1,5.6045418E1],"tree_param":{"num_deleted":"0","num_feature":"10","num_nodes":"57","size_leaf_vector":"1"}},{"base_weights":[-3.5008084E-4,1.155304E0,-4.9366698E-1,1.2515682E0,3.4824702E-1,-1.1134164E-1,-6.2113583E-1,1.2911035E0,2.8548715E-1,8.734299E-1,-4.75834E-1,5.94314E-1,-6.1333334E-1,-5.2252895E-1,-3.1632107E-2,1.3318115E0,1.0348806E0,9.059794E-1,-2.9807508E-2,1.1142102E0,-3.029551E-2,-7.373963E-2,-3.0297628E-2,1.1926099E0,1.9406792E-2,-4.206182E-1,-3.1623416E-2,-3.2558194E-1,-3.1570252E-2,1.3357428E0,1.4463234E-2,1.2997342E0,5.946802E-1,6.287107E-2,1.497279E-1,1.2522625E0,-2.6619181E-2,-2.806232E-2,4.7036397E-1,1.300458E0,-2.9701738E-2,3.7400723E-1,-3.144181E-2,-5.6077844E-1,3.3289548E-2,-3.151777E-2,2.0670536E-1,6.710395E-2,2.8678296E-2,6.778847E-2,7.187334E-3,6.2668815E-2,-2.835618E-2,4.047346E-2,-2.7396778E-2,6.746653E-2,4.6221826E-2,5.0132126E-2,-7.5904937E-3,7.055748E-2,2.3586158E-2,-2.5995282E-2,5.167098E-2,-7.784597E-3,-3.064375E-2,3.933115E-2,-2.9685099E-2],"categories":[],"categories_nodes":[],"categories_segments":[],"categories_sizes":[],"default_left":[0,0,0,0,0,0,0,0,0,0,0,0,0,0,0,0,0,0,0,0,0,0,0,0,0,0,0,0,0,0,0,0,0,0,0,0,0,0,0,0,0,0,0,0,0,0,0,0,0,0,0,0,0,0,0,0,0,0,0,0,0,0,0,0,0,0,0],"id":22,"left_children":[1,3,5,7,9,11,13,15,17,19,21,23,25,27,-1,29,31,33,-1,35,-1,37,-1,39,41,43,-1,45,-1,47,-1,49,51,-1,53,55,-1,-1,57,59,-1,61,-1,63,-1,-1,65,-1,-1,-1,-1,-1,-1,-1,-1,-1,-1,-1,-1,-1,-1,-1,-1,-1,-1,-1,-1],"loss_changes":[2.6683381E3,1.0818701E2,1.5972418E2,4.7235474E1,6.568255E1,2.9141638E2,2.3447266E0,1.0911621E1,2.822216E1,3.3665604E1,2.9865637E0,1.1747767E2,1.4011993E0,5.352783E0,0E0,3.6827393E0,1.8795609E1,7.6789474E0,0E0,1.8910736E1,0E0,4.4664245E0,0E0,3.3112167E1,4.0549164E1,7.500334E0,0E0,1.5789405E1,0E0,4.0042725E0,0E0,6.4450684E0,5.101651E1,0E0,5.43375E0,8.8360596E-1,0E0,0E0,2.8594472E0,1.3667725E1,0E0,6.788372E1,0E0,7.170601E-1,0E0,0E0,1.7049551E1,0E0,0E0,0E0,0E0,0E0,0E0,0E0,0E0,0E0,0E0,0E0,0E0,0E0,0E0,0E0,0E0,0E0,0E0,0E0,0E0],"parents":[2147483647,0,0,1,1,2,2,3,3,4,4,5,5,6,6,7,7,8,8,9,9,10,10,11,11,12,12,13,13,15,15,16,16,17,17,19,19,21,21,23,23,24,24,25,25,27,27,29,29,31,31,32,32,34,34,35,35,38,38,39,39,41,41,43,43,46,46],"right_children":[2,4,6,8,10,12,14,16,18,20,22,24,26,28,-1,30,32,34,-1,36,-1,38,-1,40,42,44,-1,46,-1,48,-1,50,52,-1,54,56,-1,-1,58,60,-1,62,-1,64,-1,-1,66,-1,-1,-1,-1,-1,-1,-1,-1,-1,-1,-1,-1,-1,-1,-1,-1,-1,-1,-1,-1],"split_conditions":[1E0,5E1,1.3E2,1.4E2,1.17E0,1.47E0,3.9E1,1.3E2,1.22E0,1.4E2,1.62E0,4E1,1.81E0,1.4E2,-3.1632107E-2,3.55E1,4E1,2.48E1,-2.9807508E-2,2.98E1,-3.029551E-2,1.2E1,-3.0297628E-2,3E1,6.5E1,2.58E1,-3.1623416E-2,1E0,-3.1570252E-2,1.361E1,1.4463234E-2,3.01E1,1.22E0,6.287107E-2,4E1,2.51E1,-2.6619181E-2,-2.806232E-2,1.3E2,1.12E0,-2.9701738E-2,5.6E1,-3.144181E-2,1.53E0,3.3289548E-2,-3.151777E-2,1.51E0,6.710395E-2,2.8678296E-2,6.778847E-2,7.187334E-3,6.2668815E-2,-2.835618E-2,4.047346E-2,-2.7396778E-2,6.746653E-2,4.6221826E-2,5.0132126E-2,-7.5904937E-3,7.055748E-2,2.3586158E-2,-2.5995282E-2,5.167098E-2,-7.784597E-3,-3.064375E-2,3.933115E-2,-2.9685099E-2],"split_indices":[7,0,3,3,9,9,0,3,9,3,9,0,9,3,0,1,0,1,0,1,0,8,0,1,0,1,0,6,0,8,0,1,9,0,0,1,0,0,3,9,0,0,0,9,0,0,9,0,0,0,0,0,0,0,0,0,0,0,0,0,0,0,0,0,0,0,0],"split_type":[0,0,0,0,0,0,0,0,0,0,0,0,0,0,0,0,0,0,0,0,0,0,0,0,0,0,0,0,0,0,0,0,0,0,0,0,0,0,0,0,0,0,0,0,0,0,0,0,0,0,0,0,0,0,0,0,0,0,0,0,0,0,0,0,0,0,0],"sum_hessian":[4.678559E3,1.3992062E3,3.279353E3,1.2494941E3,1.4971211E2,8.206336E2,2.4587195E3,1.1999482E3,4.954588E1,9.147622E1,5.823589E1,3.4095963E2,4.79674E2,2.6268124E2,2.196038E3,1.0314808E3,1.6846736E2,2.913008E1,2.0415798E1,7.8941895E1,1.2534325E1,1.48087845E1,4.3427105E1,1.664694E2,1.7449022E2,4.587338E1,4.3380063E2,9.526474E1,1.6741652E2,1.0272302E3,4.2505946E0,1.0382165E2,6.464571E1,1.9345148E1,9.78493E0,7.31123E1,5.8295975E0,7.890935E0,6.9178495E0,1.573022E2,9.167208E0,1.1316452E2,6.1325695E1,4.1141487E1,4.731892E0,6.05812E1,3.468354E1,1.0178763E3,9.353969E0,9.8774345E1,5.0472994E0,4.1260128E1,2.3385582E1,5.02045E0,4.7644806E0,5.3770123E1,1.9342173E1,3.4853203E0,3.4325294E0,1.3804103E2,1.9261171E1,4.806565E1,6.509887E1,5.3613467E0,3.578014E1,2.0194336E1,1.4489205E1],"tree_param":{"num_deleted":"0","num_feature":"10","num_nodes":"67","size_leaf_vector":"1"}},{"base_weights":[1.0633514E-2,2.0440271E-1,-6.058552E-1,3.397355E-1,-4.6627483E-1,2.3221986E-2,-6.099214E-1,-7.678988E-2,5.6411695E-1,2.2494622E-1,-5.441331E-1,-4.6226862E-1,-3.1408764E-2,-3.2518673E-1,7.0270205E-1,6.496458E-1,2.7612698E-1,6.432513E-1,-2.8778408E-2,2.952893E-3,-5.682877E-1,-4.428392E-2,-3.1416383E-2,-5.445462E-1,6.6279566E-1,2.3488595E-1,1.3294133E0,3.1915382E-1,7.607804E-1,9.9853534E-1,3.2659937E-2,1.1368614E0,-2.46875E-1,3.768261E-1,-2.832215E-2,-3.6620978E-1,-3.127746E-2,5.453944E-1,-2.869739E-2,-2.9892324E-2,-1.331343E-2,1.51116E-2,5.8503002E-2,-2.0803198E-2,6.123665E-2,7.0270084E-2,-1.8181093E-2,-3.7219957E-3,3.6863882E-2,3.9727718E-2,1.0350995E-2,6.671498E-2,1.6811615E-2,1.3801298E-2,-2.5630558E-2,1.9638821E-2,6.8629906E-2,1.263776E-2,-2.190571E-2,5.5333357E-2,-2.0421991E-2,-2.8343296E-2,2.7187788E-3,4.4293996E-2,-2.5016213E-2],"categories":[],"categories_nodes":[],"categories_segments":[],"categories_sizes":[],"default_left":[0,0,0,0,0,0,0,0,0,0,0,0,0,0,0,0,0,0,0,0,0,0,0,0,0,0,0,0,0,0,0,0,0,0,0,0,0,0,0,0,0,0,0,0,0,0,0,0,0,0,0,0,0,0,0,0,0,0,0,0,0,0,0,0,0],"id":23,"left_children":[1,3,5,7,9,-1,11,13,15,17,19,21,-1,23,25,27,29,31,-1,33,35,37,-1,39,41,43,45,47,49,51,53,55,57,59,-1,61,-1,63,-1,-1,-1,-1,-1,-1,-1,-1,-1,-1,-1,-1,-1,-1,-1,-1,-1,-1,-1,-1,-1,-1,-1,-1,-1,-1,-1],"loss_changes":[5.6360034E2,3.259981E2,5.208008E0,2.7935156E2,3.2610886E1,0E0,2.6314087E0,2.0287955E2,4.756653E1,2.1014887E1,7.226593E0,8.79727E0,0E0,1.7256377E2,7.3763214E1,5.4612183E1,7.843596E1,1.8398792E1,0E0,5.251972E0,5.685318E0,1.2082344E1,0E0,9.408524E0,2.5972752E1,9.484429E1,1.4498108E1,6.241566E1,2.066211E1,2.4394867E1,4.4606865E1,3.9583702E0,1.5994742E0,9.1457615E0,0E0,1.0002135E1,0E0,6.979727E0,0E0,0E0,0E0,0E0,0E0,0E0,0E0,0E0,0E0,0E0,0E0,0E0,0E0,0E0,0E0,0E0,0E0,0E0,0E0,0E0,0E0,0E0,0E0,0E0,0E0,0E0,0E0],"parents":[2147483647,0,0,1,1,2,2,3,3,4,4,6,6,7,7,8,8,9,9,10,10,11,11,13,13,14,14,15,15,16,16,17,17,19,19,20,20,21,21,23,23,24,24,25,